{"learner":{"attributes":{"best_iteration":"189","best_ntree_limit":"190","scikit_learn":"{\"use_label_encoder\": false, \"n_estimators\": 190, \"objective\": \"binary:logistic\", \"max_depth\": 3, \"max_leaves\": null, \"max_bin\": null, \"grow_policy\": null, \"learning_rate\": 0.1, \"verbosity\": null, \"booster\": null, \"tree_method\": null, \"gamma\": 0.7, \"min_child_weight\": 1, \"max_delta_step\": null, \"subsample\": 1, \"sampling_method\": null, \"colsample_bytree\": 1, \"colsample_bylevel\": null, \"colsample_bynode\": null, \"reg_alpha\": 1, \"reg_lambda\": 1, \"scale_pos_weight\": null, \"base_score\": null, \"missing\": NaN, \"num_parallel_tree\": null, \"random_state\": null, \"n_jobs\": 12, \"monotone_constraints\": null, \"interaction_constraints\": null, \"importance_type\": null, \"gpu_id\": null, \"validate_parameters\": null, \"predictor\": null, \"enable_categorical\": false, \"max_cat_to_onehot\": null, \"eval_metric\": null, \"early_stopping_rounds\": null, \"callbacks\": null, \"kwargs\": {\"seed\": 1234}, \"classes_\": [0, 1], \"n_classes_\": 2, \"_estimator_type\": \"classifier\"}"},"feature_names":[],"feature_types":[],"gradient_booster":{"model":{"gbtree_model_param":{"num_parallel_tree":"1","num_trees":"190","size_leaf_vector":"0"},"tree_info":[0,0,0,0,0,0,0,0,0,0,0,0,0,0,0,0,0,0,0,0,0,0,0,0,0,0,0,0,0,0,0,0,0,0,0,0,0,0,0,0,0,0,0,0,0,0,0,0,0,0,0,0,0,0,0,0,0,0,0,0,0,0,0,0,0,0,0,0,0,0,0,0,0,0,0,0,0,0,0,0,0,0,0,0,0,0,0,0,0,0,0,0,0,0,0,0,0,0,0,0,0,0,0,0,0,0,0,0,0,0,0,0,0,0,0,0,0,0,0,0,0,0,0,0,0,0,0,0,0,0,0,0,0,0,0,0,0,0,0,0,0,0,0,0,0,0,0,0,0,0,0,0,0,0,0,0,0,0,0,0,0,0,0,0,0,0,0,0,0,0,0,0,0,0,0,0,0,0,0,0,0,0,0,0,0,0,0,0,0,0],"trees":[{"base_weights":[5.6E-1,9.459459E-1,-2.857143E-1,9.836066E-2,1.1297071E0,4.117647E-1,-1.0144928E0,6.666667E-1,-4.827586E-1,1.3863636E0,3.283582E-1,-2.857143E-1,9.0909094E-1,-1.3103448E0,1.3333334E-1],"categories":[],"categories_nodes":[],"categories_segments":[],"categories_sizes":[],"default_left":[1,1,1,1,1,1,1,0,0,0,0,0,0,0,0],"id":0,"left_children":[1,3,5,7,9,11,13,-1,-1,-1,-1,-1,-1,-1,-1],"loss_changes":[3.5610504E1,1.0186554E1,1.7921692E1,5.5421143E0,1.0118919E1,6.7799845E0,7.2095947E0,0E0,0E0,0E0,0E0,0E0,0E0,0E0,0E0],"parents":[2147483647,0,0,1,1,2,2,3,3,4,4,5,5,6,6],"right_children":[2,4,6,8,10,12,14,-1,-1,-1,-1,-1,-1,-1,-1],"split_conditions":[2.5895E3,5.91E2,2.5975E3,7.105E2,6.685E2,3.985E2,2.295E2,6.666667E-2,-4.8275862E-2,1.3863637E-1,3.2835823E-2,-2.857143E-2,9.090909E-2,-1.3103448E-1,1.3333335E-2],"split_indices":[23,51,49,26,20,31,10,0,0,0,0,0,0,0,0],"split_type":[0,0,0,0,0,0,0,0,0,0,0,0,0,0,0],"sum_hessian":[1.0525E2,7.3E1,3.225E1,1.425E1,5.875E1,1.6E1,1.625E1,8E0,6.25E0,4.3E1,1.575E1,6E0,1E1,1.35E1,2.75E0],"tree_param":{"num_deleted":"0","num_feature":"72","num_nodes":"15","size_leaf_vector":"0"}},{"base_weights":[5.07726E-1,8.579821E-1,-2.5647318E-1,1.011629E0,-0E0,3.6888322E-1,-9.172954E-1,-0E0,1.1254581E0,7.077641E-1,-6.181931E-1,7.884079E-1,-3.6463043E-1,-1.1932769E0,1.23559766E-1],"categories":[],"categories_nodes":[],"categories_segments":[],"categories_sizes":[],"default_left":[1,1,1,1,1,1,1,0,0,0,0,0,0,0,0],"id":1,"left_children":[1,3,5,7,9,11,13,-1,-1,-1,-1,-1,-1,-1,-1],"loss_changes":[2.9180044E1,9.448196E0,1.4594368E1,7.5695686E0,5.921057E0,5.93589E0,6.1557026E0,0E0,0E0,0E0,0E0,0E0,0E0,0E0,0E0],"parents":[2147483647,0,0,1,1,2,2,3,3,4,4,5,5,6,6],"right_children":[2,4,6,8,10,12,14,-1,-1,-1,-1,-1,-1,-1,-1],"split_conditions":[2.5895E3,1.3825E3,2.5975E3,7.92E2,7.11E2,7.125E2,2.295E2,-0E0,1.1254581E-1,7.077641E-2,-6.181931E-2,7.884079E-2,-3.6463045E-2,-1.1932769E-1,1.2355977E-2],"split_indices":[23,15,49,62,26,17,10,0,0,0,0,0,0,0,0],"split_type":[0,0,0,0,0,0,0,0,0,0,0,0,0,0,0],"sum_hessian":[1.0494752E2,7.2777275E1,3.217024E1,6.1300686E1,1.1476591E1,1.5978144E1,1.6192095E1,5.9888988E0,5.531179E1,5.490056E0,5.986535E0,1.0984277E1,4.993867E0,1.3442216E1,2.7498777E0],"tree_param":{"num_deleted":"0","num_feature":"72","num_nodes":"15","size_leaf_vector":"0"}},{"base_weights":[4.6034047E-1,-2.3577905E-1,7.957672E-1,3.3891216E-1,-7.5452846E-1,9.8912424E-1,-0E0,6.4027786E-1,-7.312117E-1,-1.0579015E0,1.2347157E-2,1.0703882E0,-4.259479E-1,5.665622E-1,-6.0787845E-1],"categories":[],"categories_nodes":[],"categories_segments":[],"categories_sizes":[],"default_left":[1,1,1,1,1,1,1,0,0,0,0,0,0,0,0],"id":2,"left_children":[1,3,5,7,9,11,13,-1,-1,-1,-1,-1,-1,-1,-1],"loss_changes":[2.5324331E1,1.0815681E1,1.1579227E1,5.5110617E0,5.504259E0,7.837223E0,5.4069543E0,0E0,0E0,0E0,0E0,0E0,0E0,0E0,0E0],"parents":[2147483647,0,0,1,1,2,2,3,3,4,4,5,5,6,6],"right_children":[2,4,6,8,10,12,14,-1,-1,-1,-1,-1,-1,-1,-1],"split_conditions":[5.91E2,1.12E3,1.7025E3,1.4645E3,2.4045E3,7.535E2,1.125E3,6.4027786E-2,-7.3121175E-2,-1.0579015E-1,1.2347157E-3,1.0703882E-1,-4.259479E-2,5.665622E-2,-6.0787845E-2],"split_indices":[51,3,35,6,33,54,56,0,0,0,0,0,0,0,0],"split_type":[0,0,0,0,0,0,0,0,0,0,0,0,0,0,0],"sum_hessian":[1.0425494E2,3.302764E1,7.1227295E1,1.4918879E1,1.8108765E1,5.7584194E1,1.3643097E1,1.2683213E1,2.2356658E0,1.3638085E1,4.470678E0,5.535553E1,2.2286673E0,6.6957183E0,6.9473786E0],"tree_param":{"num_deleted":"0","num_feature":"72","num_nodes":"15","size_leaf_vector":"0"}},{"base_weights":[4.164963E-1,7.17669E-1,-2.3105188E-1,9.4582945E-1,1.7276303E-1,3.0955815E-1,-8.146431E-1,-2.500151E-1,1.047254E0,5.070264E-1,-4.4490206E-1,-2.851085E-1,7.5421846E-1,-1.0712227E0,1.0993687E-1],"categories":[],"categories_nodes":[],"categories_segments":[],"categories_sizes":[],"default_left":[1,1,1,1,1,1,1,0,0,0,0,0,0,0,0],"id":3,"left_children":[1,3,5,7,9,11,13,-1,-1,-1,-1,-1,-1,-1,-1],"loss_changes":[2.10154E1,7.7396355E0,1.1120764E1,7.078697E0,5.229067E0,5.1495457E0,5.102709E0,0E0,0E0,0E0,0E0,0E0,0E0,0E0,0E0],"parents":[2147483647,0,0,1,1,2,2,3,3,4,4,5,5,6,6],"right_children":[2,4,6,8,10,12,14,-1,-1,-1,-1,-1,-1,-1,-1],"split_conditions":[2.5895E3,5.105E2,2.5975E3,1.009E3,1.0695E3,3.985E2,2.295E2,-2.5001511E-2,1.047254E-1,5.070264E-2,-4.4490207E-2,-2.8510852E-2,7.542185E-2,-1.07122265E-1,1.0993687E-2],"split_indices":[23,46,49,18,71,31,10,0,0,0,0,0,0,0,0],"split_type":[0,0,0,0,0,0,0,0,0,0,0,0,0,0,0],"sum_hessian":[1.0341268E2,7.156433E1,3.1848352E1,4.8630886E1,2.2933441E1,1.5887238E1,1.5961116E1,2.9167225E0,4.5714165E1,1.604724E1,6.8862004E0,5.9884677E0,9.89877E0,1.3216408E1,2.7447078E0],"tree_param":{"num_deleted":"0","num_feature":"72","num_nodes":"15","size_leaf_vector":"0"}},{"base_weights":[3.7856117E-1,-2.199647E-1,6.722185E-1,2.7149734E-1,-6.720507E-1,8.4072864E-1,-5.9664957E-2,5.816919E-1,-6.243891E-1,-8.726223E-1,3.6083692E-1,9.422086E-1,-5.82061E-2,4.9883115E-1,-5.4929566E-1],"categories":[],"categories_nodes":[],"categories_segments":[],"categories_sizes":[],"default_left":[1,1,1,1,1,1,1,0,0,0,0,0,0,0,0],"id":4,"left_children":[1,3,5,7,9,11,13,-1,-1,-1,-1,-1,-1,-1,-1],"loss_changes":[1.8756977E1,8.056042E0,9.546865E0,4.702387E0,4.7352276E0,6.2864227E0,3.8928084E0,0E0,0E0,0E0,0E0,0E0,0E0,0E0,0E0],"parents":[2147483647,0,0,1,1,2,2,3,3,4,4,5,5,6,6],"right_children":[2,4,6,8,10,12,14,-1,-1,-1,-1,-1,-1,-1,-1],"split_conditions":[5.91E2,1.12E3,2.016E3,4.155E2,1.4775E3,7.395E2,6.155E2,5.8169194E-2,-6.2438913E-2,-8.7262236E-2,3.6083695E-2,9.422086E-2,-5.82061E-3,4.9883116E-2,-5.4929566E-2],"split_indices":[51,3,40,22,15,54,51,0,0,0,0,0,0,0,0],"split_type":[0,0,0,0,0,0,0,0,0,0,0,0,0,0,0],"sum_hessian":[1.0230394E2,3.263455E1,6.966939E1,1.4767888E1,1.7866661E1,5.7620388E1,1.2049E1,1.2059343E1,2.7085445E0,1.59020405E1,1.9646207E0,5.2731827E1,4.888561E0,4.665809E0,7.38319E0],"tree_param":{"num_deleted":"0","num_feature":"72","num_nodes":"15","size_leaf_vector":"0"}},{"base_weights":[3.4448236E-1,5.862498E-1,-2.9786214E-1,7.3031074E-1,-4.759486E-1,-0E0,-1.0944227E0,7.925182E-1,-3.7613603E-1,-8.060602E-1,2.9299465E-1,3.349041E-1,-8.7542707E-1,-1.3890511E0,-0E0],"categories":[],"categories_nodes":[],"categories_segments":[],"categories_sizes":[],"default_left":[1,1,1,1,1,1,1,0,0,0,0,0,0,0,0],"id":5,"left_children":[1,3,5,7,9,11,13,-1,-1,-1,-1,-1,-1,-1,-1],"loss_changes":[1.6316433E1,1.2175907E1,7.4722013E0,5.3829384E0,2.985414E0,5.734439E0,3.7256994E0,0E0,0E0,0E0,0E0,0E0,0E0,0E0,0E0],"parents":[2147483647,0,0,1,1,2,2,3,3,4,4,5,5,6,6],"right_children":[2,4,6,8,10,12,14,-1,-1,-1,-1,-1,-1,-1,-1],"split_conditions":[9.985E2,1.8185E3,5.435E2,4.235E2,7.345E2,5.275E2,6.72E2,7.925182E-2,-3.7613604E-2,-8.060602E-2,2.9299466E-2,3.3490412E-2,-8.7542705E-2,-1.3890511E-1,-0E0],"split_indices":[70,8,46,9,47,57,38,0,0,0,0,0,0,0,0],"split_type":[0,0,0,0,0,0,0,0,0,0,0,0,0,0,0],"sum_hessian":[1.010839E2,7.463623E1,2.644767E1,6.682673E1,7.809496E0,1.9176062E1,7.2716084E0,6.439385E1,2.4328763E0,6.3399405E0,1.4695555E0,1.5041156E1,4.1349063E0,6.0657535E0,1.2058547E0],"tree_param":{"num_deleted":"0","num_feature":"72","num_nodes":"15","size_leaf_vector":"0"}},{"base_weights":[3.1077534E-1,5.586478E-1,-2.4082315E-1,6.7736316E-1,-1.5865286E-1,6.1095196E-1,-6.433246E-1,-0E0,8.169842E-1,-9.3807167E-1,9.4128944E-2,1.2272235E0,-1.7705499E-1,1.07565574E-1,-9.014848E-1],"categories":[],"categories_nodes":[],"categories_segments":[],"categories_sizes":[],"default_left":[1,1,1,1,1,1,1,0,0,0,0,0,0,0,0],"id":6,"left_children":[1,3,5,7,9,11,13,-1,-1,-1,-1,-1,-1,-1,-1],"loss_changes":[1.4246368E1,6.6857853E0,1.0960155E1,5.518112E0,2.8470883E0,5.9179506E0,5.1849575E0,0E0,0E0,0E0,0E0,0E0,0E0,0E0,0E0],"parents":[2147483647,0,0,1,1,2,2,3,3,4,4,5,5,6,6],"right_children":[2,4,6,8,10,12,14,-1,-1,-1,-1,-1,-1,-1,-1],"split_conditions":[5.525E2,1.077E3,6.525E2,3.425E2,5.12E2,1.038E3,1.733E3,-0E0,8.169842E-2,-9.380717E-2,9.412895E-3,1.2272235E-1,-1.7705498E-2,1.0756558E-2,-9.014848E-2],"split_indices":[39,16,17,9,53,36,8,0,0,0,0,0,0,0,0],"split_type":[0,0,0,0,0,0,0,0,0,0,0,0,0,0,0],"sum_hessian":[9.988789E1,7.0160095E1,2.9727798E1,6.1441196E1,8.7189E0,8.576284E0,2.1151514E1,1.1251199E1,5.019E1,2.4401162E0,6.278784E0,5.211897E0,3.3643873E0,4.569715E0,1.6581799E1],"tree_param":{"num_deleted":"0","num_feature":"72","num_nodes":"15","size_leaf_vector":"0"}},{"base_weights":[2.8401235E-1,-2.1304902E-1,5.3602177E-1,1.7371E-2,-8.8429564E-1,7.7608466E-1,2.7548792E-2,3.6384636E-1,-9.158179E-1,1.4258525E-1,-1.252653E0,8.8631946E-1,-1.4749879E-1,3.7127337E-1,-7.6839674E-1],"categories":[],"categories_nodes":[],"categories_segments":[],"categories_sizes":[],"default_left":[1,1,1,1,1,1,1,0,0,0,0,0,0,0,0],"id":7,"left_children":[1,3,5,7,9,11,13,-1,-1,-1,-1,-1,-1,-1,-1],"loss_changes":[1.2930326E1,5.9761744E0,7.4510593E0,7.667053E0,4.8990192E0,5.418806E0,6.4862266E0,0E0,0E0,0E0,0E0,0E0,0E0,0E0,0E0],"parents":[2147483647,0,0,1,1,2,2,3,3,4,4,5,5,6,6],"right_children":[2,4,6,8,10,12,14,-1,-1,-1,-1,-1,-1,-1,-1],"split_conditions":[5.91E2,7.535E2,6.685E2,4.55E2,5.32E2,2.613E3,1.068E3,3.638464E-2,-9.158179E-2,1.4258525E-2,-1.252653E-1,8.863195E-2,-1.4749879E-2,3.712734E-2,-7.683968E-2],"split_indices":[51,67,20,31,53,23,71,0,0,0,0,0,0,0,0],"split_type":[0,0,0,0,0,0,0,0,0,0,0,0,0,0,0],"sum_hessian":[9.873447E1,3.19342E1,6.680027E1,2.3389574E1,8.544625E0,4.36833E1,2.3116966E1,1.8283104E1,5.1064715E0,1.7009624E0,6.843663E0,4.0028736E1,3.6545656E0,1.739496E1,5.722004E0],"tree_param":{"num_deleted":"0","num_feature":"72","num_nodes":"15","size_leaf_vector":"0"}},{"base_weights":[2.570469E-1,9.497073E-1,7.235124E-2,-9.292739E-2,1.0745482E0,2.2294539E-1,-6.423291E-1,-0E0,1.1941069E0,4.3993738E-1,-3.748575E-1,3.6888662E-1,-9.1304725E-1],"categories":[],"categories_nodes":[],"categories_segments":[],"categories_sizes":[],"default_left":[1,1,1,0,1,1,1,0,0,0,0,0,0],"id":8,"left_children":[1,3,5,-1,7,9,11,-1,-1,-1,-1,-1,-1],"loss_changes":[1.1502176E1,3.619629E0,8.32701E0,0E0,3.016573E0,9.040648E0,4.4436374E0,0E0,0E0,0E0,0E0,0E0,0E0],"parents":[2147483647,0,0,1,1,2,2,4,4,5,5,6,6],"right_children":[2,4,6,-1,8,10,12,-1,-1,-1,-1,-1,-1],"split_conditions":[6.615E2,1.0635E3,5.435E2,-9.292739E-3,6.065E2,7.185E2,7.125E2,-0E0,1.1941069E-1,4.3993738E-2,-3.748575E-2,3.6888663E-2,-9.130473E-2],"split_indices":[54,64,46,0,25,21,1,0,0,0,0,0,0],"split_type":[0,0,0,0,0,0,0,0,0,0,0,0,0],"sum_hessian":[9.743519E1,1.8499723E1,7.893546E1,1.149005E0,1.735072E1,6.692138E1,1.2014089E1,1.3751608E0,1.5975558E1,5.052027E1,1.6401106E1,1.6804794E0,1.033361E1],"tree_param":{"num_deleted":"0","num_feature":"72","num_nodes":"13","size_leaf_vector":"0"}},{"base_weights":[2.3375417E-1,3.8031125E-1,-4.886736E-1,-2.9408962E-1,5.170058E-1,-7.1927524E-1,4.318258E-1,-7.154986E-1,1.3638614E-1,7.180114E-1,-0E0,-1.1986418E0,-0E0],"categories":[],"categories_nodes":[],"categories_segments":[],"categories_sizes":[],"default_left":[1,1,1,1,1,1,0,0,0,0,0,0,0],"id":9,"left_children":[1,3,5,7,9,11,-1,-1,-1,-1,-1,-1,-1],"loss_changes":[1.0369381E1,7.98271E0,3.9266412E0,3.091679E0,6.6731796E0,5.077585E0,0E0,0E0,0E0,0E0,0E0,0E0,0E0],"parents":[2147483647,0,0,1,1,2,2,3,3,4,4,5,5],"right_children":[2,4,6,8,10,12,-1,-1,-1,-1,-1,-1,-1],"split_conditions":[1.4595E3,6.215E2,1.9225E3,2.3775E3,1.1095E3,2.18E2,4.3182578E-2,-7.154986E-2,1.3638615E-2,7.180114E-2,-0E0,-1.1986418E-1,-0E0],"split_indices":[6,44,8,42,3,10,0,0,0,0,0,0,0],"split_type":[0,0,0,0,0,0,0,0,0,0,0,0,0],"sum_hessian":[9.620624E1,8.152521E1,1.4681026E1,1.2312555E1,6.9212654E1,1.27835E1,1.8975261E0,7.0610886E0,5.251467E0,4.834759E1,2.0865063E1,7.4974008E0,5.286099E0],"tree_param":{"num_deleted":"0","num_feature":"72","num_nodes":"13","size_leaf_vector":"0"}},{"base_weights":[2.1393438E-1,8.483564E-1,4.9329765E-2,-1.1442751E-1,9.758807E-1,3.2038006E-1,-2.4009998E-1,-0E0,1.0968715E0,5.589219E-1,-3.9329755E-1,-6.1824536E-1,4.919256E-2],"categories":[],"categories_nodes":[],"categories_segments":[],"categories_sizes":[],"default_left":[1,1,1,0,1,1,1,0,0,0,0,0,0],"id":10,"left_children":[1,3,5,-1,7,9,11,-1,-1,-1,-1,-1,-1],"loss_changes":[9.080019E0,3.2386627E0,6.3150587E0,0E0,2.720621E0,7.6627054E0,4.6194377E0,0E0,0E0,0E0,0E0,0E0,0E0],"parents":[2147483647,0,0,1,1,2,2,4,4,5,5,6,6],"right_children":[2,4,6,-1,8,10,12,-1,-1,-1,-1,-1,-1],"split_conditions":[6.615E2,1.0635E3,5.115E2,-1.1442751E-2,6.065E2,7.175E2,9.115E2,-0E0,1.0968715E-1,5.5892188E-2,-3.9329756E-2,-6.1824538E-2,4.919256E-3],"split_indices":[54,64,46,0,25,21,34,0,0,0,0,0,0],"split_type":[0,0,0,0,0,0,0,0,0,0,0,0,0],"sum_hessian":[9.494628E1,1.745229E1,7.7493996E1,1.1360888E0,1.63162E1,4.1746563E1,3.574743E1,1.3481555E0,1.4968044E1,3.2501274E1,9.24529E0,1.649968E1,1.924775E1],"tree_param":{"num_deleted":"0","num_feature":"72","num_nodes":"13","size_leaf_vector":"0"}},{"base_weights":[1.942392E-1,3.2682562E-1,-4.4264466E-1,4.7157964E-1,-2.6528502E-1,-6.6472965E-1,4.0540132E-1,6.647673E-1,-0E0,-6.1266285E-1,4.0938404E-1,-1.1157883E0,-0E0],"categories":[],"categories_nodes":[],"categories_segments":[],"categories_sizes":[],"default_left":[1,1,1,1,1,1,0,0,0,0,0,0,0],"id":11,"left_children":[1,3,5,7,9,11,-1,-1,-1,-1,-1,-1,-1],"loss_changes":[8.037806E0,7.2205954E0,3.4419982E0,6.220356E0,3.9866154E0,4.357455E0,0E0,0E0,0E0,0E0,0E0,0E0,0E0],"parents":[2147483647,0,0,1,1,2,2,3,3,4,4,5,5],"right_children":[2,4,6,8,10,12,-1,-1,-1,-1,-1,-1,-1],"split_conditions":[1.4595E3,1.067E3,1.9225E3,1.1195E3,6.725E2,2.18E2,4.0540133E-2,6.647673E-2,-0E0,-6.1266284E-2,4.0938403E-2,-1.1157884E-1,-0E0],"split_indices":[6,16,8,3,25,10,0,0,0,0,0,0,0],"split_type":[0,0,0,0,0,0,0,0,0,0,0,0,0],"sum_hessian":[9.384548E1,7.937763E1,1.4467847E1,6.53049E1,1.4072734E1,1.2571093E1,1.896754E0,4.6442833E1,1.8862066E1,1.0328728E1,3.744006E0,7.3166165E0,5.2544765E0],"tree_param":{"num_deleted":"0","num_feature":"72","num_nodes":"13","size_leaf_vector":"0"}},{"base_weights":[1.7725879E-1,7.5793916E-1,3.1265214E-2,-1.4475012E-1,8.9039093E-1,1.910267E-1,-4.927016E-1,-0E0,1.0144322E0,4.1474956E-1,-4.3327874E-1,5.916537E-1,-7.351349E-1],"categories":[],"categories_nodes":[],"categories_segments":[],"categories_sizes":[],"default_left":[1,1,1,0,1,1,1,0,0,0,0,0,0],"id":12,"left_children":[1,3,5,-1,7,9,11,-1,-1,-1,-1,-1,-1],"loss_changes":[7.116337E0,2.9515762E0,6.2514887E0,0E0,2.480976E0,8.724961E0,5.007022E0,0E0,0E0,0E0,0E0,0E0,0E0],"parents":[2147483647,0,0,1,1,2,2,4,4,5,5,6,6],"right_children":[2,4,6,-1,8,10,12,-1,-1,-1,-1,-1,-1],"split_conditions":[6.615E2,1.0635E3,2.455E2,-1.4475012E-2,6.065E2,1.575E2,2.095E3,-0E0,1.0144322E-1,4.1474957E-2,-4.3327875E-2,5.916537E-2,-7.351349E-2],"split_indices":[54,64,30,0,25,14,33,0,0,0,0,0,0],"split_type":[0,0,0,0,0,0,0,0,0,0,0,0,0],"sum_hessian":[9.253208E1,1.6372053E1,7.6160034E1,1.1169577E0,1.52550955E1,6.0313828E1,1.5846207E1,1.321309E0,1.3933786E1,4.582843E1,1.4485397E1,1.8785416E0,1.3967665E1],"tree_param":{"num_deleted":"0","num_feature":"72","num_nodes":"13","size_leaf_vector":"0"}},{"base_weights":[1.6047996E-1,3.4841016E-1,-2.301998E-1,-1.0653661E-1,5.176335E-1,5.000591E-1,-5.795205E-1,3.976542E-1,-7.3111355E-1,-0E0,7.2974926E-1,1.0653123E0,-1.4401886E-1,-8.879133E-1,-0E0],"categories":[],"categories_nodes":[],"categories_segments":[],"categories_sizes":[],"default_left":[1,1,1,1,1,1,1,0,0,0,0,0,0,0,0],"id":13,"left_children":[1,3,5,7,9,11,13,-1,-1,-1,-1,-1,-1,-1,-1],"loss_changes":[7.0029297E0,5.4475827E0,7.760755E0,5.9049497E0,6.079954E0,4.346282E0,4.5236444E0,0E0,0E0,0E0,0E0,0E0,0E0,0E0,0E0],"parents":[2147483647,0,0,1,1,2,2,3,3,4,4,5,5,6,6],"right_children":[2,4,6,8,10,12,14,-1,-1,-1,-1,-1,-1,-1,-1],"split_conditions":[5.525E2,3.525E2,6.525E2,9.335E2,8.085E2,1.038E3,5.785E2,3.976542E-2,-7.3111355E-2,-0E0,7.297493E-2,1.06531225E-1,-1.4401886E-2,-8.879133E-2,-0E0],"split_indices":[39,9,17,11,62,36,39,0,0,0,0,0,0,0,0],"split_type":[0,0,0,0,0,0,0,0,0,0,0,0,0,0,0],"sum_hessian":[9.167865E1,6.3703125E1,2.7975527E1,1.5769325E1,4.79338E1,7.986157E0,1.998937E1,8.040697E0,7.728628E0,1.2895735E1,3.5038067E1,4.731933E0,3.2542238E0,1.3679028E1,6.3103433E0],"tree_param":{"num_deleted":"0","num_feature":"72","num_nodes":"15","size_leaf_vector":"0"}},{"base_weights":[1.4598507E-1,2.5670454E-1,-4.8158076E-1,-3.8680622E-1,3.7447944E-1,-8.4812593E-1,2.9090032E-1,4.7780883E-2,-7.709107E-1,5.848681E-1,2.0324767E-2,-1.0841912E0,-0E0,-1.0059862E-1,8.7148947E-1],"categories":[],"categories_nodes":[],"categories_segments":[],"categories_sizes":[],"default_left":[1,1,1,1,1,1,1,0,0,0,0,0,0,0,0],"id":14,"left_children":[1,3,5,7,9,11,13,-1,-1,-1,-1,-1,-1,-1,-1],"loss_changes":[6.258691E0,6.1813803E0,4.405611E0,2.6838918E0,4.545411E0,2.1479197E0,1.7586789E0,0E0,0E0,0E0,0E0,0E0,0E0,0E0,0E0],"parents":[2147483647,0,0,1,1,2,2,3,3,4,4,5,5,6,6],"right_children":[2,4,6,8,10,12,14,-1,-1,-1,-1,-1,-1,-1,-1],"split_conditions":[5.685E2,1.0525E3,1.3265E3,2.3185E3,5.105E2,2.491E3,2.045E2,4.7780885E-3,-7.709107E-2,5.8486808E-2,2.0324767E-3,-1.0841912E-1,-0E0,-1.0059862E-2,8.714895E-2],"split_indices":[53,64,58,69,46,42,30,0,0,0,0,0,0,0,0],"split_type":[0,0,0,0,0,0,0,0,0,0,0,0,0,0,0],"sum_hessian":[9.053137E1,7.881134E1,1.1720027E1,1.0525573E1,6.828577E1,8.759986E0,2.9600408E0,4.1276145E0,6.3979588E0,4.065766E1,2.7628107E1,6.799813E0,1.9601736E0,1.2329727E0,1.7270681E0],"tree_param":{"num_deleted":"0","num_feature":"72","num_nodes":"15","size_leaf_vector":"0"}},{"base_weights":[1.3289717E-1,2.4246289E-1,-4.426419E-1,3.8392058E-1,-1.672369E-1,2.9120034E-1,-6.542616E-1,-0E0,5.3211623E-1,1.2610637E-1,-8.4372336E-1,-8.673459E-1,6.6276476E-2],"categories":[],"categories_nodes":[],"categories_segments":[],"categories_sizes":[],"default_left":[1,1,1,1,1,0,1,0,0,0,0,0,0],"id":15,"left_children":[1,3,5,7,9,-1,11,-1,-1,-1,-1,-1,-1],"loss_changes":[5.6096654E0,4.8057113E0,2.6277857E0,3.9176931E0,4.578646E0,0E0,2.6599288E0,0E0,0E0,0E0,0E0,0E0,0E0],"parents":[2147483647,0,0,1,1,2,2,3,3,4,4,6,6],"right_children":[2,4,6,8,10,-1,12,-1,-1,-1,-1,-1,-1],"split_conditions":[5.435E2,7.185E2,7.125E2,2.155E2,3.24E2,2.9120034E-2,1.8915E3,-0E0,5.3211626E-2,1.2610637E-2,-8.4372334E-2,-8.673459E-2,6.6276477E-3],"split_indices":[46,21,1,10,24,0,8,0,0,0,0,0,0],"split_type":[0,0,0,0,0,0,0,0,0,0,0,0,0],"sum_hessian":[8.943099E1,7.70745E1,1.2356497E1,5.9154026E1,1.7920471E1,1.6238592E0,1.0732637E1,1.5004096E1,4.414993E1,1.203648E1,5.883991E0,9.196937E0,1.5357009E0],"tree_param":{"num_deleted":"0","num_feature":"72","num_nodes":"13","size_leaf_vector":"0"}},{"base_weights":[1.2051756E-1,6.3905257E-1,-0E0,-4.0378634E-2,8.2266116E-1,1.5189612E-1,-5.0093037E-1,-2.5005424E-1,-0E0,9.6547174E-1,-0E0,3.5204247E-1,-3.8635412E-1,5.0586194E-1,-7.21122E-1],"categories":[],"categories_nodes":[],"categories_segments":[],"categories_sizes":[],"default_left":[1,1,1,1,1,1,1,1,1,0,0,0,0,0,0],"id":16,"left_children":[1,3,5,-1,9,11,13,-1,-1,-1,-1,-1,-1,-1,-1],"loss_changes":[5.143368E0,2.7832603E0,5.51196E0,1.2568118E-1,2.2768126E0,6.4672766E0,4.2451954E0,0E0,0E0,0E0,0E0,0E0,0E0,0E0,0E0],"parents":[2147483647,0,0,1,1,2,2,3,3,4,4,5,5,6,6],"right_children":[2,4,6,-1,10,12,14,-1,-1,-1,-1,-1,-1,-1,-1],"split_conditions":[6.615E2,1.96E2,2.455E2,-4.0378636E-3,7.13E2,1.575E2,2.095E3,-2.5005424E-2,-0E0,9.654718E-2,-0E0,3.5204247E-2,-3.8635414E-2,5.0586194E-2,-7.21122E-2],"split_indices":[54,66,30,14,47,14,33,2147483647,2147483647,0,0,0,0,0,0],"split_type":[0,0,0,0,0,0,0,0,0,0,0,0,0,0,0],"sum_hessian":[8.839554E1,1.4773697E1,7.362184E1,2.1503153E0,1.2623382E1,5.8088882E1,1.553296E1,1.0921732E0,1.0581422E0,1.133375E1,1.2896318E0,4.3950047E1,1.4138838E1,1.7396787E0,1.3793281E1],"tree_param":{"num_deleted":"2","num_feature":"72","num_nodes":"15","size_leaf_vector":"0"}},{"base_weights":[1.0871091E-1,-1.9684678E-1,2.8285444E-1,-6.050506E-1,1.10261135E-1,3.705064E-1,-5.1213384E-1,-0E0,-9.0611976E-1,5.872357E-1,-5.23585E-1,5.1406693E-1,-1.18577085E-1,-0E0,-9.132192E-1],"categories":[],"categories_nodes":[],"categories_segments":[],"categories_sizes":[],"default_left":[1,1,1,1,1,1,1,0,0,0,0,0,0,0,0],"id":17,"left_children":[1,3,5,7,9,11,13,-1,-1,-1,-1,-1,-1,-1,-1],"loss_changes":[4.8574805E0,4.4073725E0,4.155657E0,3.1936326E0,5.497013E0,4.3045483E0,1.9220078E0,0E0,0E0,0E0,0E0,0E0,0E0,0E0,0E0],"parents":[2147483647,0,0,1,1,2,2,3,3,4,4,5,5,6,6],"right_children":[2,4,6,8,10,12,14,-1,-1,-1,-1,-1,-1,-1,-1],"split_conditions":[5.91E2,1.414E3,5.685E2,9.54E2,1.05E3,6.01E2,6.15E2,-0E0,-9.061198E-2,5.872357E-2,-5.2358504E-2,5.1406693E-2,-1.1857709E-2,-0E0,-9.132192E-2],"split_indices":[51,27,53,11,36,63,51,0,0,0,0,0,0,0,0],"split_type":[0,0,0,0,0,0,0,0,0,0,0,0,0,0,0],"sum_hessian":[8.762459E1,2.9677958E1,5.794663E1,1.3723237E1,1.59547205E1,5.3806038E1,4.1405926E0,4.2688475E0,9.45439E0,1.0046129E1,5.908591E0,4.3137466E1,1.0668571E1,1.2192398E0,2.9213526E0],"tree_param":{"num_deleted":"0","num_feature":"72","num_nodes":"15","size_leaf_vector":"0"}},{"base_weights":[9.602799E-2,3.6608443E-1,-7.9282045E-2,6.831171E-1,-0E0,1.504658E-1,-5.0107586E-1,8.754908E-1,-2.5450775E-1,-1.026409E0,3.5485035E-1,-2.476017E-1,5.516521E-1,-8.0801237E-1,-0E0],"categories":[],"categories_nodes":[],"categories_segments":[],"categories_sizes":[],"default_left":[1,1,1,1,1,1,1,0,0,0,0,0,0,0,0],"id":18,"left_children":[1,3,5,7,9,11,13,-1,-1,-1,-1,-1,-1,-1,-1],"loss_changes":[4.4593024E0,4.3045735E0,5.4307847E0,4.4177837E0,6.966413E0,5.6577697E0,3.647417E0,0E0,0E0,0E0,0E0,0E0,0E0,0E0,0E0],"parents":[2147483647,0,0,1,1,2,2,3,3,4,4,5,5,6,6],"right_children":[2,4,6,8,10,12,14,-1,-1,-1,-1,-1,-1,-1,-1],"split_conditions":[6.555E2,6.675E2,5.525E2,1.9895E3,5.065E2,2.0605E3,5.765E2,8.754908E-2,-2.5450775E-2,-1.02640904E-1,3.5485037E-2,-2.476017E-2,5.516521E-2,-8.080124E-2,-0E0],"split_indices":[17,20,39,40,53,7,39,0,0,0,0,0,0,0,0],"split_type":[0,0,0,0,0,0,0,0,0,0,0,0,0,0,0],"sum_hessian":[8.651924E1,3.5873642E1,5.0645603E1,1.8814245E1,1.7059397E1,3.1668472E1,1.8977129E1,1.6551207E1,2.2630396E0,3.9229116E0,1.3136485E1,1.4837016E1,1.6831457E1,1.226915E1,6.7079797E0],"tree_param":{"num_deleted":"0","num_feature":"72","num_nodes":"15","size_leaf_vector":"0"}},{"base_weights":[8.574806E-2,2.0306866E-1,-3.329379E-1,3.9081702E-1,-7.762384E-2,-5.313443E-1,4.552147E-1,5.712455E-1,-3.4965098E-1,3.3927688E-1,-8.970284E-1,-0E0,-9.925452E-1],"categories":[],"categories_nodes":[],"categories_segments":[],"categories_sizes":[],"default_left":[1,1,1,1,1,1,0,0,0,0,0,0,0],"id":19,"left_children":[1,3,5,7,9,11,-1,-1,-1,-1,-1,-1,-1],"loss_changes":[4.1876993E0,4.0362015E0,3.046876E0,6.3381367E0,1.0011546E1,3.6292725E0,0E0,0E0,0E0,0E0,0E0,0E0,0E0],"parents":[2147483647,0,0,1,1,2,2,3,3,4,4,5,5],"right_children":[2,4,6,8,10,12,-1,-1,-1,-1,-1,-1,-1],"split_conditions":[9.365E2,4.595E2,3.9775E3,7.535E2,8.88E2,9.935E2,4.552147E-2,5.712455E-2,-3.4965098E-2,3.392769E-2,-8.970284E-2,-0E0,-9.925452E-2],"split_indices":[41,31,50,67,34,11,0,0,0,0,0,0,0],"split_type":[0,0,0,0,0,0,0,0,0,0,0,0,0],"sum_hessian":[8.5521126E1,6.907026E1,1.6450867E1,4.3286957E1,2.5783304E1,1.4416371E1,2.0344942E0,3.6075527E1,7.211427E0,1.6668282E1,9.115023E0,7.3142967E0,7.102075E0],"tree_param":{"num_deleted":"0","num_feature":"72","num_nodes":"13","size_leaf_vector":"0"}},{"base_weights":[7.5821176E-2,1.6719419E-1,-4.4921377E-1,3.1818792E-1,-1.613036E-1,-8.7032455E-1,1.6018389E-1,5.035191E-1,-2.9359284E-1,2.7334148E-1,-7.827347E-1,-1.0163636E0,-0E0,6.64626E-1,-1.4739905E-1],"categories":[],"categories_nodes":[],"categories_segments":[],"categories_sizes":[],"default_left":[1,1,1,1,1,1,1,0,0,0,0,0,0,0,0],"id":20,"left_children":[1,3,5,7,9,11,13,-1,-1,-1,-1,-1,-1,-1,-1],"loss_changes":[3.9019828E0,3.943339E0,3.7609494E0,6.481748E0,6.7442904E0,1.1192122E0,1.3149884E0,0E0,0E0,0E0,0E0,0E0,0E0,0E0,0E0],"parents":[2147483647,0,0,1,1,2,2,3,3,4,4,5,5,6,6],"right_children":[2,4,6,8,10,12,14,-1,-1,-1,-1,-1,-1,-1,-1],"split_conditions":[4.225E2,2.455E2,1.059E3,1.575E2,2.3995E3,7.23E2,5.725E2,5.0351914E-2,-2.9359285E-2,2.7334148E-2,-7.827347E-2,-1.01636365E-1,-0E0,6.64626E-2,-1.47399055E-2],"split_indices":[9,30,11,14,4,47,39,0,0,0,0,0,0,0,0],"split_type":[0,0,0,0,0,0,0,0,0,0,0,0,0,0,0],"sum_hessian":[8.464835E1,7.430337E1,1.0344991E1,5.3011993E1,2.1291372E1,6.834768E0,3.5102227E0,4.2076874E1,1.0935121E1,1.1911271E1,9.3801E0,5.828468E0,1.0063E0,2.1214142E0,1.3888085E0],"tree_param":{"num_deleted":"0","num_feature":"72","num_nodes":"15","size_leaf_vector":"0"}},{"base_weights":[6.595004E-2,7.5568104E-1,-0E0,-0E0,9.135255E-1,1.5158682E-1,-3.3413854E-1,3.2728428E-1,-5.1357293E-1,6.5965983E-3,-1.2218629E0],"categories":[],"categories_nodes":[],"categories_segments":[],"categories_sizes":[],"default_left":[1,1,1,0,0,1,1,0,0,0,0],"id":21,"left_children":[1,3,5,-1,-1,7,9,-1,-1,-1,-1],"loss_changes":[3.84851E0,9.492588E-1,4.021631E0,0E0,0E0,6.372335E0,8.714584E0,0E0,0E0,0E0,0E0],"parents":[2147483647,0,0,1,1,2,2,5,5,6,6],"right_children":[2,4,6,-1,-1,8,10,-1,-1,-1,-1],"split_conditions":[4.185E2,1.1125E3,4.595E2,-0E0,9.135255E-2,1.3895E3,9.005E2,3.272843E-2,-5.1357295E-2,6.5965985E-4,-1.22186296E-1],"split_indices":[5,64,31,0,0,37,34,0,0,0,0],"split_type":[0,0,0,0,0,0,0,0,0,0,0],"sum_hessian":[8.3833885E1,6.3854465E0,7.744843E1,1.1942338E0,5.191213E0,5.368222E1,2.3766216E1,4.4056385E1,9.625836E0,1.7077467E1,6.6887484E0],"tree_param":{"num_deleted":"0","num_feature":"72","num_nodes":"11","size_leaf_vector":"0"}},{"base_weights":[5.935625E-2,5.2364814E-1,-1.9386929E-2,-1.2114486E-1,7.2235703E-1,9.0148605E-2,-4.5644805E-1,8.6643934E-1,-0E0,3.3691442E-1,-2.5815645E-1,4.657154E-1,-6.561819E-1],"categories":[],"categories_nodes":[],"categories_segments":[],"categories_sizes":[],"default_left":[1,1,1,0,1,1,1,0,0,0,0,0,0],"id":22,"left_children":[1,3,5,-1,7,9,11,-1,-1,-1,-1,-1,-1],"loss_changes":[3.5908458E0,2.4926262E0,3.8097754E0,0E0,1.8343768E0,4.964525E0,3.4865792E0,0E0,0E0,0E0,0E0,0E0,0E0],"parents":[2147483647,0,0,1,1,2,2,4,4,5,5,6,6],"right_children":[2,4,6,-1,8,10,12,-1,-1,-1,-1,-1,-1],"split_conditions":[6.615E2,1.96E2,2.455E2,-1.2114487E-2,7.13E2,2.5925E3,3.305E2,8.6643934E-2,-0E0,3.3691444E-2,-2.5815645E-2,4.657154E-2,-6.561819E-2],"split_indices":[54,66,30,0,47,49,22,0,0,0,0,0,0],"split_type":[0,0,0,0,0,0,0,0,0,0,0,0,0],"sum_hessian":[8.314792E1,1.307913E1,7.006879E1,1.9875515E0,1.1091579E1,5.483249E1,1.5236298E1,9.847972E0,1.2436075E0,3.3794E1,2.1038492E1,1.5841224E0,1.3652176E1],"tree_param":{"num_deleted":"0","num_feature":"72","num_nodes":"13","size_leaf_vector":"0"}},{"base_weights":[5.304289E-2,1.5223613E-1,-3.7387592E-1,4.402935E-1,-6.697683E-2,-5.8603954E-1,3.3077627E-1,7.4127674E-1,-9.6928775E-2,1.7588739E-1,-8.731923E-1,-9.8927474E-1,-0E0],"categories":[],"categories_nodes":[],"categories_segments":[],"categories_sizes":[],"default_left":[1,1,1,1,1,1,0,0,0,0,0,0,0],"id":23,"left_children":[1,3,5,7,9,11,-1,-1,-1,-1,-1,-1,-1],"loss_changes":[3.3679228E0,4.8421993E0,2.5595853E0,5.968792E0,8.451712E0,2.811976E0,0E0,0E0,0E0,0E0,0E0,0E0,0E0],"parents":[2147483647,0,0,1,1,2,2,3,3,4,4,5,5],"right_children":[2,4,6,8,10,12,-1,-1,-1,-1,-1,-1,-1],"split_conditions":[1.4595E3,1.096E3,1.9225E3,2.6135E3,3.165E2,9.88E2,3.3077627E-2,7.4127674E-2,-9.6928775E-3,1.758874E-2,-8.731923E-2,-9.8927476E-2,-0E0],"split_indices":[6,28,8,49,2,71,0,0,0,0,0,0,0],"split_type":[0,0,0,0,0,0,0,0,0,0,0,0,0],"sum_hessian":[8.242047E1,6.9303734E1,1.3116734E1,3.1484589E1,3.781915E1,1.1301449E1,1.815284E0,2.112867E1,1.0355919E1,2.8711557E1,9.107592E0,6.1902213E0,5.111228E0],"tree_param":{"num_deleted":"0","num_feature":"72","num_nodes":"13","size_leaf_vector":"0"}},{"base_weights":[4.6205282E-2,6.997336E-1,-4.2579861E-4,8.6080533E-1,-0E0,1.8421902E-1,-2.642325E-1,-2.4282143E-1,4.9033457E-1,-5.233817E-1,5.248717E-1],"categories":[],"categories_nodes":[],"categories_segments":[],"categories_sizes":[],"default_left":[1,1,1,0,0,1,1,0,0,0,0],"id":24,"left_children":[1,3,5,-1,-1,7,9,-1,-1,-1,-1],"loss_changes":[3.2174108E0,8.9306355E-1,3.8642075E0,0E0,0E0,6.0493917E0,7.2702703E0,0E0,0E0,0E0,0E0],"parents":[2147483647,0,0,1,1,2,2,5,5,6,6],"right_children":[2,4,6,-1,-1,8,10,-1,-1,-1,-1],"split_conditions":[4.185E2,5.36E2,8.515E2,8.6080536E-2,-0E0,7.395E2,3.795E2,-2.4282143E-2,4.903346E-2,-5.233817E-2,5.2487172E-2],"split_indices":[5,53,45,0,0,65,68,0,0,0,0],"split_type":[0,0,0,0,0,0,0,0,0,0,0],"sum_hessian":[8.161944E1,5.9313636E0,7.568807E1,4.78533E0,1.1460339E0,4.2471943E1,3.3216125E1,1.645573E1,2.6016214E1,2.6211895E1,7.004233E0],"tree_param":{"num_deleted":"0","num_feature":"72","num_nodes":"11","size_leaf_vector":"0"}},{"base_weights":[4.337702E-2,1.3380343E-1,-4.0153638E-1,3.778249E-1,-7.6356575E-2,1.5265268E-1,-6.352694E-1,6.0782576E-1,-2.5752997E-1,2.6457268E-1,-5.79234E-1,3.6036316E-1,-0E0,-8.783274E-1,-0E0],"categories":[],"categories_nodes":[],"categories_segments":[],"categories_sizes":[],"default_left":[1,1,1,1,1,1,1,0,0,0,0,1,1,0,0],"id":25,"left_children":[1,3,5,7,9,-1,13,-1,-1,-1,-1,-1,-1,-1,-1],"loss_changes":[3.0929039E0,3.9678662E0,2.1684425E0,5.649343E0,6.766699E0,2.0177299E-1,2.0996213E0,0E0,0E0,0E0,0E0,0E0,0E0,0E0,0E0],"parents":[2147483647,0,0,1,1,2,2,3,3,4,4,5,5,6,6],"right_children":[2,4,6,8,10,-1,14,-1,-1,-1,-1,-1,-1,-1,-1],"split_conditions":[5.435E2,8.515E2,1.013E3,2.0205E3,9.515E2,1.5265268E-2,1.078E3,6.0782578E-2,-2.5752997E-2,2.6457269E-2,-5.7923403E-2,3.6036316E-2,-0E0,-8.783274E-2,-0E0],"split_indices":[46,45,16,40,11,63,36,0,0,0,0,2147483647,2147483647,0,0],"split_type":[0,0,0,0,0,0,0,0,0,0,0,0,0,0,0],"sum_hessian":[8.1196175E1,6.993012E1,1.1266056E1,3.4190845E1,3.5739273E1,2.1757603E0,9.090296E0,2.6290749E1,7.900098E0,2.039659E1,1.5342685E1,1.123624E0,1.0521363E0,7.0000787E0,2.0902166E0],"tree_param":{"num_deleted":"2","num_feature":"72","num_nodes":"15","size_leaf_vector":"0"}},{"base_weights":[3.8236257E-2,-4.0149227E-2,4.5138386E-1,8.930205E-2,-3.8472468E-1,6.7081124E-1,-2.149243E-1,2.542993E-1,-5.031981E-1,5.480691E-1,-6.6472864E-1,-1.0531646E-1,8.535863E-1,-0E0,-5.171201E-1],"categories":[],"categories_nodes":[],"categories_segments":[],"categories_sizes":[],"default_left":[1,1,1,1,1,1,1,0,0,0,0,0,0,1,1],"id":26,"left_children":[1,3,5,7,9,11,-1,-1,-1,-1,-1,-1,-1,-1,-1],"loss_changes":[3.0706556E0,3.3378685E0,2.8110802E0,4.5445027E0,5.8912683E0,2.6465378E0,4.2961055E-1,0E0,0E0,0E0,0E0,0E0,0E0,0E0,0E0],"parents":[2147483647,0,0,1,1,2,2,3,3,4,4,5,5,6,6],"right_children":[2,4,6,8,10,12,-1,-1,-1,-1,-1,-1,-1,-1,-1],"split_conditions":[6.895E2,4.595E2,1.038E3,1.3895E3,1.5815E3,9.645E2,-2.1492431E-2,2.5429932E-2,-5.031981E-2,5.4806914E-2,-6.6472866E-2,-1.0531646E-2,8.5358635E-2,-0E0,-5.1712014E-2],"split_indices":[25,31,36,37,35,16,71,0,0,0,0,0,0,2147483647,2147483647],"split_type":[0,0,0,0,0,0,0,0,0,0,0,0,0,0,0],"sum_hessian":[8.0559875E1,6.643728E1,1.4122602E1,4.672295E1,1.9714325E1,1.1747866E1,2.3747368E0,3.8312416E1,8.410535E0,3.505963E0,1.620836E1,1.2771636E0,1.0470702E1,1.1852493E0,1.1894873E0],"tree_param":{"num_deleted":"2","num_feature":"72","num_nodes":"15","size_leaf_vector":"0"}},{"base_weights":[3.278267E-2,1.3668166E-1,-3.2422993E-1,3.5583076E-1,-6.852321E-2,-5.413784E-1,3.145038E-1,5.2879375E-1,-4.6865964E-1,3.6892468E-1,-5.401456E-1,-7.054909E-1,-0E0,-0E0,5.808405E-1],"categories":[],"categories_nodes":[],"categories_segments":[],"categories_sizes":[],"default_left":[1,1,1,1,1,1,1,0,0,0,0,0,0,1,1],"id":27,"left_children":[1,3,5,7,9,11,-1,-1,-1,-1,-1,-1,-1,-1,-1],"loss_changes":[2.8567448E0,3.2580843E0,2.6660218E0,5.1852026E0,7.0379615E0,1.8542275E0,5.108578E-1,0E0,0E0,0E0,0E0,0E0,0E0,0E0,0E0],"parents":[2147483647,0,0,1,1,2,2,3,3,4,4,5,5,6,6],"right_children":[2,4,6,8,10,12,-1,-1,-1,-1,-1,-1,-1,-1,-1],"split_conditions":[9.365E2,5.235E2,1.868E3,2.1985E3,2.4015E3,6.775E2,3.145038E-2,5.2879374E-2,-4.6865966E-2,3.689247E-2,-5.401456E-2,-7.054909E-2,-0E0,-0E0,5.8084052E-2],"split_indices":[41,57,55,7,4,25,50,0,0,0,0,0,0,2147483647,2147483647],"split_type":[0,0,0,0,0,0,0,0,0,0,0,0,0,0,0],"sum_hessian":[7.9876625E1,6.451843E1,1.5358193E1,3.3200752E1,3.1317678E1,1.2743753E1,2.6144395E0,2.8742594E1,4.4581585E0,1.5260444E1,1.6057236E1,1.0818737E1,1.9250169E0,1.0405391E0,1.5739002E0],"tree_param":{"num_deleted":"2","num_feature":"72","num_nodes":"15","size_leaf_vector":"0"}},{"base_weights":[2.9238066E-2,-3.5150662E-1,1.2691678E-1,-6.8651843E-1,5.1230453E-2,3.7195536E-1,-8.874866E-2,-9.0793383E-1,-0E0,-3.9335972E-1,5.013921E-1,-7.1840174E-2,6.4749515E-1,1.954486E-1,-6.3369274E-1],"categories":[],"categories_nodes":[],"categories_segments":[],"categories_sizes":[],"default_left":[1,1,1,1,1,1,1,0,0,0,0,0,0,0,0],"id":28,"left_children":[1,3,5,7,9,11,13,-1,-1,-1,-1,-1,-1,-1,-1],"loss_changes":[2.7996309E0,2.631199E0,3.8349764E0,2.0501957E0,1.5409607E0,4.722693E0,5.8357477E0,0E0,0E0,0E0,0E0,0E0,0E0,0E0,0E0],"parents":[2147483647,0,0,1,1,2,2,3,3,4,4,5,5,6,6],"right_children":[2,4,6,8,10,12,14,-1,-1,-1,-1,-1,-1,-1,-1],"split_conditions":[4.705E2,1.3045E3,5.255E2,3.31E2,5.815E2,8.15E2,2.4405E3,-9.0793386E-2,-0E0,-3.9335974E-2,5.0139215E-2,-7.1840174E-3,6.474952E-2,1.954486E-2,-6.3369274E-2],"split_indices":[57,58,57,24,25,62,4,0,0,0,0,0,0,0,0],"split_type":[0,0,0,0,0,0,0,0,0,0,0,0,0,0,0],"sum_hessian":[7.9117134E1,1.3532432E1,6.55847E1,8.3581705E0,5.174261E0,3.2532955E1,3.3051746E1,6.8374724E0,1.5206981E0,1.5490954E0,3.6251657E0,1.1354681E1,2.1178274E1,2.0938347E1,1.21133995E1],"tree_param":{"num_deleted":"0","num_feature":"72","num_nodes":"15","size_leaf_vector":"0"}},{"base_weights":[2.4265608E-2,5.801127E-1,-2.2210233E-2,-1.49057275E-2,8.572542E-1,5.0702937E-2,-5.0731516E-1,-3.073528E-1,2.0069858E-1,4.8257658E-1,-8.500835E-1],"categories":[],"categories_nodes":[],"categories_segments":[],"categories_sizes":[],"default_left":[1,1,1,0,0,1,1,0,0,0,0],"id":29,"left_children":[1,3,5,-1,-1,7,9,-1,-1,-1,-1],"loss_changes":[2.6210082E0,2.1448166E0,3.0481896E0,0E0,0E0,3.29455E0,4.6327705E0,0E0,0E0,0E0,0E0],"parents":[2147483647,0,0,1,1,2,2,5,5,6,6],"right_children":[2,4,6,-1,-1,8,10,-1,-1,-1,-1],"split_conditions":[6.045E2,6.4E2,1.2485E3,-1.4905728E-3,8.572542E-2,1.745E2,6.205E2,-3.0735282E-2,2.0069858E-2,4.825766E-2,-8.5008346E-2],"split_indices":[20,67,56,0,0,43,67,0,0,0,0],"split_type":[0,0,0,0,0,0,0,0,0,0,0],"sum_hessian":[7.8363E1,6.820842E0,7.154216E1,1.3215166E0,5.499325E0,6.1180553E1,1.0361607E1,1.578474E1,4.5395813E1,1.8097807E0,8.551826E0],"tree_param":{"num_deleted":"0","num_feature":"72","num_nodes":"11","size_leaf_vector":"0"}},{"base_weights":[2.1421393E-2,1.1982563E-1,-3.1764457E-1,-0E0,4.9262336E-1,-6.6738176E-1,2.7441835E-1,1.0525048E-1,-6.679881E-1,-5.2948487E-1,6.6836333E-1,-0E0,-8.800129E-1,6.6920507E-1,-1.1041621E-2],"categories":[],"categories_nodes":[],"categories_segments":[],"categories_sizes":[],"default_left":[1,1,1,1,1,1,1,0,0,0,0,0,0,0,0],"id":30,"left_children":[1,3,5,7,9,11,13,-1,-1,-1,-1,-1,-1,-1,-1],"loss_changes":[2.478855E0,3.302307E0,3.8429255E0,3.9283712E0,3.620482E0,1.2725863E0,1.2859985E0,0E0,0E0,0E0,0E0,0E0,0E0,0E0,0E0],"parents":[2147483647,0,0,1,1,2,2,3,3,4,4,5,5,6,6],"right_children":[2,4,6,8,10,12,14,-1,-1,-1,-1,-1,-1,-1,-1],"split_conditions":[1.432E3,2.4995E3,1.48E3,1.2495E3,1.0075E3,3.095E2,1.9575E3,1.0525048E-2,-6.679881E-2,-5.2948486E-2,6.6836335E-2,-0E0,-8.8001296E-2,6.692051E-2,-1.1041621E-3],"split_indices":[61,42,61,56,18,2,59,0,0,0,0,0,0,0,0],"split_type":[0,0,0,0,0,0,0,0,0,0,0,0,0,0,0],"sum_hessian":[7.808198E1,6.3305294E1,1.4776679E1,4.689285E1,1.6412447E1,1.0271187E1,4.505492E0,4.0109543E1,6.7833047E0,1.277773E0,1.5134675E1,3.1454504E0,7.125736E0,2.7966213E0,1.7088709E0],"tree_param":{"num_deleted":"0","num_feature":"72","num_nodes":"15","size_leaf_vector":"0"}},{"base_weights":[1.5824802E-2,-2.8855711E-2,5.433321E-1,-6.511098E-1,3.4309465E-2,8.7868667E-1,-1.0249461E-2,-9.531198E-1,2.4172954E-2,7.099372E-1,-3.855512E-2],"categories":[],"categories_nodes":[],"categories_segments":[],"categories_sizes":[],"default_left":[1,1,1,1,1,0,0,0,0,0,0],"id":31,"left_children":[1,3,5,7,9,-1,-1,-1,-1,-1,-1],"loss_changes":[2.379474E0,3.4509254E0,2.348701E0,2.6042516E0,3.8709126E0,0E0,0E0,0E0,0E0,0E0,0E0],"parents":[2147483647,0,0,1,1,2,2,3,3,4,4],"right_children":[2,4,6,8,10,-1,-1,-1,-1,-1,-1],"split_conditions":[9.275E2,9.28E2,1.2515E3,2.0325E3,4.325E2,8.786867E-2,-1.0249461E-3,-9.5311984E-2,2.4172955E-3,7.099372E-2,-3.855512E-3],"split_indices":[62,36,13,7,5,0,0,0,0,0,0],"split_type":[0,0,0,0,0,0,0,0,0,0,0],"sum_hessian":[7.746306E1,7.0537994E1,6.925064E0,7.1016383E0,6.343635E1,5.0717735E0,1.8532907E0,5.645982E0,1.4556566E0,6.6603103E0,5.6776043E1],"tree_param":{"num_deleted":"0","num_feature":"72","num_nodes":"11","size_leaf_vector":"0"}},{"base_weights":[1.4158325E-2,-3.429282E-2,4.907826E-1,1.4187427E-1,-3.215241E-1,-7.962217E-2,8.788641E-1,-2.259132E-1,4.1512802E-1,3.0087873E-2,-6.3576484E-1,-0E0,-6.25312E-1],"categories":[],"categories_nodes":[],"categories_segments":[],"categories_sizes":[],"default_left":[1,1,1,1,1,1,0,0,0,0,0,0,0],"id":32,"left_children":[1,3,5,7,9,11,-1,-1,-1,-1,-1,-1,-1],"loss_changes":[2.277438E0,3.7645507E0,2.9010413E0,4.4929705E0,3.8350937E0,7.677612E-1,0E0,0E0,0E0,0E0,0E0,0E0,0E0],"parents":[2147483647,0,0,1,1,2,2,3,3,4,4,5,5],"right_children":[2,4,6,8,10,12,-1,-1,-1,-1,-1,-1,-1],"split_conditions":[3.795E2,8.515E2,1.0385E3,7.395E2,2.9625E3,6.455E2,8.7886415E-2,-2.259132E-2,4.1512802E-2,3.0087873E-3,-6.357648E-2,-0E0,-6.2531196E-2],"split_indices":[68,45,18,65,29,47,0,0,0,0,0,0,0],"split_type":[0,0,0,0,0,0,0,0,0,0,0,0,0],"sum_hessian":[7.712403E1,6.8945366E1,8.178666E0,4.089057E1,2.8054796E1,2.5899677E0,5.5886984E0,1.5944126E1,2.4946444E1,1.2165021E1,1.5889776E1,1.5682544E0,1.0217134E0],"tree_param":{"num_deleted":"0","num_feature":"72","num_nodes":"13","size_leaf_vector":"0"}},{"base_weights":[1.2890749E-2,9.447948E-2,-3.8201278E-1,7.936238E-1,1.624571E-2,-7.038518E-1,2.3272556E-1,1.4000218E-1,-3.984997E-1,-8.8329244E-1,-0E0,5.6416565E-1,-0E0],"categories":[],"categories_nodes":[],"categories_segments":[],"categories_sizes":[],"default_left":[1,1,1,0,1,1,1,0,0,0,0,1,1],"id":33,"left_children":[1,3,5,-1,7,9,-1,-1,-1,-1,-1,-1,-1],"loss_changes":[2.249838E0,2.8550243E0,2.8888755E0,0E0,3.0196323E0,1.1198697E0,6.140856E-1,0E0,0E0,0E0,0E0,0E0,0E0],"parents":[2147483647,0,0,1,1,2,2,4,4,5,5,6,6],"right_children":[2,4,6,-1,8,10,-1,-1,-1,-1,-1,-1,-1],"split_conditions":[5.685E2,4.185E2,1.3265E3,7.9362385E-2,8.155E2,2.491E3,2.3272557E-2,1.4000217E-2,-3.984997E-2,-8.832925E-2,-0E0,5.6416567E-2,-0E0],"split_indices":[53,5,58,0,65,42,13,0,0,0,0,2147483647,2147483647],"split_type":[0,0,0,0,0,0,0,0,0,0,0,0,0],"sum_hessian":[7.663202E1,6.623965E1,1.0392373E1,4.45959E0,6.178006E1,7.793779E0,2.5985942E0,4.9949203E1,1.1830857E1,6.019141E0,1.7746378E0,1.541732E0,1.0568624E0],"tree_param":{"num_deleted":"2","num_feature":"72","num_nodes":"13","size_leaf_vector":"0"}},{"base_weights":[1.16081415E-2,1.2761277E-1,-2.4844386E-1,2.6671934E-1,-1.9188511E-1,4.9142674E-2,-9.5084643E-1,-2.832672E-1,4.373544E-1,-4.4164836E-1,4.585751E-1,-2.6024535E-1,5.4429704E-1,-0E0,-1.1723428E0],"categories":[],"categories_nodes":[],"categories_segments":[],"categories_sizes":[],"default_left":[1,1,1,1,1,1,1,0,0,0,0,0,0,0,0],"id":34,"left_children":[1,3,5,7,9,11,13,-1,-1,-1,-1,-1,-1,-1,-1],"loss_changes":[2.2404282E0,2.6469018E0,5.442719E0,4.2302885E0,2.7209313E0,2.7318163E0,1.4344311E0,0E0,0E0,0E0,0E0,0E0,0E0,0E0,0E0],"parents":[2147483647,0,0,1,1,2,2,3,3,4,4,5,5,6,6],"right_children":[2,4,6,8,10,12,14,-1,-1,-1,-1,-1,-1,-1,-1],"split_conditions":[5.975E2,3.235E2,1.137E3,9.25E2,1.3215E3,1.0795E3,1.0705E3,-2.832672E-2,4.373544E-2,-4.4164836E-2,4.585751E-2,-2.6024535E-2,5.4429706E-2,-0E0,-1.1723428E-1],"split_indices":[63,2,56,36,58,56,3,0,0,0,0,0,0,0,0],"split_type":[0,0,0,0,0,0,0,0,0,0,0,0,0,0,0],"sum_hessian":[7.622136E1,5.5720215E1,2.0501143E1,4.1114445E1,1.4605767E1,1.4053469E1,6.4476743E0,8.191445E0,3.2923E1,1.189625E1,2.7095184E0,7.698221E0,6.3552475E0,1.5047071E0,4.942967E0],"tree_param":{"num_deleted":"0","num_feature":"72","num_nodes":"15","size_leaf_vector":"0"}},{"base_weights":[6.9882628E-3,-3.881129E-2,4.854116E-1,7.547074E-2,-3.3248565E-1,-0E0,7.6189065E-1,2.0943551E-1,-4.4371426E-1,3.4190732E-1,-6.258206E-1,2.7760884E-1,-2.693716E-1],"categories":[],"categories_nodes":[],"categories_segments":[],"categories_sizes":[],"default_left":[1,1,1,1,1,1,0,0,0,0,0,1,1],"id":35,"left_children":[1,3,5,7,9,-1,-1,-1,-1,-1,-1,-1,-1],"loss_changes":[2.1419995E0,2.5927753E0,1.2049565E0,3.1919832E0,4.8347464E0,3.7889177E-1,0E0,0E0,0E0,0E0,0E0,0E0,0E0],"parents":[2147483647,0,0,1,1,2,2,3,3,4,4,5,5],"right_children":[2,4,6,8,10,-1,-1,-1,-1,-1,-1,-1,-1],"split_conditions":[7.045E2,4.595E2,1.011E3,7.645E2,1.7765E3,-0E0,7.618906E-2,2.094355E-2,-4.4371426E-2,3.4190733E-2,-6.258206E-2,2.7760884E-2,-2.693716E-2],"split_indices":[25,31,16,67,59,17,0,0,0,0,0,2147483647,2147483647],"split_type":[0,0,0,0,0,0,0,0,0,0,0,0,0],"sum_hessian":[7.55148E1,6.784834E1,7.666456E0,4.6925415E1,2.092293E1,3.0728095E0,4.5936465E0,3.9306023E1,7.6193905E0,5.2585588E0,1.56643715E1,1.3977495E0,1.67506E0],"tree_param":{"num_deleted":"2","num_feature":"72","num_nodes":"13","size_leaf_vector":"0"}},{"base_weights":[6.71752E-3,5.7470256E-1,-2.912648E-2,-0E0,7.8865296E-1,6.2483378E-2,-3.946445E-1,1.9061917E-1,-3.9927992E-1,-7.8604406E-1,2.695958E-1],"categories":[],"categories_nodes":[],"categories_segments":[],"categories_sizes":[],"default_left":[1,1,1,0,0,1,1,0,0,0,0],"id":36,"left_children":[1,3,5,-1,-1,7,9,-1,-1,-1,-1],"loss_changes":[2.11121E0,1.1487975E0,2.7295423E0,0E0,0E0,3.1415036E0,5.0244975E0,0E0,0E0,0E0,0E0],"parents":[2147483647,0,0,1,1,2,2,5,5,6,6],"right_children":[2,4,6,-1,-1,8,10,-1,-1,-1,-1],"split_conditions":[2.1125E3,1.2155E3,9.01E2,-0E0,7.88653E-2,5.435E2,3.75E2,1.9061917E-2,-3.9927993E-2,-7.860441E-2,2.6959581E-2],"split_indices":[33,37,45,0,0,46,68,0,0,0,0],"split_type":[0,0,0,0,0,0,0,0,0,0,0],"sum_hessian":[7.5079666E1,5.2205124E0,6.985915E1,1.0702491E0,4.1502633E0,5.4334496E1,1.5524654E1,4.4687E1,9.647496E0,1.0600488E1,4.924166E0],"tree_param":{"num_deleted":"0","num_feature":"72","num_nodes":"11","size_leaf_vector":"0"}},{"base_weights":[5.7230885E-3,5.104652E-1,-3.248353E-2,-0E0,7.842478E-1,-4.9834406E-1,2.7849035E-2,-7.3643875E-1,1.13299675E-1,2.3543788E-1,-3.051995E-1],"categories":[],"categories_nodes":[],"categories_segments":[],"categories_sizes":[],"default_left":[1,1,1,0,0,1,1,0,0,0,0],"id":37,"left_children":[1,3,5,-1,-1,7,9,-1,-1,-1,-1],"loss_changes":[1.9539188E0,1.7753675E0,2.4363265E0,0E0,0E0,2.1506665E0,4.1871104E0,0E0,0E0,0E0,0E0],"parents":[2147483647,0,0,1,1,2,2,5,5,6,6],"right_children":[2,4,6,-1,-1,8,10,-1,-1,-1,-1],"split_conditions":[6.045E2,6.4E2,3.425E2,-0E0,7.842478E-2,1.9145E3,5.525E2,-7.364388E-2,1.13299675E-2,2.3543788E-2,-3.0519951E-2],"split_indices":[20,67,9,0,0,59,39,0,0,0,0],"split_type":[0,0,0,0,0,0,0,0,0,0,0],"sum_hessian":[7.467509E1,6.226783E0,6.84483E1,1.2784592E0,4.9483237E0,8.916214E0,5.953209E1,7.4478817E0,1.4683319E0,3.8703735E1,2.0828356E1],"tree_param":{"num_deleted":"0","num_feature":"72","num_nodes":"11","size_leaf_vector":"0"}},{"base_weights":[4.215601E-3,9.592806E-2,-2.9085335E-1,-6.0464207E-2,4.227838E-1,-5.520232E-1,2.8177562E-1,2.0373419E-1,-3.1683075E-1,6.249499E-1,-1.7411031E-1,-0E0,-8.826131E-1,6.041627E-1,-0E0],"categories":[],"categories_nodes":[],"categories_segments":[],"categories_sizes":[],"default_left":[1,1,1,1,1,1,1,0,0,0,0,0,0,1,1],"id":38,"left_children":[1,3,5,7,9,11,-1,-1,-1,-1,-1,-1,-1,-1,-1],"loss_changes":[1.8692259E0,3.4928114E0,2.7445471E0,2.879389E0,3.196548E0,2.5764523E0,6.0802746E-1,0E0,0E0,0E0,0E0,0E0,0E0,0E0,0E0],"parents":[2147483647,0,0,1,1,2,2,3,3,4,4,5,5,6,6],"right_children":[2,4,6,8,10,12,-1,-1,-1,-1,-1,-1,-1,-1,-1],"split_conditions":[1.575E2,1.415E2,1.8605E3,6.56E2,4.565E2,2.2975E3,2.8177563E-2,2.0373419E-2,-3.1683076E-2,6.249499E-2,-1.741103E-2,-0E0,-8.8261314E-2,6.041627E-2,-0E0],"split_indices":[14,14,8,17,12,69,0,0,0,0,0,0,0,2147483647,2147483647],"split_type":[0,0,0,0,0,0,0,0,0,0,0,0,0,0,0],"sum_hessian":[7.424528E1,5.974077E1,1.4504513E1,3.8888943E1,2.0851824E1,1.1185325E1,3.3191886E0,1.7332048E1,2.1556896E1,1.679257E1,4.059253E0,4.1113405E0,7.0739837E0,1.6052809E0,1.7139077E0],"tree_param":{"num_deleted":"2","num_feature":"72","num_nodes":"15","size_leaf_vector":"0"}},{"base_weights":[2.7820533E-3,9.2813455E-2,-2.873277E-1,-1.6861144E-2,3.992458E-1,-4.828693E-1,3.8675016E-1,3.8961902E-1,-2.5007218E-1,-1.2975475E-1,8.350675E-1,-0E0,-8.307759E-1],"categories":[],"categories_nodes":[],"categories_segments":[],"categories_sizes":[],"default_left":[1,1,1,1,1,1,0,0,0,0,0,0,0],"id":39,"left_children":[1,3,5,7,9,11,-1,-1,-1,-1,-1,-1,-1],"loss_changes":[1.78258E0,2.4182034E0,2.299468E0,4.035836E0,5.0458903E0,1.8318033E0,0E0,0E0,0E0,0E0,0E0,0E0,0E0],"parents":[2147483647,0,0,1,1,2,2,3,3,4,4,5,5],"right_children":[2,4,6,8,10,12,-1,-1,-1,-1,-1,-1,-1],"split_conditions":[9.365E2,3.7935E3,3.9775E3,2.1805E3,7.33E2,9.935E2,3.8675018E-2,3.8961902E-2,-2.5007218E-2,-1.2975476E-2,8.3506756E-2,-0E0,-8.3077595E-2],"split_indices":[41,50,50,33,65,11,0,0,0,0,0,0,0],"split_type":[0,0,0,0,0,0,0,0,0,0,0,0,0],"sum_hessian":[7.367465E1,5.9375397E1,1.4299256E1,4.2018314E1,1.735708E1,1.2453748E1,1.8455093E0,1.3510779E1,2.8507536E1,7.1211667E0,1.0235914E1,6.2546782E0,6.1990695E0],"tree_param":{"num_deleted":"0","num_feature":"72","num_nodes":"13","size_leaf_vector":"0"}},{"base_weights":[1.1909781E-3,-3.4649253E-2,4.8153582E-1,-2.3993753E-1,1.5877376E-1,8.0077237E-1,-0E0,-0E0,-5.772706E-1,4.120198E-1,-3.359125E-1],"categories":[],"categories_nodes":[],"categories_segments":[],"categories_sizes":[],"default_left":[1,1,1,1,1,0,0,0,0,0,0],"id":40,"left_children":[1,3,5,7,9,-1,-1,-1,-1,-1,-1],"loss_changes":[1.7395555E0,2.8180568E0,1.8165092E0,3.067622E0,4.3597503E0,0E0,0E0,0E0,0E0,0E0,0E0],"parents":[2147483647,0,0,1,1,2,2,3,3,4,4],"right_children":[2,4,6,8,10,-1,-1,-1,-1,-1,-1],"split_conditions":[9.275E2,1.2225E3,1.2515E3,1.3205E3,1.459E3,8.007724E-2,-0E0,-0E0,-5.7727065E-2,4.120198E-2,-3.359125E-2],"split_indices":[62,13,13,37,6,0,0,0,0,0,0],"split_type":[0,0,0,0,0,0,0,0,0,0,0],"sum_hessian":[7.31176E1,6.696698E1,6.150615E0,3.487847E1,3.208851E1,4.418549E0,1.732066E0,2.0474783E1,1.4403688E1,2.2671051E1,9.417459E0],"tree_param":{"num_deleted":"0","num_feature":"72","num_nodes":"11","size_leaf_vector":"0"}},{"base_weights":[-0E0,4.1625652E-1,-4.2532504E-2,8.741905E-1,-1.0782983E-1,4.139475E-2,-6.983937E-1,9.730345E-1,-0E0,-0E0,-4.8340768E-1,3.037028E-1,-1.1654945E-1,-9.0759605E-1,-0E0],"categories":[],"categories_nodes":[],"categories_segments":[],"categories_sizes":[],"default_left":[1,1,1,1,1,1,1,1,1,1,1,0,0,0,0],"id":41,"left_children":[1,3,5,-1,-1,11,13,-1,-1,-1,-1,-1,-1,-1,-1],"loss_changes":[1.6817386E0,3.025548E0,4.298898E0,1.00008965E-1,6.131535E-1,2.6165156E0,2.0820026E0,0E0,0E0,0E0,0E0,0E0,0E0,0E0,0E0],"parents":[2147483647,0,0,1,1,2,2,3,3,4,4,5,5,6,6],"right_children":[2,4,6,-1,-1,12,14,-1,-1,-1,-1,-1,-1,-1,-1],"split_conditions":[6.035E2,1.387E3,1.4645E3,8.7419055E-2,-1.0782983E-2,9.515E2,1.685E2,9.730345E-2,-0E0,-0E0,-4.8340768E-2,3.037028E-2,-1.1654945E-2,-9.0759605E-2,-0E0],"split_indices":[52,37,27,4,32,11,14,2147483647,2147483647,2147483647,2147483647,0,0,0,0],"split_type":[0,0,0,0,0,0,0,0,0,0,0,0,0,0,0],"sum_hessian":[7.265808E1,8.020629E0,6.463745E1,4.942258E0,3.0783706E0,5.6783348E1,7.8541064E0,3.9019387E0,1.0403193E0,1.2515756E0,1.8267949E0,2.337368E1,3.3409668E1,6.770292E0,1.0838149E0],"tree_param":{"num_deleted":"4","num_feature":"72","num_nodes":"15","size_leaf_vector":"0"}},{"base_weights":[-0E0,-4.037885E-2,4.3504784E-1,1.1106579E-1,-2.4704823E-1,-0E0,6.379467E-1,7.621252E-1,-0E0,3.7202936E-1,-4.2663047E-1,8.060806E-1,-0E0],"categories":[],"categories_nodes":[],"categories_segments":[],"categories_sizes":[],"default_left":[1,1,1,1,1,0,1,0,0,0,0,1,1],"id":42,"left_children":[1,3,5,7,9,-1,-1,-1,-1,-1,-1,-1,-1],"loss_changes":[1.643518E0,2.2300403E0,1.0995667E0,3.329607E0,3.6626024E0,0E0,5.439141E-1,0E0,0E0,0E0,0E0,0E0,0E0],"parents":[2147483647,0,0,1,1,2,2,3,3,4,4,6,6],"right_children":[2,4,6,8,10,-1,-1,-1,-1,-1,-1,-1,-1],"split_conditions":[7.045E2,1.096E3,1.679E3,2.2555E3,2.133E3,-0E0,6.379467E-2,7.621252E-2,-0E0,3.7202936E-2,-4.266305E-2,8.060806E-2,-0E0],"split_indices":[25,28,8,69,33,0,39,0,0,0,0,2147483647,2147483647],"split_type":[0,0,0,0,0,0,0,0,0,0,0,0,0],"sum_hessian":[7.214315E1,6.502834E1,7.114806E0,3.500274E1,3.0025606E1,1.6391698E0,5.4756365E0,5.4970675E0,2.950567E1,5.258332E0,2.4767275E1,3.893059E0,1.5825776E0],"tree_param":{"num_deleted":"2","num_feature":"72","num_nodes":"13","size_leaf_vector":"0"}},{"base_weights":[-0E0,8.671306E-2,-2.8384218E-1,4.146149E-1,-1.8055245E-2,-6.040752E-1,2.2106014E-1,-0E0,7.492043E-1,1.3367572E-1,-6.191776E-1,-7.2059685E-1,-0E0,5.619235E-1,-0E0],"categories":[],"categories_nodes":[],"categories_segments":[],"categories_sizes":[],"default_left":[1,1,1,1,1,1,1,0,0,0,0,0,0,0,0],"id":43,"left_children":[1,3,5,7,9,11,13,-1,-1,-1,-1,-1,-1,-1,-1],"loss_changes":[1.6272752E0,2.4397445E0,2.8880973E0,2.520927E0,4.5409055E0,1.0711694E0,9.373528E-1,0E0,0E0,0E0,0E0,0E0,0E0,0E0,0E0],"parents":[2147483647,0,0,1,1,2,2,3,3,4,4,5,5,6,6],"right_children":[2,4,6,8,10,12,14,-1,-1,-1,-1,-1,-1,-1,-1],"split_conditions":[1.432E3,8.17E2,1.48E3,7.805E2,1.3755E3,5.935E2,1.9485E3,-0E0,7.492043E-2,1.3367573E-2,-6.191776E-2,-7.205968E-2,-0E0,5.619235E-2,-0E0],"split_indices":[61,45,61,45,15,39,60,0,0,0,0,0,0,0,0],"split_type":[0,0,0,0,0,0,0,0,0,0,0,0,0,0,0],"sum_hessian":[7.192458E1,5.825702E1,1.3667563E1,1.5701669E1,4.255535E1,9.454947E0,4.2126155E0,7.095454E0,8.606215E0,3.3271317E1,9.284038E0,8.410031E0,1.0449165E0,2.7752986E0,1.4373169E0],"tree_param":{"num_deleted":"0","num_feature":"72","num_nodes":"15","size_leaf_vector":"0"}},{"base_weights":[-0E0,5.083542E-1,-3.005756E-2,7.8706E-1,-0E0,1.356283E-1,-2.1943653E-1,-1.5977982E-1,3.5581547E-1,3.3299077E-2,-6.4530015E-1],"categories":[],"categories_nodes":[],"categories_segments":[],"categories_sizes":[],"default_left":[1,1,1,0,0,1,1,0,0,0,0],"id":44,"left_children":[1,3,5,-1,-1,7,9,-1,-1,-1,-1],"loss_changes":[1.5604779E0,1.443175E0,2.2341335E0,0E0,0E0,2.4545155E0,4.372022E0,0E0,0E0,0E0,0E0],"parents":[2147483647,0,0,1,1,2,2,5,5,6,6],"right_children":[2,4,6,-1,-1,8,10,-1,-1,-1,-1],"split_conditions":[2.665E2,5.43E2,8.425E2,7.8706004E-2,-0E0,7.805E2,1.886E3,-1.5977982E-2,3.5581548E-2,3.3299078E-3,-6.4530015E-2],"split_indices":[2,39,45,0,0,45,60,0,0,0,0],"split_type":[0,0,0,0,0,0,0,0,0,0,0],"sum_hessian":[7.138464E1,4.8021703E0,6.658247E1,3.7502313E0,1.0519389E0,3.284772E1,3.3734753E1,1.2205415E1,2.0642307E1,2.0275545E1,1.3459208E1],"tree_param":{"num_deleted":"0","num_feature":"72","num_nodes":"11","size_leaf_vector":"0"}},{"base_weights":[-0E0,8.3185054E-2,-2.8292742E-1,4.6319485E-1,-3.745788E-2,2.3648995E-1,-5.9984726E-1,-2.1138635E-1,6.159259E-1,1.2565786E-1,-3.1119132E-1,-2.3814658E-2,6.007761E-1,-8.7780744E-1,-0E0],"categories":[],"categories_nodes":[],"categories_segments":[],"categories_sizes":[],"default_left":[1,1,1,1,1,1,1,0,0,0,0,0,0,0,0],"id":45,"left_children":[1,3,5,7,9,11,13,-1,-1,-1,-1,-1,-1,-1,-1],"loss_changes":[1.5389712E0,3.1413257E0,2.8325047E0,2.2094398E0,2.1714072E0,1.0539143E0,2.3671384E0,0E0,0E0,0E0,0E0,0E0,0E0,0E0,0E0],"parents":[2147483647,0,0,1,1,2,2,3,3,4,4,5,5,6,6],"right_children":[2,4,6,8,10,12,14,-1,-1,-1,-1,-1,-1,-1,-1],"split_conditions":[8.175E2,6.825E2,3.925E2,4.72E2,3.235E2,1.3035E3,2.2395E3,-2.1138636E-2,6.159259E-2,1.2565786E-2,-3.1119132E-2,-2.3814659E-3,6.0077608E-2,-8.7780744E-2,-0E0],"split_indices":[65,54,12,57,2,6,33,0,0,0,0,0,0,0,0],"split_type":[0,0,0,0,0,0,0,0,0,0,0,0,0,0,0],"sum_hessian":[7.099293E1,5.7855038E1,1.313789E1,1.5254585E1,4.2600452E1,3.8789227E0,9.258967E0,1.5365347E0,1.3718051E1,2.4743652E1,1.78568E1,1.2064047E0,2.672518E0,6.86259E0,2.3963773E0],"tree_param":{"num_deleted":"0","num_feature":"72","num_nodes":"15","size_leaf_vector":"0"}},{"base_weights":[-0E0,1.1707375E-1,-1.7768253E-1,4.3436018E-1,-5.9402768E-2,-0E0,-7.831106E-1,6.841066E-1,-2.7743682E-1,1.5654828E-1,-4.9006927E-1,3.153943E-1,-3.510393E-1,-9.925621E-1,-0E0],"categories":[],"categories_nodes":[],"categories_segments":[],"categories_sizes":[],"default_left":[1,1,1,1,1,1,1,0,0,0,0,0,0,0,0],"id":46,"left_children":[1,3,5,7,9,11,13,-1,-1,-1,-1,-1,-1,-1,-1],"loss_changes":[1.4585605E0,2.9964662E0,2.7002378E0,3.9232593E0,3.0741258E0,2.4768667E0,8.249016E-1,0E0,0E0,0E0,0E0,0E0,0E0,0E0,0E0],"parents":[2147483647,0,0,1,1,2,2,3,3,4,4,5,5,6,6],"right_children":[2,4,6,8,10,12,14,-1,-1,-1,-1,-1,-1,-1,-1],"split_conditions":[1.1205E3,1.096E3,7.01E2,2.168E3,1.6865E3,5.5E2,1.3845E3,6.841066E-2,-2.7743682E-2,1.5654828E-2,-4.9006928E-2,3.1539433E-2,-3.510393E-2,-9.925621E-2,-0E0],"split_indices":[3,28,52,7,55,39,6,0,0,0,0,0,0,0,0],"split_type":[0,0,0,0,0,0,0,0,0,0,0,0,0,0,0],"sum_hessian":[7.043095E1,4.53572E1,2.5073746E1,1.7714163E1,2.7643038E1,2.0328384E1,4.7453628E0,1.4181969E1,3.5321944E0,1.7288502E1,1.0354536E1,1.056086E1,9.767524E0,3.4137292E0,1.3316338E0],"tree_param":{"num_deleted":"0","num_feature":"72","num_nodes":"15","size_leaf_vector":"0"}},{"base_weights":[-0E0,-4.1608922E-2,4.0914094E-1,8.442437E-2,-5.12109E-1,8.5263586E-1,-0E0,3.2875082E-1,-1.6293852E-1,-7.593995E-1,-0E0,-3.4421784E-1,5.9559498E-2],"categories":[],"categories_nodes":[],"categories_segments":[],"categories_sizes":[],"default_left":[1,1,1,1,1,0,1,0,0,0,0,1,1],"id":47,"left_children":[1,3,5,7,9,-1,-1,-1,-1,-1,-1,-1,-1],"loss_changes":[1.4123898E0,4.2641764E0,1.973858E0,3.2192285E0,2.3460627E0,0E0,2.9598323E-1,0E0,0E0,0E0,0E0,0E0,0E0],"parents":[2147483647,0,0,1,1,2,2,3,3,4,4,6,6],"right_children":[2,4,6,8,10,-1,-1,-1,-1,-1,-1,-1,-1],"split_conditions":[1.8615E3,9.985E2,2.5925E3,2.375E2,3.21E2,8.526359E-2,-0E0,3.2875083E-2,-1.6293852E-2,-7.5939946E-2,-0E0,-3.4421783E-2,5.95595E-3],"split_indices":[8,70,49,30,24,0,68,0,0,0,0,2147483647,2147483647],"split_type":[0,0,0,0,0,0,0,0,0,0,0,0,0],"sum_hessian":[6.974448E1,6.2968674E1,6.775802E0,4.8635742E1,1.4332934E1,3.5055752E0,3.270227E0,2.6336323E1,2.2299417E1,1.0041006E1,4.291928E0,1.412488E0,1.857739E0],"tree_param":{"num_deleted":"2","num_feature":"72","num_nodes":"13","size_leaf_vector":"0"}},{"base_weights":[-0E0,7.640668E-2,-2.7282578E-1,-2.545344E-2,3.7314934E-1,-6.5124667E-1,-0E0,-1.6769446E-1,5.9978276E-1,-8.829787E-2,7.732317E-1,-0E0,-8.231135E-1,2.7342203E-1,-3.3662704E-1],"categories":[],"categories_nodes":[],"categories_segments":[],"categories_sizes":[],"default_left":[1,1,1,1,1,1,1,0,0,0,0,0,0,0,0],"id":48,"left_children":[1,3,5,7,9,11,13,-1,-1,-1,-1,-1,-1,-1,-1],"loss_changes":[1.3915869E0,2.083302E0,1.9182947E0,3.309508E0,3.922291E0,1.0552764E0,8.0293024E-1,0E0,0E0,0E0,0E0,0E0,0E0,0E0,0E0],"parents":[2147483647,0,0,1,1,2,2,3,3,4,4,5,5,6,6],"right_children":[2,4,6,8,10,12,14,-1,-1,-1,-1,-1,-1,-1,-1],"split_conditions":[9.365E2,3.7935E3,1.4135E3,2.5635E3,7.33E2,1.333E3,2.6235E3,-1.6769446E-2,5.9978276E-2,-8.829786E-3,7.732317E-2,-0E0,-8.2311355E-2,2.7342204E-2,-3.3662703E-2],"split_indices":[41,50,27,42,65,61,49,0,0,0,0,0,0,0,0],"split_type":[0,0,0,0,0,0,0,0,0,0,0,0,0,0,0],"sum_hessian":[6.932293E1,5.6106274E1,1.321666E1,3.9940548E1,1.6165726E1,6.0180154E0,7.1986446E0,3.4437267E1,5.503281E0,6.708308E0,9.457417E0,1.0671989E0,4.9508166E0,5.2098284E0,1.9888163E0],"tree_param":{"num_deleted":"0","num_feature":"72","num_nodes":"15","size_leaf_vector":"0"}},{"base_weights":[-0E0,7.542899E-2,-2.6907292E-1,-7.7842906E-2,3.5352713E-1,-5.1547605E-1,2.3838206E-1,7.6205455E-2,-5.6132305E-1,5.2920836E-1,-2.1715051E-1,-0E0,-8.0784154E-1,4.8220867E-1,-0E0],"categories":[],"categories_nodes":[],"categories_segments":[],"categories_sizes":[],"default_left":[1,1,1,1,1,1,1,0,0,0,0,0,0,1,1],"id":49,"left_children":[1,3,5,7,9,11,-1,-1,-1,-1,-1,-1,-1,-1,-1],"loss_changes":[1.3595178E0,2.7127905E0,2.1924508E0,3.1306243E0,2.6912568E0,1.8688946E0,4.3990278E-1,0E0,0E0,0E0,0E0,0E0,0E0,0E0,0E0],"parents":[2147483647,0,0,1,1,2,2,3,3,4,4,5,5,6,6],"right_children":[2,4,6,8,10,12,-1,-1,-1,-1,-1,-1,-1,-1,-1],"split_conditions":[1.575E2,6.215E2,1.8605E3,1.7265E3,5.735E2,2.2975E3,2.3838205E-2,7.6205456E-3,-5.6132305E-2,5.2920837E-2,-2.171505E-2,-0E0,-8.078416E-2,4.822087E-2,-0E0],"split_indices":[14,38,8,55,53,69,61,0,0,0,0,0,0,2147483647,2147483647],"split_type":[0,0,0,0,0,0,0,0,0,0,0,0,0,0,0],"sum_hessian":[6.8865776E1,5.5530376E1,1.3335399E1,3.3945683E1,2.1584696E1,1.0292512E1,3.0428865E0,2.481354E1,9.132143E0,1.7899397E1,3.6852994E0,3.830926E0,6.461586E0,1.8798766E0,1.1630099E0],"tree_param":{"num_deleted":"2","num_feature":"72","num_nodes":"15","size_leaf_vector":"0"}},{"base_weights":[-0E0,4.3061844E-1,-3.8682476E-2,7.502317E-1,-0E0,-4.3778983E-1,1.3203119E-2,-6.5374094E-1,6.304888E-2,1.5693864E-1,-3.1716913E-1],"categories":[],"categories_nodes":[],"categories_segments":[],"categories_sizes":[],"default_left":[1,1,1,0,0,1,1,0,0,0,0],"id":50,"left_children":[1,3,5,-1,-1,7,9,-1,-1,-1,-1],"loss_changes":[1.2947634E0,1.480805E0,1.7525828E0,0E0,0E0,1.6693991E0,2.5135515E0,0E0,0E0,0E0,0E0],"parents":[2147483647,0,0,1,1,2,2,5,5,6,6],"right_children":[2,4,6,-1,-1,8,10,-1,-1,-1,-1],"split_conditions":[6.045E2,1.948E3,3.425E2,7.502317E-2,-0E0,1.9145E3,2.6215E3,-6.53741E-2,6.3048876E-3,1.5693864E-2,-3.1716913E-2],"split_indices":[20,40,9,0,0,59,49,0,0,0,0],"split_type":[0,0,0,0,0,0,0,0,0,0,0],"sum_hessian":[6.8317894E1,5.4671683E0,6.2850727E1,3.7615492E0,1.7056193E0,8.592469E0,5.4258255E1,7.185564E0,1.4069055E0,4.0283787E1,1.397447E1],"tree_param":{"num_deleted":"0","num_feature":"72","num_nodes":"11","size_leaf_vector":"0"}},{"base_weights":[-0E0,8.579374E-2,-2.1224746E-1,-1.4598258E-1,2.2685236E-1,4.519488E-2,-8.1379354E-1,2.2158705E-1,-5.0920963E-1,4.376304E-1,-8.25666E-2,-1.5937445E-1,4.339469E-1,-0E0,-1.0023694E0],"categories":[],"categories_nodes":[],"categories_segments":[],"categories_sizes":[],"default_left":[1,1,1,1,1,1,1,0,0,0,0,0,0,0,0],"id":51,"left_children":[1,3,5,7,9,11,13,-1,-1,-1,-1,-1,-1,-1,-1],"loss_changes":[1.234401E0,1.7777278E0,3.7612045E0,2.6940973E0,2.6548629E0,1.3894727E0,9.7851276E-1,0E0,0E0,0E0,0E0,0E0,0E0,0E0,0E0],"parents":[2147483647,0,0,1,1,2,2,3,3,4,4,5,5,6,6],"right_children":[2,4,6,8,10,12,14,-1,-1,-1,-1,-1,-1,-1,-1],"split_conditions":[5.975E2,1.3515E3,1.137E3,2.875E2,5.525E2,1.0795E3,1.0705E3,2.2158705E-2,-5.0920963E-2,4.3763038E-2,-8.25666E-3,-1.5937446E-2,4.3394692E-2,-0E0,-1.00236945E-1],"split_indices":[63,27,56,2,39,56,3,0,0,0,0,0,0,0,0],"split_type":[0,0,0,0,0,0,0,0,0,0,0,0,0,0,0],"sum_hessian":[6.797488E1,4.988821E1,1.8086666E1,1.617938E1,3.370883E1,1.214954E1,5.9371266E0,6.867066E0,9.312315E0,2.1726269E1,1.1982562E1,6.661712E0,5.4878283E0,1.3907481E0,4.546378E0],"tree_param":{"num_deleted":"0","num_feature":"72","num_nodes":"15","size_leaf_vector":"0"}},{"base_weights":[-0E0,5.9472457E-2,-2.8660622E-1,-1.0660154E-1,3.3736256E-1,-4.9738708E-1,2.5279832E-1,1.8049195E-1,-3.9781684E-1,-0E0,5.2641135E-1,-8.054603E-1,-0E0],"categories":[],"categories_nodes":[],"categories_segments":[],"categories_sizes":[],"default_left":[1,1,1,1,1,1,0,0,0,0,0,0,0],"id":52,"left_children":[1,3,5,7,9,11,-1,-1,-1,-1,-1,-1,-1],"loss_changes":[1.15668E0,2.934769E0,1.688289E0,3.1897297E0,1.9434395E0,1.2902637E0,0E0,0E0,0E0,0E0,0E0,0E0,0E0],"parents":[2147483647,0,0,1,1,2,2,3,3,4,4,5,5],"right_children":[2,4,6,8,10,12,-1,-1,-1,-1,-1,-1,-1],"split_conditions":[1.4595E3,1.2205E3,1.9225E3,2.405E3,1.2945E3,9.88E2,2.5279833E-2,1.8049195E-2,-3.9781686E-2,-0E0,5.2641135E-2,-8.054603E-2,-0E0],"split_indices":[6,13,8,4,37,71,0,0,0,0,0,0,0],"split_type":[0,0,0,0,0,0,0,0,0,0,0,0,0],"sum_hessian":[6.740401E1,5.6812046E1,1.0591965E1,3.3693703E1,2.3118345E1,9.004936E0,1.587029E0,1.5429204E1,1.8264498E1,7.1992474E0,1.5919097E1,4.803976E0,4.20096E0],"tree_param":{"num_deleted":"0","num_feature":"72","num_nodes":"13","size_leaf_vector":"0"}},{"base_weights":[-0E0,6.47168E-2,-2.5529903E-1,3.2995495E-1,-7.351739E-2,-4.6697217E-1,3.8170242E-1,-1.06379606E-1,4.9856788E-1,6.2495757E-2,-4.1855216E-1,-8.29586E-1,-0E0],"categories":[],"categories_nodes":[],"categories_segments":[],"categories_sizes":[],"default_left":[1,1,1,1,1,1,0,0,0,0,0,0,0],"id":53,"left_children":[1,3,5,7,9,11,-1,-1,-1,-1,-1,-1,-1],"loss_changes":[1.1243763E0,2.3049579E0,2.1112037E0,2.0326197E0,2.0075405E0,2.0126095E0,0E0,0E0,0E0,0E0,0E0,0E0,0E0],"parents":[2147483647,0,0,1,1,2,2,3,3,4,4,5,5],"right_children":[2,4,6,8,10,12,-1,-1,-1,-1,-1,-1,-1],"split_conditions":[8.175E2,5.315E2,2.5635E3,3.455E2,7.11E2,1.175E3,3.8170245E-2,-1.063796E-2,4.985679E-2,6.249576E-3,-4.1855216E-2,-8.29586E-2,-0E0],"split_indices":[65,39,42,9,17,13,0,0,0,0,0,0,0],"split_type":[0,0,0,0,0,0,0,0,0,0,0,0,0],"sum_hessian":[6.691293E1,5.420971E1,1.2703227E1,2.0576168E1,3.363354E1,1.0913492E1,1.7897346E0,4.1848946E0,1.6391273E1,2.2632421E1,1.1001118E1,5.699237E0,5.2142553E0],"tree_param":{"num_deleted":"0","num_feature":"72","num_nodes":"13","size_leaf_vector":"0"}},{"base_weights":[-0E0,6.370148E-2,-2.5790042E-1,2.4996717E-1,-9.4989434E-2,-5.9619695E-1,-0E0,3.8967377E-1,-3.3609065E-1,3.5089824E-1,-3.799796E-1,-0E0,-8.4844023E-1,2.3928805E-1,-2.8519344E-1],"categories":[],"categories_nodes":[],"categories_segments":[],"categories_sizes":[],"default_left":[1,1,1,1,1,1,1,0,0,0,0,0,0,1,1],"id":54,"left_children":[1,3,5,7,9,11,-1,-1,-1,-1,-1,-1,-1,-1,-1],"loss_changes":[1.1185725E0,1.8062706E0,1.5101242E0,2.5183766E0,3.6642163E0,9.751015E-1,5.67263E-1,0E0,0E0,0E0,0E0,0E0,0E0,0E0,0E0],"parents":[2147483647,0,0,1,1,2,2,3,3,4,4,5,5,6,6],"right_children":[2,4,6,8,10,12,-1,-1,-1,-1,-1,-1,-1,-1,-1],"split_conditions":[9.365E2,5.235E2,1.4135E3,2.1985E3,2.181E3,1.368E3,-0E0,3.896738E-2,-3.3609066E-2,3.5089824E-2,-3.799796E-2,-0E0,-8.484402E-2,2.3928804E-2,-2.8519345E-2],"split_indices":[41,57,27,7,33,61,54,0,0,0,0,0,0,2147483647,2147483647],"split_type":[0,0,0,0,0,0,0,0,0,0,0,0,0,0,0],"sum_hessian":[6.651981E1,5.406163E1,1.2458181E1,2.7504368E1,2.6557262E1,5.7667966E0,6.6913843E0,2.385834E1,3.6460288E0,8.897041E0,1.7660221E1,2.070873E0,3.6959238E0,4.800393E0,1.8909914E0],"tree_param":{"num_deleted":"2","num_feature":"72","num_nodes":"15","size_leaf_vector":"0"}},{"base_weights":[-0E0,-4.5576256E-2,3.652198E-1,5.9701513E-2,-2.9671013E-1,5.951956E-1,-0E0,1.8293934E-1,-3.005218E-1,1.4505586E-1,-5.0638175E-1,7.323236E-1,-0E0],"categories":[],"categories_nodes":[],"categories_segments":[],"categories_sizes":[],"default_left":[1,1,1,1,1,1,0,0,0,0,0,1,1],"id":55,"left_children":[1,3,5,7,9,-1,-1,-1,-1,-1,-1,-1,-1],"loss_changes":[1.1033026E0,1.859746E0,1.0238869E0,1.7487243E0,2.371128E0,4.0235186E-1,0E0,0E0,0E0,0E0,0E0,0E0,0E0],"parents":[2147483647,0,0,1,1,2,2,3,3,4,4,5,5],"right_children":[2,4,6,8,10,-1,-1,-1,-1,-1,-1,-1,-1],"split_conditions":[2.406E3,1.1195E3,9.605E2,1.067E3,6.62E2,5.951956E-2,-0E0,1.8293934E-2,-3.005218E-2,1.4505587E-2,-5.0638177E-2,7.323236E-2,-0E0],"split_indices":[33,3,34,16,21,5,0,0,0,0,0,2147483647,2147483647],"split_type":[0,0,0,0,0,0,0,0,0,0,0,0,0],"sum_hessian":[6.603323E1,5.970708E1,6.3261495E0,3.980202E1,1.9905062E1,4.64868E0,1.6774691E0,3.2091305E1,7.7107134E0,4.9707646E0,1.4934298E1,3.4815414E0,1.1671387E0],"tree_param":{"num_deleted":"2","num_feature":"72","num_nodes":"13","size_leaf_vector":"0"}},{"base_weights":[-0E0,8.954828E-2,-1.7293592E-1,4.857104E-1,-0E0,9.587897E-2,-8.24384E-1,6.729661E-1,-5.2125484E-2,1.3322598E-1,-3.9898968E-1,3.5493633E-1,-5.185774E-1,-0E0,-9.816853E-1],"categories":[],"categories_nodes":[],"categories_segments":[],"categories_sizes":[],"default_left":[1,1,1,1,1,1,1,0,0,0,0,0,0,0,0],"id":56,"left_children":[1,3,5,7,9,11,13,-1,-1,-1,-1,-1,-1,-1,-1],"loss_changes":[1.0497959E0,2.055872E0,4.8702803E0,1.6855407E0,2.1857264E0,2.6042519E0,9.770069E-1,0E0,0E0,0E0,0E0,0E0,0E0,0E0,0E0],"parents":[2147483647,0,0,1,1,2,2,3,3,4,4,5,5,6,6],"right_children":[2,4,6,8,10,12,14,-1,-1,-1,-1,-1,-1,-1,-1],"split_conditions":[1.0685E3,6.825E2,2.4405E3,1.4605E3,8.635E2,9.035E2,2.22E2,6.729662E-2,-5.2125487E-3,1.3322598E-2,-3.989897E-2,3.5493635E-2,-5.185774E-2,-0E0,-9.816853E-2],"split_indices":[71,54,4,6,45,34,10,0,0,0,0,0,0,0,0],"split_type":[0,0,0,0,0,0,0,0,0,0,0,0,0,0,0],"sum_hessian":[6.559024E1,4.3390385E1,2.2199854E1,9.223334E0,3.4167053E1,1.5232191E1,6.967663E0,8.034171E0,1.1891634E0,2.4252514E1,9.914537E0,1.2156692E1,3.0754998E0,1.3350359E0,5.632627E0],"tree_param":{"num_deleted":"0","num_feature":"72","num_nodes":"15","size_leaf_vector":"0"}},{"base_weights":[-0E0,-5.403669E-1,2.5743242E-2,-8.993575E-1,-0E0,-2.1510633E-2,6.5073055E-1,-9.308994E-2,4.6630606E-1,-0E0,7.313481E-1],"categories":[],"categories_nodes":[],"categories_segments":[],"categories_sizes":[],"default_left":[1,1,1,0,0,1,1,0,0,1,1],"id":57,"left_children":[1,3,5,-1,-1,7,-1,-1,-1,-1,-1],"loss_changes":[1.0385106E0,7.686278E-1,2.5232847E0,0E0,0E0,1.7186432E0,1.2890506E-1,0E0,0E0,0E0,0E0],"parents":[2147483647,0,0,1,1,2,2,5,5,6,6],"right_children":[2,4,6,-1,-1,8,-1,-1,-1,-1,-1],"split_conditions":[1.009E3,2.3735E3,3.795E2,-8.993575E-2,-0E0,7.045E2,6.507306E-2,-9.308994E-3,4.6630606E-2,-0E0,7.313481E-2],"split_indices":[18,19,68,0,0,25,19,0,0,2147483647,2147483647],"split_type":[0,0,0,0,0,0,0,0,0,0,0],"sum_hessian":[6.507182E1,2.412105E0,6.2659714E1,1.1820651E0,1.2300398E0,5.766532E1,4.9943943E0,5.2779842E1,4.8854775E0,1.0077008E0,3.9866936E0],"tree_param":{"num_deleted":"2","num_feature":"72","num_nodes":"11","size_leaf_vector":"0"}},{"base_weights":[-0E0,-4.5713477E-2,3.5312358E-1,1.6626753E-2,-6.5594745E-1,7.357479E-1,-0E0,1.4483866E-1,-3.621342E-1,-0E0,-7.9071695E-1,-2.9350403E-1,5.407474E-2],"categories":[],"categories_nodes":[],"categories_segments":[],"categories_sizes":[],"default_left":[1,1,1,1,1,0,1,0,0,0,0,1,1],"id":58,"left_children":[1,3,5,7,9,-1,-1,-1,-1,-1,-1,-1,-1],"loss_changes":[1.0329087E0,2.915131E0,1.3758557E0,2.4335341E0,7.1350837E-1,0E0,2.0779052E-1,0E0,0E0,0E0,0E0,0E0,0E0],"parents":[2147483647,0,0,1,1,2,2,3,3,4,4,6,6],"right_children":[2,4,6,8,10,-1,-1,-1,-1,-1,-1,-1,-1],"split_conditions":[1.8615E3,1.8195E3,2.5925E3,9.985E2,5.93E2,7.357479E-2,-0E0,1.4483866E-2,-3.621342E-2,-0E0,-7.907169E-2,-2.9350404E-2,5.407474E-3],"split_indices":[8,8,49,70,52,0,68,0,0,0,0,2147483647,2147483647],"split_type":[0,0,0,0,0,0,0,0,0,0,0,0,0],"sum_hessian":[6.482239E1,5.8536736E1,6.2856517E0,5.2506786E1,6.029946E0,3.2199223E0,3.0657296E0,4.166188E1,1.0844907E1,1.0509582E0,4.9789877E0,1.3188741E0,1.7468555E0],"tree_param":{"num_deleted":"2","num_feature":"72","num_nodes":"13","size_leaf_vector":"0"}},{"base_weights":[-0E0,1.2973079E-1,-1.2720586E-1,-1.4504325E-1,3.883526E-1,1.3196657E-2,-5.439325E-1,1.3284998E-1,-3.8350728E-1,-2.77723E-1,5.1898485E-1,2.7854273E-1,-3.6469367E-1,-0E0,-8.360479E-1],"categories":[],"categories_nodes":[],"categories_segments":[],"categories_sizes":[],"default_left":[1,1,1,1,1,1,1,0,0,0,0,0,0,0,0],"id":59,"left_children":[1,3,5,7,9,11,13,-1,-1,-1,-1,-1,-1,-1,-1],"loss_changes":[1.094171E0,2.577014E0,2.5440278E0,1.2553161E0,2.0086446E0,2.5049481E0,1.6206369E0,0E0,0E0,0E0,0E0,0E0,0E0,0E0,0E0],"parents":[2147483647,0,0,1,1,2,2,3,3,4,4,5,5,6,6],"right_children":[2,4,6,8,10,12,14,-1,-1,-1,-1,-1,-1,-1,-1],"split_conditions":[3.335E2,7.395E2,1.3315E3,2.3345E3,5.735E2,3.125E2,6.645E2,1.3284998E-2,-3.8350727E-2,-2.7772302E-2,5.1898487E-2,2.7854273E-2,-3.6469366E-2,-0E0,-8.360479E-2],"split_indices":[68,65,37,69,38,2,20,0,0,0,0,0,0,0,0],"split_type":[0,0,0,0,0,0,0,0,0,0,0,0,0,0,0],"sum_hessian":[6.433449E1,3.1047491E1,3.3286995E1,1.3391811E1,1.765568E1,2.3827703E1,9.459292E0,4.4524975E0,8.939314E0,1.4551264E0,1.6200552E1,1.5707454E1,8.120249E0,3.7134957E0,5.745797E0],"tree_param":{"num_deleted":"0","num_feature":"72","num_nodes":"15","size_leaf_vector":"0"}},{"base_weights":[-0E0,-1.5678732E-1,1.0396037E-1,8.3261706E-2,-4.959451E-1,2.8730753E-1,-2.8669733E-1,-5.0247204E-1,2.7967206E-1,-0E0,-6.569605E-1,4.6728978E-1,-7.004745E-2,-5.1046014E-1,1.3574207E-1],"categories":[],"categories_nodes":[],"categories_segments":[],"categories_sizes":[],"default_left":[1,1,1,1,1,1,1,0,0,0,0,0,0,0,0],"id":60,"left_children":[1,3,5,7,9,11,13,-1,-1,-1,-1,-1,-1,-1,-1],"loss_changes":[1.091569E0,2.7054193E0,2.8118873E0,1.6805204E0,1.6705039E0,2.2418904E0,1.4769914E0,0E0,0E0,0E0,0E0,0E0,0E0,0E0,0E0],"parents":[2147483647,0,0,1,1,2,2,3,3,4,4,5,5,6,6],"right_children":[2,4,6,8,10,12,14,-1,-1,-1,-1,-1,-1,-1,-1],"split_conditions":[2.0545E3,1.2945E3,2.6275E3,1.0075E3,1.5915E3,7.235E2,6.655E2,-5.0247204E-2,2.7967205E-2,-0E0,-6.569605E-2,4.672898E-2,-7.0047453E-3,-5.1046014E-2,1.3574207E-2],"split_indices":[7,37,49,18,35,21,38,0,0,0,0,0,0,0,0],"split_type":[0,0,0,0,0,0,0,0,0,0,0,0,0,0,0],"sum_hessian":[6.375347E1,2.6654078E1,3.7099396E1,1.4322749E1,1.2331328E1,2.7171398E1,9.927998E0,1.9268503E0,1.2395899E1,1.8634611E0,1.0467867E1,1.9726719E1,7.4446797E0,7.901484E0,2.0265133E0],"tree_param":{"num_deleted":"0","num_feature":"72","num_nodes":"15","size_leaf_vector":"0"}},{"base_weights":[-0E0,5.671217E-2,-2.5765967E-1,3.2097158E-1,-4.939247E-2,1.5425904E-1,-5.226606E-1,7.247464E-1,-0E0,8.6577475E-2,-3.5505685E-1,-0E0,5.1057905E-1,-7.969364E-1,-0E0],"categories":[],"categories_nodes":[],"categories_segments":[],"categories_sizes":[],"default_left":[1,1,1,1,1,1,1,0,0,0,0,0,0,0,0],"id":61,"left_children":[1,3,5,7,9,11,13,-1,-1,-1,-1,-1,-1,-1,-1],"loss_changes":[1.0377362E0,1.7486686E0,1.8797204E0,1.9070805E0,1.768435E0,7.530108E-1,1.7751329E0,0E0,0E0,0E0,0E0,0E0,0E0,0E0,0E0],"parents":[2147483647,0,0,1,1,2,2,3,3,4,4,5,5,6,6],"right_children":[2,4,6,8,10,12,14,-1,-1,-1,-1,-1,-1,-1,-1],"split_conditions":[8.175E2,3.015E2,3.925E2,1.3625E3,8.425E2,1.3035E3,2.04E3,7.247464E-2,-0E0,8.657748E-3,-3.5505686E-2,-0E0,5.1057905E-2,-7.969364E-2,-0E0],"split_indices":[65,2,12,61,45,6,7,0,0,0,0,0,0,0,0],"split_type":[0,0,0,0,0,0,0,0,0,0,0,0,0,0,0],"sum_hessian":[6.322067E1,5.1114136E1,1.2106533E1,1.6763453E1,3.435068E1,3.4257896E0,8.680743E0,6.114836E0,1.0648616E1,2.2006594E1,1.2344089E1,1.1332849E0,2.2925048E0,5.9589167E0,2.721826E0],"tree_param":{"num_deleted":"0","num_feature":"72","num_nodes":"15","size_leaf_vector":"0"}},{"base_weights":[-0E0,4.2247508E-2,-3.1820112E-1,-1.2877695E-1,2.3906274E-1,-6.4846927E-1,4.3622784E-2,2.7141038E-1,-2.622012E-1,-0E0,5.4429907E-1,-7.2863257E-1,-0E0,3.2190186E-1,-0E0],"categories":[],"categories_nodes":[],"categories_segments":[],"categories_sizes":[],"default_left":[1,1,1,1,1,1,1,0,0,0,0,1,1,1,1],"id":62,"left_children":[1,3,5,7,9,-1,-1,-1,-1,-1,-1,-1,-1,-1,-1],"loss_changes":[9.4105786E-1,2.0489755E0,1.6243842E0,1.5708383E0,2.6364484E0,6.0772896E-2,2.2891016E-1,0E0,0E0,0E0,0E0,0E0,0E0,0E0,0E0],"parents":[2147483647,0,0,1,1,2,2,3,3,4,4,5,5,6,6],"right_children":[2,4,6,8,10,-1,-1,-1,-1,-1,-1,-1,-1,-1,-1],"split_conditions":[4.225E2,3.765E2,1.059E3,1.5705E3,6.195E2,-6.4846925E-2,4.3622786E-3,2.7141038E-2,-2.6220119E-2,-0E0,5.4429907E-2,-7.286326E-2,-0E0,3.2190185E-2,-0E0],"split_indices":[9,9,11,35,38,3,36,0,0,0,0,2147483647,2147483647,2147483647,2147483647],"split_type":[0,0,0,0,0,0,0,0,0,0,0,0,0,0,0],"sum_hessian":[6.2976326E1,5.5681274E1,7.2950525E0,2.725905E1,2.8422222E1,4.8445563E0,2.4504962E0,4.683242E0,2.257581E1,1.4847403E1,1.357482E1,3.7437477E0,1.1008085E0,1.2724805E0,1.1780156E0],"tree_param":{"num_deleted":"4","num_feature":"72","num_nodes":"15","size_leaf_vector":"0"}},{"base_weights":[-0E0,-1.7143947E-1,8.4289566E-2,-4.842577E-1,5.5900518E-2,4.66439E-1,-4.429316E-2,-6.1853653E-1,-0E0,3.595933E-1,-2.3630384E-1,-0E0,6.243822E-1,4.7636785E-2,-6.8350244E-1],"categories":[],"categories_nodes":[],"categories_segments":[],"categories_sizes":[],"default_left":[1,1,1,1,1,1,1,0,0,0,0,0,0,0,0],"id":63,"left_children":[1,3,5,7,9,11,13,-1,-1,-1,-1,-1,-1,-1,-1],"loss_changes":[9.53115E-1,2.0302842E0,2.5331903E0,1.2550771E0,1.2615942E0,1.3844838E0,2.477505E0,0E0,0E0,0E0,0E0,0E0,0E0,0E0,0E0],"parents":[2147483647,0,0,1,1,2,2,3,3,4,4,5,5,6,6],"right_children":[2,4,6,8,10,12,14,-1,-1,-1,-1,-1,-1,-1,-1],"split_conditions":[5.91E2,1.414E3,1.1255E3,1.98E3,1.05E3,2.885E2,2.3215E3,-6.1853655E-2,-0E0,3.595933E-2,-2.3630384E-2,-0E0,6.243822E-2,4.7636786E-3,-6.835025E-2],"split_indices":[51,27,56,60,36,24,33,0,0,0,0,0,0,0,0],"split_type":[0,0,0,0,0,0,0,0,0,0,0,0,0,0,0],"sum_hessian":[6.2686127E1,2.1144873E1,4.1541256E1,1.0275059E1,1.0869814E1,1.1754951E1,2.9786304E1,9.191502E0,1.0835571E0,6.8951797E0,3.974634E0,2.085499E0,9.669452E0,2.5482498E1,4.3038054E0],"tree_param":{"num_deleted":"0","num_feature":"72","num_nodes":"15","size_leaf_vector":"0"}},{"base_weights":[-0E0,-2.4190187E-1,5.4699488E-2,-5.1316506E-1,2.7148059E-2,2.679038E-1,-1.0511118E-1,-6.9006884E-1,-0E0,-1.2521493E-1,4.3660158E-1,-7.2647594E-2,5.1149166E-1,9.4591044E-2,-3.8428676E-1],"categories":[],"categories_nodes":[],"categories_segments":[],"categories_sizes":[],"default_left":[1,1,1,1,1,1,1,0,0,0,0,0,0,0,0],"id":64,"left_children":[1,3,5,7,9,11,13,-1,-1,-1,-1,-1,-1,-1,-1],"loss_changes":[8.909997E-1,1.4187038E0,1.9487638E0,1.1197207E0,7.041255E-1,2.5552979E0,1.8606198E0,0E0,0E0,0E0,0E0,0E0,0E0,0E0,0E0],"parents":[2147483647,0,0,1,1,2,2,3,3,4,4,5,5,6,6],"right_children":[2,4,6,8,10,12,14,-1,-1,-1,-1,-1,-1,-1,-1],"split_conditions":[4.735E2,1.3045E3,5.255E2,3.31E2,6.225E2,8.15E2,1.684E3,-6.900688E-2,-0E0,-1.2521493E-2,4.366016E-2,-7.2647594E-3,5.1149167E-2,9.459104E-3,-3.8428675E-2],"split_indices":[57,58,57,24,25,62,55,0,0,0,0,0,0,0,0],"split_type":[0,0,0,0,0,0,0,0,0,0,0,0,0,0,0],"sum_hessian":[6.217916E1,1.1588563E1,5.05906E1,7.169522E0,4.4190407E0,2.4065586E1,2.6525013E1,5.8691797E0,1.3003421E0,1.9465969E0,2.4724436E0,8.616138E0,1.5449447E1,1.3760756E1,1.27642565E1],"tree_param":{"num_deleted":"0","num_feature":"72","num_nodes":"15","size_leaf_vector":"0"}},{"base_weights":[-0E0,5.641608E-2,-2.4097864E-1,-6.485151E-2,3.40101E-1,-4.6551943E-1,1.7378241E-1,1.2609455E-1,-2.6564154E-1,5.1561123E-1,-9.51537E-2,-0E0,-6.571446E-1,3.6282477E-1,-0E0],"categories":[],"categories_nodes":[],"categories_segments":[],"categories_sizes":[],"default_left":[1,1,1,1,1,1,1,0,0,0,0,0,0,1,1],"id":65,"left_children":[1,3,5,7,9,11,-1,-1,-1,-1,-1,-1,-1,-1,-1],"loss_changes":[9.141443E-1,2.0416439E0,1.5798767E0,1.4724324E0,1.8303394E0,1.4528594E0,2.4505168E-1,0E0,0E0,0E0,0E0,0E0,0E0,0E0,0E0],"parents":[2147483647,0,0,1,1,2,2,3,3,4,4,5,5,6,6],"right_children":[2,4,6,8,10,12,-1,-1,-1,-1,-1,-1,-1,-1,-1],"split_conditions":[1.575E2,1.415E2,1.8605E3,6.56E2,4.565E2,2.219E3,1.737824E-2,1.2609455E-2,-2.6564155E-2,5.1561125E-2,-9.51537E-3,-0E0,-6.571446E-2,3.6282476E-2,-0E0],"split_indices":[14,14,8,17,12,33,61,0,0,0,0,0,0,2147483647,2147483647],"split_type":[0,0,0,0,0,0,0,0,0,0,0,0,0,0,0],"sum_hessian":[6.1667732E1,4.970488E1,1.1962853E1,3.2891163E1,1.6813717E1,9.245973E0,2.7168808E0,1.4496783E1,1.839438E1,1.3487829E1,3.3258882E0,1.7399174E0,7.5060554E0,1.7142038E0,1.002677E0],"tree_param":{"num_deleted":"2","num_feature":"72","num_nodes":"15","size_leaf_vector":"0"}},{"base_weights":[-0E0,4.8064478E-2,-2.5896487E-1,-9.4634116E-2,2.9786277E-1,-4.5170078E-1,1.5097083E-1,1.3043183E-1,-3.34708E-1,4.7936058E-1,-0E0,-7.006253E-1,-0E0],"categories":[],"categories_nodes":[],"categories_segments":[],"categories_sizes":[],"default_left":[1,1,1,1,1,1,0,0,0,0,0,0,0],"id":66,"left_children":[1,3,5,7,9,11,-1,-1,-1,-1,-1,-1,-1],"loss_changes":[8.2329077E-1,2.1133754E0,1.1951785E0,1.9668273E0,1.5237627E0,9.3752885E-1,0E0,0E0,0E0,0E0,0E0,0E0,0E0],"parents":[2147483647,0,0,1,1,2,2,3,3,4,4,5,5],"right_children":[2,4,6,8,10,12,-1,-1,-1,-1,-1,-1,-1],"split_conditions":[1.4595E3,1.2205E3,1.9225E3,2.405E3,7.225E2,2.18E2,1.50970835E-2,1.3043183E-2,-3.3470802E-2,4.793606E-2,-0E0,-7.006253E-2,-0E0],"split_indices":[6,13,8,4,26,10,0,0,0,0,0,0,0],"split_type":[0,0,0,0,0,0,0,0,0,0,0,0,0],"sum_hessian":[6.1253685E1,5.1795998E1,9.457687E0,3.081226E1,2.0983738E1,8.023073E0,1.434614E0,1.3989043E1,1.6823215E1,1.4119286E1,6.864453E0,4.66037E0,3.3627033E0],"tree_param":{"num_deleted":"0","num_feature":"72","num_nodes":"13","size_leaf_vector":"0"}},{"base_weights":[-0E0,-4.916312E-1,2.5082985E-2,-8.051106E-1,-0E0,-1.340405E-2,5.9332055E-1,5.8304995E-2,-2.8206062E-1,-0E0,6.603355E-1],"categories":[],"categories_nodes":[],"categories_segments":[],"categories_sizes":[],"default_left":[1,1,1,1,1,1,1,0,0,1,1],"id":67,"left_children":[1,-1,5,-1,-1,7,-1,-1,-1,-1,-1],"loss_changes":[8.5019594E-1,6.1333805E-1,1.8883507E0,0E0,0E0,1.3002133E0,1.0453105E-2,0E0,0E0,0E0,0E0],"parents":[2147483647,0,0,1,1,2,2,5,5,6,6],"right_children":[2,-1,6,-1,-1,8,-1,-1,-1,-1,-1],"split_conditions":[1.009E3,-4.916312E-2,3.795E2,-8.0511056E-2,-0E0,2.445E2,5.9332054E-2,5.8305E-3,-2.8206063E-2,-0E0,6.603355E-2],"split_indices":[18,19,68,2147483647,2147483647,30,19,0,0,2147483647,2147483647],"split_type":[0,0,0,0,0,0,0,0,0,0,0],"sum_hessian":[6.082753E1,2.36276E0,5.846477E1,1.2001152E0,1.162645E0,5.402239E1,4.4423814E0,4.0320824E1,1.3701568E1,1.0246265E0,3.417755E0],"tree_param":{"num_deleted":"4","num_feature":"72","num_nodes":"11","size_leaf_vector":"0"}},{"base_weights":[-0E0,5.5530585E-2,-2.3521133E-1,-5.4094307E-2,3.2672355E-1,-5.2361274E-1,1.5662402E-1,-1.695313E-1,4.1527298E-1,5.0351465E-1,-2.5562977E-2,-6.3838273E-1,-0E0,4.3534702E-1,-0E0],"categories":[],"categories_nodes":[],"categories_segments":[],"categories_sizes":[],"default_left":[1,1,1,1,1,1,1,0,0,0,0,1,1,1,1],"id":68,"left_children":[1,3,5,7,9,-1,-1,-1,-1,-1,-1,-1,-1,-1,-1],"loss_changes":[8.458507E-1,1.7826648E0,1.8605577E0,1.665759E0,1.5631993E0,6.7928624E-1,5.137319E-1,0E0,0E0,0E0,0E0,0E0,0E0,0E0,0E0],"parents":[2147483647,0,0,1,1,2,2,3,3,4,4,5,5,6,6],"right_children":[2,4,6,8,10,-1,-1,-1,-1,-1,-1,-1,-1,-1,-1],"split_conditions":[1.432E3,4.265E2,1.48E3,2.552E3,4.605E2,-5.2361276E-2,1.5662402E-2,-1.6953131E-2,4.1527297E-2,5.0351467E-2,-2.5562977E-3,-6.383827E-2,-0E0,4.3534704E-2,-0E0],"split_indices":[61,12,61,42,12,32,59,0,0,0,0,2147483647,2147483647,2147483647,2147483647],"split_type":[0,0,0,0,0,0,0,0,0,0,0,0,0,0,0],"sum_hessian":[6.0689026E1,4.9198006E1,1.149102E1,3.2979683E1,1.6218325E1,7.895501E0,3.5955186E0,2.8692368E1,4.2873135E0,1.2403226E1,3.8150983E0,6.651337E0,1.244164E0,2.3054123E0,1.2901063E0],"tree_param":{"num_deleted":"4","num_feature":"72","num_nodes":"15","size_leaf_vector":"0"}},{"base_weights":[-0E0,-3.2987815E-1,3.7284974E-2,1.1990883E-2,-7.470667E-1,2.8144917E-1,-6.503958E-2,1.9521526E-1,-0E0,-9.1566634E-1,-0E0,-0E0,5.65775E-1,8.318771E-2,-4.379614E-1],"categories":[],"categories_nodes":[],"categories_segments":[],"categories_sizes":[],"default_left":[1,1,1,1,1,1,1,1,1,1,1,0,0,0,0],"id":69,"left_children":[1,3,5,-1,-1,11,13,-1,-1,-1,-1,-1,-1,-1,-1],"loss_changes":[7.9530126E-1,1.6846721E0,1.6295159E0,8.6156905E-2,3.5989118E-1,2.0997534E0,2.4512212E0,0E0,0E0,0E0,0E0,0E0,0E0,0E0,0E0],"parents":[2147483647,0,0,1,1,2,2,3,3,4,4,5,5,6,6],"right_children":[2,4,6,-1,-1,12,14,-1,-1,-1,-1,-1,-1,-1,-1],"split_conditions":[1.985E2,2.1885E3,9.535E2,1.1990884E-3,-7.4706666E-2,2.315E2,1.0445E3,1.9521525E-2,-0E0,-9.156664E-2,-0E0,-0E0,5.65775E-2,8.318771E-3,-4.379614E-2],"split_indices":[66,33,11,24,69,10,71,2147483647,2147483647,2147483647,2147483647,0,0,0,0],"split_type":[0,0,0,0,0,0,0,0,0,0,0,0,0,0,0],"sum_hessian":[6.042302E1,5.595239E0,5.482778E1,2.291614E0,3.3036249E0,1.8560787E1,3.6266994E1,1.2732214E0,1.0183928E0,2.293933E0,1.0096918E0,8.160541E0,1.0400247E1,2.4588907E1,1.1678086E1],"tree_param":{"num_deleted":"4","num_feature":"72","num_nodes":"15","size_leaf_vector":"0"}},{"base_weights":[-0E0,5.4382358E-2,-2.3568106E-1,-3.152634E-2,3.292725E-1,-3.967517E-1,1.5605487E-1,-1.471039E-1,4.679954E-1,-4.159459E-2,6.569018E-1,-0E0,-5.387229E-1],"categories":[],"categories_nodes":[],"categories_segments":[],"categories_sizes":[],"default_left":[1,1,1,1,1,1,0,0,0,0,0,0,0],"id":70,"left_children":[1,3,5,7,9,11,-1,-1,-1,-1,-1,-1,-1],"loss_changes":[8.1846327E-1,1.4904708E0,1.0641487E0,1.8428903E0,2.4385266E0,9.597149E-1,0E0,0E0,0E0,0E0,0E0,0E0,0E0],"parents":[2147483647,0,0,1,1,2,2,3,3,4,4,5,5],"right_children":[2,4,6,8,10,12,-1,-1,-1,-1,-1,-1,-1],"split_conditions":[9.365E2,3.7935E3,3.9775E3,2.5635E3,7.3E2,1.305E2,1.5605487E-2,-1.4710391E-2,4.679954E-2,-4.1594594E-3,6.569018E-2,-0E0,-5.3872287E-2],"split_indices":[41,50,50,42,65,14,0,0,0,0,0,0,0],"split_type":[0,0,0,0,0,0,0,0,0,0,0,0,0],"sum_hessian":[6.0135803E1,4.9066532E1,1.1069272E1,3.528634E1,1.3780193E1,9.643908E0,1.4253638E0,3.085471E1,4.431628E0,5.441445E0,8.338749E0,1.563997E0,8.079911E0],"tree_param":{"num_deleted":"0","num_feature":"72","num_nodes":"13","size_leaf_vector":"0"}},{"base_weights":[-0E0,6.8109564E-2,-1.8279265E-1,-1.369874E-1,2.0098323E-1,6.700462E-3,-6.9746447E-1,1.4955646E-1,-4.1581205E-1,3.947951E-1,-6.0196087E-2,-1.222941E-1,3.1370965E-1,-0E0,-8.691004E-1],"categories":[],"categories_nodes":[],"categories_segments":[],"categories_sizes":[],"default_left":[1,1,1,1,1,1,1,0,0,0,0,1,1,1,1],"id":71,"left_children":[1,3,5,7,9,-1,-1,-1,-1,-1,-1,-1,-1,-1,-1],"loss_changes":[7.665432E-1,1.320133E0,2.322403E0,1.555665E0,1.9135412E0,6.956391E-1,6.5930057E-1,0E0,0E0,0E0,0E0,0E0,0E0,0E0,0E0],"parents":[2147483647,0,0,1,1,2,2,3,3,4,4,5,5,6,6],"right_children":[2,4,6,8,10,-1,-1,-1,-1,-1,-1,-1,-1,-1,-1],"split_conditions":[5.975E2,1.3515E3,1.1405E3,2.1925E3,5.525E2,6.7004625E-4,-6.974645E-2,1.4955646E-2,-4.1581206E-2,3.947951E-2,-6.0196086E-3,-1.222941E-2,3.1370964E-2,-0E0,-8.691004E-2],"split_indices":[63,27,56,69,39,56,3,0,0,0,0,2147483647,2147483647,2147483647,2147483647],"split_type":[0,0,0,0,0,0,0,0,0,0,0,0,0,0,0],"sum_hessian":[5.9765385E1,4.4083138E1,1.5682249E1,1.4360342E1,2.9722794E1,1.0763364E1,4.9188857E0,5.542023E0,8.818318E0,1.8966002E1,1.0756793E1,5.7090483E0,5.054315E0,1.2341039E0,3.6847818E0],"tree_param":{"num_deleted":"4","num_feature":"72","num_nodes":"15","size_leaf_vector":"0"}},{"base_weights":[-0E0,8.399503E-2,-1.5521766E-1,3.5454407E-1,-4.9684156E-2,-5.459664E-1,-0E0,5.8103234E-1,-2.121969E-1,5.193435E-2,-5.432194E-1,-0E0,-7.638743E-1,3.299088E-1,-2.589647E-1],"categories":[],"categories_nodes":[],"categories_segments":[],"categories_sizes":[],"default_left":[1,1,1,1,1,1,1,0,0,0,0,0,0,0,0],"id":72,"left_children":[1,3,5,7,9,11,13,-1,-1,-1,-1,-1,-1,-1,-1],"loss_changes":[8.034179E-1,1.7577118E0,1.4452368E0,2.5099893E0,1.7714761E0,9.3370557E-1,1.4793636E0,0E0,0E0,0E0,0E0,0E0,0E0,0E0,0E0],"parents":[2147483647,0,0,1,1,2,2,3,3,4,4,5,5,6,6],"right_children":[2,4,6,8,10,12,14,-1,-1,-1,-1,-1,-1,-1,-1],"split_conditions":[1.1205E3,1.096E3,1.3735E3,2.168E3,5.895E2,6.32E2,5.505E2,5.8103234E-2,-2.1219691E-2,5.193435E-3,-5.432194E-2,-0E0,-7.638743E-2,3.299088E-2,-2.589647E-2],"split_indices":[3,28,6,7,63,44,39,0,0,0,0,0,0,0,0],"split_type":[0,0,0,0,0,0,0,0,0,0,0,0,0,0,0],"sum_hessian":[5.9410164E1,3.868384E1,2.0726324E1,1.4720297E1,2.3963543E1,5.6045465E0,1.5121777E1,1.1759909E1,2.9603877E0,1.8933685E1,5.029858E0,1.6304854E0,3.974061E0,6.926129E0,8.195648E0],"tree_param":{"num_deleted":"0","num_feature":"72","num_nodes":"15","size_leaf_vector":"0"}},{"base_weights":[-0E0,-1.585357E-1,7.666506E-2,1.3813218E-1,-3.6064568E-1,4.0187812E-1,-2.2756519E-2,-2.3055403E-2,4.5898312E-1,-5.5145913E-1,-0E0,-0E0,5.56364E-1,7.598858E-2,-4.7908816E-1],"categories":[],"categories_nodes":[],"categories_segments":[],"categories_sizes":[],"default_left":[1,1,1,1,1,1,1,0,0,0,0,0,0,0,0],"id":73,"left_children":[1,3,5,7,9,11,13,-1,-1,-1,-1,-1,-1,-1,-1],"loss_changes":[7.5531346E-1,1.510504E0,1.688197E0,8.129682E-1,9.974259E-1,1.1492844E0,1.7634933E0,0E0,0E0,0E0,0E0,0E0,0E0,0E0,0E0],"parents":[2147483647,0,0,1,1,2,2,3,3,4,4,5,5,6,6],"right_children":[2,4,6,8,10,12,14,-1,-1,-1,-1,-1,-1,-1,-1],"split_conditions":[5.91E2,5.54E2,1.1255E3,1.9665E3,4.425E2,2.885E2,9.845E2,-2.3055403E-3,4.5898315E-2,-5.5145916E-2,-0E0,-0E0,5.5636402E-2,7.5988583E-3,-4.7908816E-2],"split_indices":[51,51,56,40,12,24,11,0,0,0,0,0,0,0,0],"split_type":[0,0,0,0,0,0,0,0,0,0,0,0,0,0,0],"sum_hessian":[5.8854347E1,1.9650154E1,3.9204193E1,6.0858154E0,1.3564338E1,1.0821741E1,2.8382454E1,2.5940561E0,3.491759E0,8.508954E0,5.0553846E0,1.9407632E0,8.880978E0,2.2217026E1,6.165427E0],"tree_param":{"num_deleted":"0","num_feature":"72","num_nodes":"15","size_leaf_vector":"0"}},{"base_weights":[-0E0,-5.2466396E-2,2.4885906E-1,2.5274001E-2,-2.8302184E-1,-2.448192E-1,4.5746255E-1,-2.5501177E-1,1.7943932E-1,6.41839E-2,-6.682581E-1,7.0508856E-1,-0E0],"categories":[],"categories_nodes":[],"categories_segments":[],"categories_sizes":[],"default_left":[1,1,1,1,1,0,1,0,0,0,0,0,0],"id":74,"left_children":[1,3,5,7,9,-1,11,-1,-1,-1,-1,-1,-1],"loss_changes":[7.420765E-1,1.1739662E0,1.3264532E0,1.5086559E0,2.8024564E0,0E0,1.2283133E0,0E0,0E0,0E0,0E0,0E0,0E0],"parents":[2147483647,0,0,1,1,2,2,3,3,4,4,6,6],"right_children":[2,4,6,8,10,-1,12,-1,-1,-1,-1,-1,-1],"split_conditions":[6.945E2,7.315E2,5.435E2,1.745E2,1.29E3,-2.448192E-2,7.395E2,-2.5501177E-2,1.7943932E-2,6.4183897E-3,-6.682581E-2,7.050886E-2,-0E0],"split_indices":[44,26,38,43,37,0,1,0,0,0,0,0,0],"split_type":[0,0,0,0,0,0,0,0,0,0,0,0,0],"sum_hessian":[5.8447212E1,4.9719257E1,8.727957E0,3.4604187E1,1.511507E1,1.1170251E0,7.6109314E0,9.745445E0,2.4858742E1,7.02298E0,8.092091E0,5.095426E0,2.5155053E0],"tree_param":{"num_deleted":"0","num_feature":"72","num_nodes":"13","size_leaf_vector":"0"}},{"base_weights":[-0E0,-4.6155784E-1,2.2366099E-2,-7.2166836E-1,-0E0,2.7492025E-1,-6.774678E-2,7.5609344E-1,-0E0,3.9849117E-2,-4.0198323E-1],"categories":[],"categories_nodes":[],"categories_segments":[],"categories_sizes":[],"default_left":[1,1,1,1,1,1,1,0,0,0,0],"id":75,"left_children":[1,-1,5,-1,-1,7,9,-1,-1,-1,-1],"loss_changes":[7.367999E-1,4.561324E-1,1.5170395E0,0E0,0E0,3.1074162E0,1.8058829E0,0E0,0E0,0E0,0E0],"parents":[2147483647,0,0,1,1,2,2,5,5,6,6],"right_children":[2,-1,6,-1,-1,8,10,-1,-1,-1,-1],"split_conditions":[1.009E3,-4.6155784E-2,1.684E3,-7.216684E-2,-0E0,4.855E2,1.1065E3,7.560935E-2,-0E0,3.984912E-3,-4.0198322E-2],"split_indices":[18,19,55,2147483647,2147483647,46,28,0,0,0,0],"split_type":[0,0,0,0,0,0,0,0,0,0,0],"sum_hessian":[5.8062294E1,2.3253481E0,5.5736946E1,1.2360569E0,1.0892912E0,1.703639E1,3.8700554E1,6.8201933E0,1.0216197E1,2.7679102E1,1.1021452E1],"tree_param":{"num_deleted":"2","num_feature":"72","num_nodes":"11","size_leaf_vector":"0"}},{"base_weights":[-0E0,5.0377537E-2,-2.2745447E-1,-3.813596E-2,2.8441265E-1,-4.990583E-1,1.19872324E-1,6.485334E-2,-3.3733705E-1,-5.235886E-2,4.5605034E-1,-6.2950194E-1,-0E0,3.9378867E-1,-0E0],"categories":[],"categories_nodes":[],"categories_segments":[],"categories_sizes":[],"default_left":[1,1,1,1,1,1,1,0,0,0,0,1,1,1,1],"id":76,"left_children":[1,3,5,7,9,-1,-1,-1,-1,-1,-1,-1,-1,-1,-1],"loss_changes":[7.42355E-1,1.245327E0,1.5718722E0,1.2925872E0,1.3703007E0,6.5106606E-1,4.3467316E-1,0E0,0E0,0E0,0E0,0E0,0E0,0E0,0E0],"parents":[2147483647,0,0,1,1,2,2,3,3,4,4,5,5,6,6],"right_children":[2,4,6,8,10,-1,-1,-1,-1,-1,-1,-1,-1,-1,-1],"split_conditions":[1.432E3,4.265E2,1.48E3,1.7335E3,3.985E2,-4.9905833E-2,1.1987233E-2,6.485334E-3,-3.3733707E-2,-5.2358857E-3,4.5605034E-2,-6.2950194E-2,-0E0,3.9378867E-2,-0E0],"split_indices":[61,12,61,55,31,60,59,0,0,0,0,2147483647,2147483647,2147483647,2147483647],"split_type":[0,0,0,0,0,0,0,0,0,0,0,0,0,0,0],"sum_hessian":[5.7713036E1,4.6704136E1,1.10089E1,3.1394669E1,1.5309466E1,7.5484295E0,3.46047E0,2.1451698E1,9.94297E0,3.4361298E0,1.1873337E1,6.015702E0,1.5327276E0,2.216411E0,1.244059E0],"tree_param":{"num_deleted":"4","num_feature":"72","num_nodes":"15","size_leaf_vector":"0"}},{"base_weights":[-0E0,3.9636236E-2,-2.69885E-1,5.713689E-1,-0E0,-5.090736E-1,4.5271628E-2,1.2574798E-1,-2.2974706E-1,-6.070605E-1,-0E0],"categories":[],"categories_nodes":[],"categories_segments":[],"categories_sizes":[],"default_left":[1,1,1,0,1,1,0,0,0,1,1],"id":77,"left_children":[1,3,5,-1,7,-1,-1,-1,-1,-1,-1],"loss_changes":[7.088337E-1,1.1640701E0,1.137881E0,0E0,1.4317528E0,2.1760261E-1,0E0,0E0,0E0,0E0,0E0],"parents":[2147483647,0,0,1,1,2,2,4,4,5,5],"right_children":[2,4,6,-1,8,-1,-1,-1,-1,-1,-1],"split_conditions":[5.685E2,4.185E2,1.3265E3,5.713689E-2,7.945E2,-5.0907362E-2,4.5271628E-3,1.2574798E-2,-2.2974705E-2,-6.070605E-2,-0E0],"split_indices":[53,5,58,0,65,42,0,0,0,2147483647,2147483647],"split_type":[0,0,0,0,0,0,0,0,0,0,0],"sum_hessian":[5.7413277E1,4.9776817E1,7.63646E0,2.8100626E0,4.6966755E1,5.7956014E0,1.8408587E0,3.0183609E1,1.6783144E1,4.3693414E0,1.4262599E0],"tree_param":{"num_deleted":"2","num_feature":"72","num_nodes":"11","size_leaf_vector":"0"}},{"base_weights":[-0E0,-2.2273675E-1,5.0750926E-2,-4.7144994E-1,-0E0,2.340681E-1,-7.6162875E-2,-6.2726295E-1,-0E0,-6.751818E-2,3.3999196E-1,4.0443003E-1,-1.8524769E-1,4.6668608E-2,-3.68728E-1],"categories":[],"categories_nodes":[],"categories_segments":[],"categories_sizes":[],"default_left":[1,1,1,1,1,1,1,0,0,1,1,0,0,0,0],"id":78,"left_children":[1,3,5,7,-1,11,13,-1,-1,-1,-1,-1,-1,-1,-1],"loss_changes":[7.009122E-1,1.0916104E0,1.2821372E0,8.243153E-1,3.9867753E-1,1.9316638E0,1.2603834E0,0E0,0E0,0E0,0E0,0E0,0E0,0E0,0E0],"parents":[2147483647,0,0,1,1,2,2,3,3,4,4,5,5,6,6],"right_children":[2,4,6,8,-1,12,14,-1,-1,-1,-1,-1,-1,-1,-1],"split_conditions":[4.735E2,1.3045E3,5.255E2,3.31E2,-0E0,1.068E3,2.4405E3,-6.27263E-2,-0E0,-6.751818E-3,3.3999197E-2,4.0443003E-2,-1.852477E-2,4.6668607E-3,-3.68728E-2],"split_indices":[57,58,57,24,25,71,4,0,0,2147483647,2147483647,0,0,0,0],"split_type":[0,0,0,0,0,0,0,0,0,0,0,0,0,0,0],"sum_hessian":[5.721469E1,1.0659059E1,4.6555634E1,6.513712E0,4.1453466E0,2.1923658E1,2.4631973E1,5.339548E0,1.1741638E0,1.8071206E0,2.3382258E0,1.7310848E1,4.61281E0,1.5532993E1,9.098979E0],"tree_param":{"num_deleted":"2","num_feature":"72","num_nodes":"15","size_leaf_vector":"0"}},{"base_weights":[-0E0,-4.563401E-1,2.1735473E-2,1.3849503E-1,-1.3397257E-1,3.3546686E-1,-7.1930446E-2,-3.4252894E-1,8.589876E-2],"categories":[],"categories_nodes":[],"categories_segments":[],"categories_sizes":[],"default_left":[1,0,1,1,1,0,0,0,0],"id":79,"left_children":[1,-1,3,5,7,-1,-1,-1,-1],"loss_changes":[6.703828E-1,0E0,1.0367818E0,1.7808746E0,1.2367287E0,0E0,0E0,0E0,0E0],"parents":[2147483647,0,0,2,2,3,3,4,4],"right_children":[2,-1,4,6,8,-1,-1,-1,-1],"split_conditions":[3.275E2,-4.5634013E-2,1.1205E3,2.375E2,1.1555E3,3.3546686E-2,-7.1930448E-3,-3.4252893E-2,8.589876E-3],"split_indices":[9,0,3,30,3,0,0,0,0],"split_type":[0,0,0,0,0,0,0,0,0],"sum_hessian":[5.6850792E1,2.0926886E0,5.4758102E1,3.5026146E1,1.9731956E1,2.0239094E1,1.4787054E1,1.2174362E1,7.557595E0],"tree_param":{"num_deleted":"0","num_feature":"72","num_nodes":"9","size_leaf_vector":"0"}},{"base_weights":[-0E0,3.4623783E-2,-2.8990027E-1,-3.5230156E-2,3.006443E-1,-5.7636446E-1,-0E0,1.00645915E-1,-3.720334E-1,-1.059828E-2,4.894835E-1,-7.1007603E-1,-0E0,9.9209696E-2,-0E0],"categories":[],"categories_nodes":[],"categories_segments":[],"categories_sizes":[],"default_left":[1,1,1,1,1,1,1,0,0,0,0,1,1,1,1],"id":80,"left_children":[1,3,5,7,9,-1,-1,-1,-1,-1,-1,-1,-1,-1,-1],"loss_changes":[6.706856E-1,1.2312236E0,1.0639994E0,2.0767179E0,1.2935778E0,2.5900924E-1,2.05837E-2,0E0,0E0,0E0,0E0,0E0,0E0,0E0,0E0],"parents":[2147483647,0,0,1,1,2,2,3,3,4,4,5,5,6,6],"right_children":[2,4,6,8,10,-1,-1,-1,-1,-1,-1,-1,-1,-1,-1],"split_conditions":[7.645E2,4.385E2,7.935E2,1.7335E3,5.97E2,-5.7636447E-2,-0E0,1.0064592E-2,-3.7203338E-2,-1.059828E-3,4.894835E-2,-7.10076E-2,-0E0,9.92097E-3,-0E0],"split_indices":[67,12,67,55,38,15,0,0,0,0,0,2147483647,2147483647,2147483647,2147483647],"split_type":[0,0,0,0,0,0,0,0,0,0,0,0,0,0,0],"sum_hessian":[5.6651028E1,5.0403927E1,6.2471023E0,3.7630936E1,1.2772993E1,4.0363693E0,2.2107332E0,2.5197586E1,1.2433348E1,3.1800451E0,9.592948E0,2.831893E0,1.2044761E0,1.0912946E0,1.1194384E0],"tree_param":{"num_deleted":"4","num_feature":"72","num_nodes":"15","size_leaf_vector":"0"}},{"base_weights":[-0E0,4.6914335E-2,-2.118476E-1,-6.312218E-2,2.757278E-1,-4.1375527E-1,1.0555761E-1,3.8253072E-1,-1.6711026E-1,-8.9859515E-2,4.441241E-1,-0E0,-6.8170196E-1,2.744676E-1,-0E0],"categories":[],"categories_nodes":[],"categories_segments":[],"categories_sizes":[],"default_left":[1,1,1,1,1,1,1,0,0,0,0,0,0,1,1],"id":81,"left_children":[1,3,5,7,9,11,-1,-1,-1,-1,-1,-1,-1,-1,-1],"loss_changes":[6.366471E-1,1.3989913E0,1.1150656E0,1.2023759E0,1.5155268E0,1.2919881E0,1.279902E-1,0E0,0E0,0E0,0E0,0E0,0E0,0E0,0E0],"parents":[2147483647,0,0,1,1,2,2,3,3,4,4,5,5,6,6],"right_children":[2,4,6,8,10,12,-1,-1,-1,-1,-1,-1,-1,-1,-1],"split_conditions":[1.575E2,6.215E2,1.8605E3,6.055E2,1.6135E3,2.2975E3,1.0555762E-2,3.8253073E-2,-1.6711026E-2,-8.985952E-3,4.441241E-2,-0E0,-6.81702E-2,2.744676E-2,-0E0],"split_indices":[14,38,8,20,35,69,0,0,0,0,0,0,0,2147483647,2147483647],"split_type":[0,0,0,0,0,0,0,0,0,0,0,0,0,0,0],"sum_hessian":[5.6337757E1,4.5428974E1,1.0908782E1,2.821441E1,1.7214563E1,8.40756E0,2.5012221E0,3.0118203E0,2.520259E1,3.7031205E0,1.3511444E1,3.1618297E0,5.2457304E0,1.21687E0,1.2843523E0],"tree_param":{"num_deleted":"2","num_feature":"72","num_nodes":"15","size_leaf_vector":"0"}},{"base_weights":[-0E0,4.3288987E-2,-2.4541688E-1,-6.433237E-2,2.4914736E-1,-4.2575136E-1,6.862276E-2,6.760528E-2,-3.350673E-1,4.0304485E-1,-5.8918665E-3,-6.911183E-1,-0E0],"categories":[],"categories_nodes":[],"categories_segments":[],"categories_sizes":[],"default_left":[1,1,1,1,1,1,0,0,0,0,0,0,0],"id":82,"left_children":[1,3,5,7,9,11,-1,-1,-1,-1,-1,-1,-1],"loss_changes":[6.716788E-1,1.2728493E0,9.32648E-1,1.3395737E0,1.184805E0,8.1451786E-1,0E0,0E0,0E0,0E0,0E0,0E0,0E0],"parents":[2147483647,0,0,1,1,2,2,3,3,4,4,5,5],"right_children":[2,4,6,8,10,12,-1,-1,-1,-1,-1,-1,-1],"split_conditions":[1.4595E3,1.2205E3,1.9225E3,1.3185E3,1.575E2,9.88E2,6.8622762E-3,6.760528E-3,-3.3506732E-2,4.0304486E-2,-5.891867E-4,-6.911183E-2,-0E0],"split_indices":[6,13,8,37,14,71,0,0,0,0,0,0,0],"split_type":[0,0,0,0,0,0,0,0,0,0,0,0,0],"sum_hessian":[5.6033688E1,4.7387173E1,8.646516E0,2.8380054E1,1.9007118E1,7.289292E0,1.3572245E0,1.7102238E1,1.1277819E1,1.3937498E1,5.069619E0,3.8510337E0,3.4382582E0],"tree_param":{"num_deleted":"0","num_feature":"72","num_nodes":"13","size_leaf_vector":"0"}},{"base_weights":[-0E0,-4.2484483E-1,1.9957595E-2,-6.7312074E-1,-0E0,-9.480757E-3,5.2520907E-1,-7.622579E-2,4.1237205E-1],"categories":[],"categories_nodes":[],"categories_segments":[],"categories_sizes":[],"default_left":[1,1,1,1,1,1,0,0,0],"id":83,"left_children":[1,-1,5,-1,-1,7,-1,-1,-1],"loss_changes":[6.156054E-1,4.1558844E-1,1.3291738E0,0E0,0E0,1.1164782E0,0E0,0E0,0E0],"parents":[2147483647,0,0,1,1,2,2,5,5],"right_children":[2,-1,6,-1,-1,8,-1,-1,-1],"split_conditions":[1.009E3,-4.2484485E-2,3.795E2,-6.731208E-2,-0E0,7.045E2,5.252091E-2,-7.6225786E-3,4.1237205E-2],"split_indices":[18,19,68,2147483647,2147483647,25,0,0,0],"split_type":[0,0,0,0,0,0,0,0,0],"sum_hessian":[5.56459E1,2.2907372E0,5.3355164E1,1.2281234E0,1.0626136E0,4.9474564E1,3.8806E0,4.5470135E1,4.0044265E0],"tree_param":{"num_deleted":"2","num_feature":"72","num_nodes":"9","size_leaf_vector":"0"}},{"base_weights":[-0E0,-1.930118E-1,5.0667696E-2,6.374637E-2,-4.8189437E-1,1.8257727E-1,-1.7806268E-1,-2.8629992E-3,3.8004732E-1,-6.440949E-1,-0E0,-0E0,3.6296606E-1,1.978003E-1,-4.4364086E-1],"categories":[],"categories_nodes":[],"categories_segments":[],"categories_sizes":[],"default_left":[1,1,1,1,1,1,1,1,1,0,0,0,0,0,0],"id":84,"left_children":[1,3,5,-1,9,11,13,-1,-1,-1,-1,-1,-1,-1,-1],"loss_changes":[5.950644E-1,1.4058547E0,1.3817091E0,5.021836E-1,1.0495899E0,1.3176574E0,1.7345533E0,0E0,0E0,0E0,0E0,0E0,0E0,0E0,0E0],"parents":[2147483647,0,0,1,1,2,2,3,3,4,4,5,5,6,6],"right_children":[2,4,6,-1,10,12,14,-1,-1,-1,-1,-1,-1,-1,-1],"split_conditions":[3.525E2,9.335E2,2.614E3,6.374637E-3,1.1805E3,1.2235E3,2.5415E3,-2.8629994E-4,3.8004734E-2,-6.440949E-2,-0E0,-0E0,3.6296606E-2,1.978003E-2,-4.4364087E-2],"split_indices":[9,11,49,12,64,58,23,2147483647,2147483647,0,0,0,0,0,0],"split_type":[0,0,0,0,0,0,0,0,0,0,0,0,0,0,0],"sum_hessian":[5.546981E1,1.190211E1,4.35677E1,4.8813224E0,7.0207877E0,3.0532972E1,1.3034728E1,2.2391791E0,2.6421432E0,6.019735E0,1.0010529E0,1.3552759E1,1.6980213E1,3.9434905E0,9.091237E0],"tree_param":{"num_deleted":"2","num_feature":"72","num_nodes":"15","size_leaf_vector":"0"}},{"base_weights":[-0E0,4.6881966E-2,-2.1348819E-1,1.4515136E-1,-2.0205641E-1,-3.6146438E-1,6.946168E-2,2.52028E-1,-1.5592927E-1,-4.0542424E-1,1.3153557E-1,-0E0,-4.9305838E-1],"categories":[],"categories_nodes":[],"categories_segments":[],"categories_sizes":[],"default_left":[1,1,1,1,1,1,0,0,0,0,0,0,0],"id":85,"left_children":[1,3,5,7,9,11,-1,-1,-1,-1,-1,-1,-1],"loss_changes":[5.993227E-1,1.1021712E0,7.744355E-1,1.3122663E0,1.0469286E0,7.5872934E-1,0E0,0E0,0E0,0E0,0E0,0E0,0E0],"parents":[2147483647,0,0,1,1,2,2,3,3,4,4,5,5],"right_children":[2,4,6,8,10,12,-1,-1,-1,-1,-1,-1,-1],"split_conditions":[9.365E2,7.61E2,3.9775E3,1.4625E3,2.552E3,1.305E2,6.9461684E-3,2.52028E-2,-1.5592927E-2,-4.0542424E-2,1.3153558E-2,-0E0,-4.9305838E-2],"split_indices":[41,26,50,27,42,14,0,0,0,0,0,0,0],"split_type":[0,0,0,0,0,0,0,0,0,0,0,0,0],"sum_hessian":[5.510438E1,4.5181843E1,9.922537E0,3.557317E1,9.608672E0,8.653609E0,1.268927E0,2.882519E1,6.7479815E0,7.69805E0,1.9106218E0,1.3443469E0,7.3092628E0],"tree_param":{"num_deleted":"0","num_feature":"72","num_nodes":"13","size_leaf_vector":"0"}},{"base_weights":[-0E0,5.927426E-2,-1.7007375E-1,-2.7968264E-1,1.4259598E-1,2.913903E-2,-5.3381956E-1,-5.125338E-1,-0E0,2.936463E-1,-1.1073727E-1,-1.0762227E-1,5.039754E-1,-6.97319E-1,-0E0],"categories":[],"categories_nodes":[],"categories_segments":[],"categories_sizes":[],"default_left":[1,1,1,1,1,1,1,0,0,0,0,0,0,0,0],"id":86,"left_children":[1,3,5,7,9,11,13,-1,-1,-1,-1,-1,-1,-1,-1],"loss_changes":[5.894061E-1,1.075023E0,1.6314819E0,8.044447E-1,1.6062672E0,1.0402801E0,7.2186804E-1,0E0,0E0,0E0,0E0,0E0,0E0,0E0,0E0],"parents":[2147483647,0,0,1,1,2,2,3,3,4,4,5,5,6,6],"right_children":[2,4,6,8,10,12,14,-1,-1,-1,-1,-1,-1,-1,-1],"split_conditions":[5.975E2,9.2E2,1.117E3,1.365E2,3.235E2,1.0795E3,1.1425E3,-5.125338E-2,-0E0,2.936463E-2,-1.1073727E-2,-1.0762228E-2,5.039754E-2,-6.97319E-2,-0E0],"split_indices":[63,36,56,14,2,56,64,0,0,0,0,0,0,0,0],"split_type":[0,0,0,0,0,0,0,0,0,0,0,0,0,0,0],"sum_hessian":[5.4841267E1,4.0505863E1,1.4335403E1,5.159288E0,3.5346577E1,8.080611E0,6.254792E0,3.896397E0,1.2628906E0,2.4516697E1,1.0829879E1,5.2390356E0,2.8415754E0,4.736136E0,1.5186565E0],"tree_param":{"num_deleted":"0","num_feature":"72","num_nodes":"15","size_leaf_vector":"0"}},{"base_weights":[-0E0,-2.2028835E-1,4.049417E-2,1.3544929E-1,-5.344322E-1,2.2299446E-1,-8.950604E-2,3.816507E-1,-0E0,-0E0,-7.0312923E-1,4.0974677E-1,-5.8150124E-2,1.0416663E-1,-4.0541014E-1],"categories":[],"categories_nodes":[],"categories_segments":[],"categories_sizes":[],"default_left":[1,1,1,1,1,1,1,1,1,0,0,0,0,0,