{"learner":{"attributes":{"best_iteration":"349","best_ntree_limit":"350","scikit_learn":"{\"use_label_encoder\": false, \"n_estimators\": 350, \"objective\": \"multi:softprob\", \"max_depth\": 3, \"max_leaves\": null, \"max_bin\": null, \"grow_policy\": null, \"learning_rate\": 0.1, \"verbosity\": null, \"booster\": null, \"tree_method\": null, \"gamma\": 0.7, \"min_child_weight\": 1, \"max_delta_step\": null, \"subsample\": 0.8, \"sampling_method\": null, \"colsample_bytree\": 1, \"colsample_bylevel\": null, \"colsample_bynode\": null, \"reg_alpha\": 1, \"reg_lambda\": 1, \"scale_pos_weight\": null, \"base_score\": null, \"missing\": NaN, \"num_parallel_tree\": null, \"random_state\": null, \"n_jobs\": 12, \"monotone_constraints\": null, \"interaction_constraints\": null, \"importance_type\": null, \"gpu_id\": null, \"validate_parameters\": null, \"predictor\": null, \"enable_categorical\": false, \"max_cat_to_onehot\": null, \"eval_metric\": null, \"early_stopping_rounds\": null, \"callbacks\": null, \"kwargs\": {\"num_class\": 5, \"seed\": 1234}, \"classes_\": [0, 1, 2, 3, 4], \"n_classes_\": 5, \"_estimator_type\": \"classifier\"}"},"feature_names":[],"feature_types":[],"gradient_booster":{"model":{"gbtree_model_param":{"num_parallel_tree":"1","num_trees":"1750","size_leaf_vector":"0"},"tree_info":[0,1,2,3,4,0,1,2,3,4,0,1,2,3,4,0,1,2,3,4,0,1,2,3,4,0,1,2,3,4,0,1,2,3,4,0,1,2,3,4,0,1,2,3,4,0,1,2,3,4,0,1,2,3,4,0,1,2,3,4,0,1,2,3,4,0,1,2,3,4,0,1,2,3,4,0,1,2,3,4,0,1,2,3,4,0,1,2,3,4,0,1,2,3,4,0,1,2,3,4,0,1,2,3,4,0,1,2,3,4,0,1,2,3,4,0,1,2,3,4,0,1,2,3,4,0,1,2,3,4,0,1,2,3,4,0,1,2,3,4,0,1,2,3,4,0,1,2,3,4,0,1,2,3,4,0,1,2,3,4,0,1,2,3,4,0,1,2,3,4,0,1,2,3,4,0,1,2,3,4,0,1,2,3,4,0,1,2,3,4,0,1,2,3,4,0,1,2,3,4,0,1,2,3,4,0,1,2,3,4,0,1,2,3,4,0,1,2,3,4,0,1,2,3,4,0,1,2,3,4,0,1,2,3,4,0,1,2,3,4,0,1,2,3,4,0,1,2,3,4,0,1,2,3,4,0,1,2,3,4,0,1,2,3,4,0,1,2,3,4,0,1,2,3,4,0,1,2,3,4,0,1,2,3,4,0,1,2,3,4,0,1,2,3,4,0,1,2,3,4,0,1,2,3,4,0,1,2,3,4,0,1,2,3,4,0,1,2,3,4,0,1,2,3,4,0,1,2,3,4,0,1,2,3,4,0,1,2,3,4,0,1,2,3,4,0,1,2,3,4,0,1,2,3,4,0,1,2,3,4,0,1,2,3,4,0,1,2,3,4,0,1,2,3,4,0,1,2,3,4,0,1,2,3,4,0,1,2,3,4,0,1,2,3,4,0,1,2,3,4,0,1,2,3,4,0,1,2,3,4,0,1,2,3,4,0,1,2,3,4,0,1,2,3,4,0,1,2,3,4,0,1,2,3,4,0,1,2,3,4,0,1,2,3,4,0,1,2,3,4,0,1,2,3,4,0,1,2,3,4,0,1,2,3,4,0,1,2,3,4,0,1,2,3,4,0,1,2,3,4,0,1,2,3,4,0,1,2,3,4,0,1,2,3,4,0,1,2,3,4,0,1,2,3,4,0,1,2,3,4,0,1,2,3,4,0,1,2,3,4,0,1,2,3,4,0,1,2,3,4,0,1,2,3,4,0,1,2,3,4,0,1,2,3,4,0,1,2,3,4,0,1,2,3,4,0,1,2,3,4,0,1,2,3,4,0,1,2,3,4,0,1,2,3,4,0,1,2,3,4,0,1,2,3,4,0,1,2,3,4,0,1,2,3,4,0,1,2,3,4,0,1,2,3,4,0,1,2,3,4,0,1,2,3,4,0,1,2,3,4,0,1,2,3,4,0,1,2,3,4,0,1,2,3,4,0,1,2,3,4,0,1,2,3,4,0,1,2,3,4,0,1,2,3,4,0,1,2,3,4,0,1,2,3,4,0,1,2,3,4,0,1,2,3,4,0,1,2,3,4,0,1,2,3,4,0,1,2,3,4,0,1,2,3,4,0,1,2,3,4,0,1,2,3,4,0,1,2,3,4,0,1,2,3,4,0,1,2,3,4,0,1,2,3,4,0,1,2,3,4,0,1,2,3,4,0,1,2,3,4,0,1,2,3,4,0,1,2,3,4,0,1,2,3,4,0,1,2,3,4,0,1,2,3,4,0,1,2,3,4,0,1,2,3,4,0,1,2,3,4,0,1,2,3,4,0,1,2,3,4,0,1,2,3,4,0,1,2,3,4,0,1,2,3,4,0,1,2,3,4,0,1,2,3,4,0,1,2,3,4,0,1,2,3,4,0,1,2,3,4,0,1,2,3,4,0,1,2,3,4,0,1,2,3,4,0,1,2,3,4,0,1,2,3,4,0,1,2,3,4,0,1,2,3,4,0,1,2,3,4,0,1,2,3,4,0,1,2,3,4,0,1,2,3,4,0,1,2,3,4,0,1,2,3,4,0,1,2,3,4,0,1,2,3,4,0,1,2,3,4,0,1,2,3,4,0,1,2,3,4,0,1,2,3,4,0,1,2,3,4,0,1,2,3,4,0,1,2,3,4,0,1,2,3,4,0,1,2,3,4,0,1,2,3,4,0,1,2,3,4,0,1,2,3,4,0,1,2,3,4,0,1,2,3,4,0,1,2,3,4,0,1,2,3,4,0,1,2,3,4,0,1,2,3,4,0,1,2,3,4,0,1,2,3,4,0,1,2,3,4,0,1,2,3,4,0,1,2,3,4,0,1,2,3,4,0,1,2,3,4,0,1,2,3,4,0,1,2,3,4,0,1,2,3,4,0,1,2,3,4,0,1,2,3,4,0,1,2,3,4,0,1,2,3,4,0,1,2,3,4,0,1,2,3,4,0,1,2,3,4,0,1,2,3,4,0,1,2,3,4,0,1,2,3,4,0,1,2,3,4,0,1,2,3,4,0,1,2,3,4,0,1,2,3,4,0,1,2,3,4,0,1,2,3,4,0,1,2,3,4,0,1,2,3,4,0,1,2,3,4,0,1,2,3,4,0,1,2,3,4,0,1,2,3,4,0,1,2,3,4,0,1,2,3,4,0,1,2,3,4,0,1,2,3,4,0,1,2,3,4,0,1,2,3,4,0,1,2,3,4,0,1,2,3,4,0,1,2,3,4,0,1,2,3,4,0,1,2,3,4,0,1,2,3,4,0,1,2,3,4,0,1,2,3,4,0,1,2,3,4,0,1,2,3,4,0,1,2,3,4,0,1,2,3,4,0,1,2,3,4,0,1,2,3,4,0,1,2,3,4,0,1,2,3,4,0,1,2,3,4,0,1,2,3,4,0,1,2,3,4,0,1,2,3,4,0,1,2,3,4,0,1,2,3,4,0,1,2,3,4,0,1,2,3,4,0,1,2,3,4,0,1,2,3,4,0,1,2,3,4,0,1,2,3,4,0,1,2,3,4,0,1,2,3,4,0,1,2,3,4,0,1,2,3,4,0,1,2,3,4,0,1,2,3,4,0,1,2,3,4,0,1,2,3,4,0,1,2,3,4,0,1,2,3,4,0,1,2,3,4,0,1,2,3,4,0,1,2,3,4,0,1,2,3,4,0,1,2,3,4,0,1,2,3,4,0,1,2,3,4,0,1,2,3,4,0,1,2,3,4,0,1,2,3,4,0,1,2,3,4,0,1,2,3,4,0,1,2,3,4,0,1,2,3,4,0,1,2,3,4,0,1,2,3,4,0,1,2,3,4,0,1,2,3,4,0,1,2,3,4,0,1,2,3,4,0,1,2,3,4,0,1,2,3,4,0,1,2,3,4,0,1,2,3,4,0,1,2,3,4,0,1,2,3,4,0,1,2,3,4,0,1,2,3,4,0,1,2,3,4,0,1,2,3,4,0,1,2,3,4,0,1,2,3,4,0,1,2,3,4,0,1,2,3,4,0,1,2,3,4,0,1,2,3,4,0,1,2,3,4,0,1,2,3,4,0,1,2,3,4,0,1,2,3,4,0,1,2,3,4,0,1,2,3,4,0,1,2,3,4,0,1,2,3,4,0,1,2,3,4,0,1,2,3,4,0,1,2,3,4,0,1,2,3,4,0,1,2,3,4,0,1,2,3,4,0,1,2,3,4,0,1,2,3,4,0,1,2,3,4,0,1,2,3,4,0,1,2,3,4,0,1,2,3,4,0,1,2,3,4,0,1,2,3,4,0,1,2,3,4,0,1,2,3,4,0,1,2,3,4,0,1,2,3,4,0,1,2,3,4,0,1,2,3,4,0,1,2,3,4,0,1,2,3,4,0,1,2,3,4,0,1,2,3,4,0,1,2,3,4,0,1,2,3,4,0,1,2,3,4,0,1,2,3,4,0,1,2,3,4,0,1,2,3,4,0,1,2,3,4],"trees":[{"base_weights":[6.0477E-1,3.937008E-2,1.1204013E0,-4.0342295E-1,4.4554454E-1,1.5224625E0,2.024922E-1,-5.1724136E-1,8.77193E-2,9.4249195E-1,-2.0737326E-1,-0E0,1.7821782E0,-2.3668638E-1,7.344633E-1],"categories":[],"categories_nodes":[],"categories_segments":[],"categories_sizes":[],"default_left":[1,1,1,1,1,1,1,0,0,0,0,0,0,0,0],"id":0,"left_children":[1,3,5,7,9,11,13,-1,-1,-1,-1,-1,-1,-1,-1],"loss_changes":[1.9332047E1,6.617375E0,1.1208473E1,1.3894346E0,7.4847765E0,8.436291E0,3.6714272E0,0E0,0E0,0E0,0E0,0E0,0E0,0E0,0E0],"parents":[2147483647,0,0,1,1,2,2,3,3,4,4,5,5,6,6],"right_children":[2,4,6,8,10,12,14,-1,-1,-1,-1,-1,-1,-1,-1],"split_conditions":[1.7855E3,2.785E2,1.88E2,4.45E1,3.905E2,8.82E2,1.915E2,-5.1724136E-2,8.77193E-3,9.42492E-2,-2.0737326E-2,-0E0,1.7821781E-1,-2.3668637E-2,7.3446326E-2],"split_indices":[70,2,22,42,83,21,68,0,0,0,0,0,0,0,0],"split_type":[0,0,0,0,0,0,0,0,0,0,0,0,0,0,0],"sum_hessian":[6.944E1,3.456E1,3.488E1,1.5360001E1,1.92E1,2.304E1,1.1840001E1,1.4080001E1,1.2800001E0,1.152E1,7.6800003E0,3.8400002E0,1.92E1,5.76E0,6.0800004E0],"tree_param":{"num_deleted":"0","num_feature":"107","num_nodes":"15","size_leaf_vector":"0"}},{"base_weights":[-1.7398743E-1,-3.4458002E-1,3.8961038E-1,-4.6080962E-1,1.1673151E-1,9.447004E-1,-1.554404E-1,-5.0044286E-1,8.77193E-2,-3.8461536E-1,1.0619469E0,-0E0,1.7256637E0,-3.726708E-1,8.77193E-2],"categories":[],"categories_nodes":[],"categories_segments":[],"categories_sizes":[],"default_left":[1,1,1,1,1,1,1,0,0,0,0,0,0,0,0],"id":1,"left_children":[1,3,5,7,9,11,13,-1,-1,-1,-1,-1,-1,-1,-1],"loss_changes":[6.830952E0,3.385467E0,5.59541E0,1.4662256E0,5.9572673E0,5.713633E0,7.2542524E-1,0E0,0E0,0E0,0E0,0E0,0E0,0E0,0E0],"parents":[2147483647,0,0,1,1,2,2,3,3,4,4,5,5,6,6],"right_children":[2,4,6,8,10,12,14,-1,-1,-1,-1,-1,-1,-1,-1],"split_conditions":[1.815E2,6.495E2,1.76E2,5.965E2,1.63E2,2.1345E3,3.24E2,-5.0044287E-2,8.77193E-3,-3.8461536E-2,1.0619469E-1,-0E0,1.7256637E-1,-3.726708E-2,8.77193E-3],"split_indices":[86,75,7,20,4,64,18,0,0,0,0,0,0,0,0],"split_type":[0,0,0,0,0,0,0,0,0,0,0,0,0,0,0],"sum_hessian":[6.912E1,5.4720005E1,1.4400001E1,4.5440002E1,9.280001E0,7.6800003E0,6.7200003E0,4.4160004E1,1.2800001E0,5.76E0,3.5200002E0,4.1600003E0,3.5200002E0,5.4400005E0,1.2800001E0],"tree_param":{"num_deleted":"0","num_feature":"107","num_nodes":"15","size_leaf_vector":"0"}},{"base_weights":[-3.486345E-2,1.1570247E0,-1.3846153E-1,1.5168539E0,-0E0,-4.1248605E-1,1.5936254E-1,1.6556845E-9,-5.6671447E-1,5.2941173E-1,-2.2662888E-1],"categories":[],"categories_nodes":[],"categories_segments":[],"categories_sizes":[],"default_left":[1,1,1,0,0,1,1,0,0,0,0],"id":2,"left_children":[1,3,5,-1,-1,7,9,-1,-1,-1,-1],"loss_changes":[7.6418204E0,1.7116728E0,5.62358E0,0E0,0E0,2.8492947E0,4.724978E0,0E0,0E0,0E0,0E0],"parents":[2147483647,0,0,1,1,2,2,5,5,6,6],"right_children":[2,4,6,-1,-1,8,10,-1,-1,-1,-1],"split_conditions":[2.55E1,2.102E3,3.9225E3,1.516854E-1,-0E0,9.535E2,3.025E2,1.6556845E-10,-5.6671448E-2,5.2941173E-2,-2.266289E-2],"split_indices":[67,11,9,0,0,94,77,0,0,0,0],"split_type":[0,0,0,0,0,0,0,0,0,0,0],"sum_hessian":[6.7840004E1,3.8400002E0,6.400001E1,2.5600002E0,1.2800001E0,3.488E1,2.9120003E1,8.000001E0,2.6880001E1,1.6000002E1,1.3120001E1],"tree_param":{"num_deleted":"0","num_feature":"107","num_nodes":"11","size_leaf_vector":"0"}},{"base_weights":[-2.6286036E-1,3.118712E-1,-4.9730143E-1,1.2660943E0,-3.9792386E-1,-5.515004E-1,1.1235955E-1,1.7231637E0,-0E0,-4.6692604E-1,-0E0,-0E0,-5.70358E-1,5.263158E-1,-0E0],"categories":[],"categories_nodes":[],"categories_segments":[],"categories_sizes":[],"default_left":[1,1,1,1,1,1,1,0,0,1,1,1,1,1,1],"id":3,"left_children":[1,3,5,7,-1,-1,-1,-1,-1,-1,-1,-1,-1,-1,-1],"loss_changes":[9.874777E0,1.4836761E1,2.2153769E0,6.0826845E0,4.107952E-1,6.269989E-1,5.866352E-1,0E0,0E0,0E0,0E0,0E0,0E0,0E0,0E0],"parents":[2147483647,0,0,1,1,2,2,3,3,4,4,5,5,6,6],"right_children":[2,4,6,8,-1,-1,-1,-1,-1,-1,-1,-1,-1,-1,-1],"split_conditions":[1.7165E3,3.23E2,1.539E3,2.2015E3,-3.9792385E-2,-5.515004E-2,1.1235955E-2,1.7231637E-1,-0E0,-4.6692606E-2,-0E0,-0E0,-5.70358E-2,5.2631583E-2,-0E0],"split_indices":[44,80,3,102,8,6,11,0,0,2147483647,2147483647,2147483647,2147483647,2147483647,2147483647],"split_type":[0,0,0,0,0,0,0,0,0,0,0,0,0,0,0],"sum_hessian":[6.976E1,1.8880001E1,5.0880005E1,8.320001E0,1.056E1,4.8320004E1,2.5600002E0,6.0800004E0,2.2400002E0,9.280001E0,1.2800001E0,1.2800001E0,4.7040005E1,1.2800001E0,1.2800001E0],"tree_param":{"num_deleted":"6","num_feature":"107","num_nodes":"15","size_leaf_vector":"0"}},{"base_weights":[-1.8003273E-1,3.9501038E-1,-3.9578792E-1,9.9221784E-1,-1.6064256E-1,-4.5561662E-1,7.751938E-2,1.7241379E0,-0E0,-4.1450775E-1,1.8518518E-1,-0E0,-5.2111405E-1,-2.0618556E-1,9.6491224E-1],"categories":[],"categories_nodes":[],"categories_segments":[],"categories_sizes":[],"default_left":[1,1,1,1,1,1,1,0,0,0,0,0,0,0,0],"id":4,"left_children":[1,3,5,7,9,11,13,-1,-1,-1,-1,-1,-1,-1,-1],"loss_changes":[9.253824E0,7.375572E0,1.9731369E0,7.120756E0,1.1805079E0,1.5195408E0,2.2567477E0,0E0,0E0,0E0,0E0,0E0,0E0,0E0,0E0],"parents":[2147483647,0,0,1,1,2,2,3,3,4,4,5,5,6,6],"right_children":[2,4,6,8,10,12,14,-1,-1,-1,-1,-1,-1,-1,-1],"split_conditions":[1.6015E3,1.7255E3,2.51E2,1.05E3,1.436E3,1.645E2,2.025E2,1.724138E-1,-0E0,-4.1450776E-2,1.8518519E-2,-0E0,-5.2111406E-2,-2.0618556E-2,9.6491225E-2],"split_indices":[89,99,10,80,46,7,98,0,0,0,0,0,0,0,0],"split_type":[0,0,0,0,0,0,0,0,0,0,0,0,0,0,0],"sum_hessian":[7.232001E1,1.8240002E1,5.4080006E1,9.280001E0,8.960001E0,4.9920002E1,4.1600003E0,4.8E0,4.4800005E0,6.7200003E0,2.2400002E0,6.4000006E0,4.3520004E1,2.88E0,1.2800001E0],"tree_param":{"num_deleted":"0","num_feature":"107","num_nodes":"15","size_leaf_vector":"0"}},{"base_weights":[5.528937E-1,-0E0,1.0120534E0,-3.2936612E-1,4.153422E-1,1.1811666E0,-2.8124428E-1,-0E0,-4.534071E-1,-1.7937058E-1,7.846928E-1,-7.712955E-2,1.2867526E0],"categories":[],"categories_nodes":[],"categories_segments":[],"categories_sizes":[],"default_left":[1,1,1,1,1,1,0,0,0,0,0,0,0],"id":5,"left_children":[1,3,5,7,9,11,-1,-1,-1,-1,-1,-1,-1],"loss_changes":[1.7969288E1,4.8086843E0,9.768429E0,1.080631E0,4.2318673E0,6.0110397E0,0E0,0E0,0E0,0E0,0E0,0E0,0E0],"parents":[2147483647,0,0,1,1,2,2,3,3,4,4,5,5],"right_children":[2,4,6,8,10,12,-1,-1,-1,-1,-1,-1,-1],"split_conditions":[1.7755E3,7.32E2,5.34E2,1.9795E3,2.6855E3,1.595E2,-2.8124427E-2,-0E0,-4.5340713E-2,-1.7937059E-2,7.8469284E-2,-7.712955E-3,1.2867527E-1],"split_indices":[70,85,40,11,6,7,0,0,0,0,0,0,0],"split_type":[0,0,0,0,0,0,0,0,0,0,0,0,0],"sum_hessian":[7.099045E1,3.2960846E1,3.8029606E1,1.8091625E1,1.4869222E1,3.4392338E1,3.6372669E0,3.7605631E0,1.4331061E1,4.8564606E0,1.001276E1,1.9501709E0,3.2442165E1],"tree_param":{"num_deleted":"0","num_feature":"107","num_nodes":"13","size_leaf_vector":"0"}},{"base_weights":[-1.2141312E-1,-4.293867E-1,2.5434607E-1,-5.1574445E-1,-0E0,-2.3222627E-1,7.165835E-1,-0E0,-5.6929976E-1,-2.7746707E-1,8.8955045E-1,-4.7909638E-1,3.0255446E-1,1.3423065E0,4.3682452E-2],"categories":[],"categories_nodes":[],"categories_segments":[],"categories_sizes":[],"default_left":[1,1,1,1,1,1,1,0,0,0,0,0,0,0,0],"id":6,"left_children":[1,3,5,7,9,11,13,-1,-1,-1,-1,-1,-1,-1,-1],"loss_changes":[8.279301E0,1.8889918E0,7.4620895E0,1.1064425E0,2.245562E0,2.2298803E0,5.6413355E0,0E0,0E0,0E0,0E0,0E0,0E0,0E0,0E0],"parents":[2147483647,0,0,1,1,2,2,3,3,4,4,5,5,6,6],"right_children":[2,4,6,8,10,12,14,-1,-1,-1,-1,-1,-1,-1,-1],"split_conditions":[1.595E2,1.281E3,8.345E2,2.1355E3,5.165E2,5.69E2,4.145E2,-0E0,-5.6929976E-2,-2.7746707E-2,8.8955045E-2,-4.790964E-2,3.0255446E-2,1.3423066E-1,4.368245E-3],"split_indices":[92,31,80,102,20,54,59,0,0,0,0,0,0,0,0],"split_type":[0,0,0,0,0,0,0,0,0,0,0,0,0,0,0],"sum_hessian":[6.808725E1,3.8802853E1,2.9284397E1,3.3691074E1,5.1117764E0,1.3455126E1,1.5829271E1,2.806065E0,3.0885012E1,3.734607E0,1.3771694E0,1.0556154E1,2.8989725E0,6.9166493E0,8.9126215E0],"tree_param":{"num_deleted":"0","num_feature":"107","num_nodes":"15","size_leaf_vector":"0"}},{"base_weights":[4.9955696E-2,1.048762E0,-5.2549213E-2,-1.1489884E-1,1.7392726E0,7.651206E-1,-1.6586334E-1,1.190516E0,-4.811803E-3,7.2566515E-1,-2.617043E-1],"categories":[],"categories_nodes":[],"categories_segments":[],"categories_sizes":[],"default_left":[1,1,1,0,0,1,1,0,0,0,0],"id":7,"left_children":[1,3,5,-1,-1,7,9,-1,-1,-1,-1],"loss_changes":[8.275665E0,7.869359E0,5.461079E0,0E0,0E0,3.450863E0,4.6937547E0,0E0,0E0,0E0,0E0],"parents":[2147483647,0,0,1,1,2,2,5,5,6,6],"right_children":[2,4,6,-1,-1,8,10,-1,-1,-1,-1],"split_conditions":[4.95E1,9.98E2,9.01E2,-1.1489884E-2,1.7392726E-1,2.115E2,1.1255E3,1.190516E-1,-4.811803E-4,7.256652E-2,-2.617043E-2],"split_indices":[60,8,48,0,0,22,93,0,0,0,0],"split_type":[0,0,0,0,0,0,0,0,0,0,0],"sum_hessian":[6.956223E1,6.5233274E0,6.3038906E1,2.2004647E0,4.3228626E0,5.8984814E0,5.7140427E1,4.2840533E0,1.6144279E0,3.8957758E0,5.3244648E1],"tree_param":{"num_deleted":"0","num_feature":"107","num_nodes":"11","size_leaf_vector":"0"}},{"base_weights":[-2.610042E-1,8.6846274E-1,-3.8776246E-1,-0E0,1.3471794E0,2.2716756E-1,-4.8373884E-1,7.9101324E-1,-2.2405547E-1,3.245088E-2,-5.488017E-1],"categories":[],"categories_nodes":[],"categories_segments":[],"categories_sizes":[],"default_left":[1,1,1,0,0,1,1,0,0,0,0],"id":8,"left_children":[1,3,5,-1,-1,7,9,-1,-1,-1,-1],"loss_changes":[9.620918E0,3.9579735E0,4.0734425E0,0E0,0E0,2.7168443E0,2.416813E0,0E0,0E0,0E0,0E0],"parents":[2147483647,0,0,1,1,2,2,5,5,6,6],"right_children":[2,4,6,-1,-1,8,10,-1,-1,-1,-1],"split_conditions":[1.705E3,8.575E2,3.205E2,-0E0,1.3471794E-1,3.735E2,2.185E2,7.9101324E-2,-2.2405548E-2,3.245088E-3,-5.4880172E-2],"split_indices":[15,101,88,0,0,80,80,0,0,0,0],"split_type":[0,0,0,0,0,0,0,0,0,0,0],"sum_hessian":[6.7205025E1,5.3948016E0,6.181022E1,1.5564378E0,3.8383636E0,6.753535E0,5.5056686E1,3.6525216E0,3.1010134E0,4.4984913E0,5.0558193E1],"tree_param":{"num_deleted":"0","num_feature":"107","num_nodes":"11","size_leaf_vector":"0"}},{"base_weights":[-1.5408076E-1,3.7183857E-1,-3.9764938E-1,1.3303556E0,-0E0,-0E0,-5.167572E-1,6.860003E-1,-2.4462469E-1,-3.1992283E-1,3.9239407E-1,-0E0,-5.674669E-1],"categories":[],"categories_nodes":[],"categories_segments":[],"categories_sizes":[],"default_left":[1,1,1,0,1,1,1,0,0,0,0,0,0],"id":9,"left_children":[1,3,5,-1,7,9,11,-1,-1,-1,-1,-1,-1],"loss_changes":[8.8192625E0,6.715126E0,1.9401078E0,0E0,3.0885606E0,1.7459533E0,7.585058E-1,0E0,0E0,0E0,0E0,0E0,0E0],"parents":[2147483647,0,0,1,1,2,2,4,4,5,5,6,6],"right_children":[2,4,6,-1,8,10,12,-1,-1,-1,-1,-1,-1],"split_conditions":[1.6015E3,2.6345E3,1.8435E3,1.3303557E-1,3.755E2,1.945E2,2.925E2,6.860003E-2,-2.4462469E-2,-3.1992283E-2,3.9239407E-2,-0E0,-5.674669E-2],"split_indices":[89,6,23,0,71,22,24,0,0,0,0,0,0],"split_type":[0,0,0,0,0,0,0,0,0,0,0,0,0],"sum_hessian":[6.64923E1,1.958077E1,4.691153E1,4.401997E0,1.5178773E1,1.2275699E1,3.463583E1,4.01652E0,1.1162253E1,7.758206E0,4.517493E0,3.7289116E0,3.0906918E1],"tree_param":{"num_deleted":"0","num_feature":"107","num_nodes":"13","size_leaf_vector":"0"}},{"base_weights":[5.635636E-1,-2.550287E-1,7.6495594E-1,-4.7989863E-1,7.5617895E-2,-1.9689427E-1,9.620379E-1,-1.7865743E-1,8.212861E-1,4.3203306E-1,-4.5254043E-1,4.1660335E-2,1.1569799E0],"categories":[],"categories_nodes":[],"categories_segments":[],"categories_sizes":[],"default_left":[1,1,1,0,1,1,1,0,0,0,0,0,0],"id":10,"left_children":[1,3,5,-1,7,9,11,-1,-1,-1,-1,-1,-1],"loss_changes":[1.3281008E1,1.5433292E0,1.2793205E1,0E0,1.7501739E0,1.9183137E0,8.238148E0,0E0,0E0,0E0,0E0,0E0,0E0],"parents":[2147483647,0,0,1,1,2,2,4,4,5,5,6,6],"right_children":[2,4,6,-1,8,10,12,-1,-1,-1,-1,-1,-1],"split_conditions":[8.875E2,1.38E2,2.77E3,-4.7989864E-2,1.31E2,1.41E2,1.8195E3,-1.7865743E-2,8.212861E-2,4.3203305E-2,-4.5254044E-2,4.1660336E-3,1.15697995E-1],"split_indices":[50,79,74,0,47,86,23,0,0,0,0,0,0],"split_type":[0,0,0,0,0,0,0,0,0,0,0,0,0],"sum_hessian":[7.528369E1,1.3831509E1,6.145218E1,9.764047E0,4.0674624E0,9.587535E0,5.1864643E1,2.600135E0,1.4673275E0,1.4409537E0,8.146581E0,1.0173945E1,4.16907E1],"tree_param":{"num_deleted":"0","num_feature":"107","num_nodes":"13","size_leaf_vector":"0"}},{"base_weights":[-1.4011787E-1,-3.5628256E-1,2.8547943E-1,-5.1232797E-1,-0E0,-8.350365E-2,7.508827E-1,-5.642306E-1,-0E0,7.951427E-1,-2.6926968E-1,6.312978E-1,-2.9697937E-1,-0E0,1.1450887E0],"categories":[],"categories_nodes":[],"categories_segments":[],"categories_sizes":[],"default_left":[1,1,1,1,1,1,1,0,0,0,0,0,0,0,0],"id":11,"left_children":[1,3,5,7,9,11,13,-1,-1,-1,-1,-1,-1,-1,-1],"loss_changes":[6.606678E0,3.1559591E0,4.6031723E0,1.0884714E0,3.6816516E0,1.7272378E0,4.3782744E0,0E0,0E0,0E0,0E0,0E0,0E0,0E0,0E0],"parents":[2147483647,0,0,1,1,2,2,3,3,4,4,5,5,6,6],"right_children":[2,4,6,8,10,12,14,-1,-1,-1,-1,-1,-1,-1,-1],"split_conditions":[3.555E2,1.355E2,9.705E2,2.248E3,4.625E2,1.139E3,1.6025E3,-5.6423064E-2,-0E0,7.951427E-2,-2.6926968E-2,6.312978E-2,-2.9697938E-2,-0E0,1.1450887E-1],"split_indices":[24,53,66,11,106,78,89,0,0,0,0,0,0,0,0],"split_type":[0,0,0,0,0,0,0,0,0,0,0,0,0,0,0],"sum_hessian":[6.893725E1,4.738333E1,2.1553915E1,3.4422157E1,1.2961173E1,1.1281539E1,1.0272376E1,3.162408E1,2.798078E0,3.6393821E0,9.321791E0,1.0670438E0,1.0214495E1,3.0862186E0,7.186157E0],"tree_param":{"num_deleted":"0","num_feature":"107","num_nodes":"15","size_leaf_vector":"0"}},{"base_weights":[-0E0,-3.084639E-1,2.4526334E-1,3.4076452E-1,-4.1821697E-1,7.066946E-1,-6.625105E-2,-0E0,8.5919064E-1,-5.415997E-1,-0E0,1.8452835E-1,1.429771E0,3.9449635E-1,-3.8577038E-1],"categories":[],"categories_nodes":[],"categories_segments":[],"categories_sizes":[],"default_left":[1,1,1,1,1,1,1,0,0,0,0,0,0,0,0],"id":12,"left_children":[1,3,5,7,9,11,13,-1,-1,-1,-1,-1,-1,-1,-1],"loss_changes":[5.2536306E0,2.4269035E0,6.1990485E0,1.3539193E0,1.496275E0,4.4775515E0,3.4575598E0,0E0,0E0,0E0,0E0,0E0,0E0,0E0,0E0],"parents":[2147483647,0,0,1,1,2,2,3,3,4,4,5,5,6,6],"right_children":[2,4,6,8,10,12,14,-1,-1,-1,-1,-1,-1,-1,-1],"split_conditions":[3.9035E3,9.005E2,2.945E2,1.307E3,1.815E2,6.24E2,5.355E2,-0E0,8.591907E-2,-5.415997E-2,-0E0,1.8452836E-2,1.429771E-1,3.9449636E-2,-3.857704E-2],"split_indices":[9,48,77,31,63,75,25,0,0,0,0,0,0,0,0],"split_type":[0,0,0,0,0,0,0,0,0,0,0,0,0,0,0],"sum_hessian":[6.731734E1,2.997247E1,3.7344868E1,2.7122657E0,2.7260204E1,1.5833303E1,2.1511564E1,1.2942646E0,1.4180012E0,2.095184E1,6.3083644E0,1.0725855E1,5.1074486E0,7.431284E0,1.408028E1],"tree_param":{"num_deleted":"0","num_feature":"107","num_nodes":"15","size_leaf_vector":"0"}},{"base_weights":[-2.2216804E-1,4.4510943E-1,-4.982161E-1,1.0797688E0,-4.1434625E-1,-5.3701204E-1,1.0816168E-1,1.2897339E0,-0E0,-0E0,-5.757087E-1],"categories":[],"categories_nodes":[],"categories_segments":[],"categories_sizes":[],"default_left":[1,1,1,1,0,1,0,0,0,0,0],"id":13,"left_children":[1,3,5,7,-1,9,-1,-1,-1,-1,-1],"loss_changes":[1.2623469E1,1.15234165E1,1.6385555E0,3.7630997E0,0E0,7.514763E-1,0E0,0E0,0E0,0E0,0E0],"parents":[2147483647,0,0,1,1,2,2,3,3,5,5],"right_children":[2,4,6,8,-1,10,-1,-1,-1,-1,-1],"split_conditions":[1.7165E3,4.04E2,9.915E2,1.285E2,-4.1434627E-2,2.194E3,1.0816168E-2,1.289734E-1,-0E0,-0E0,-5.757087E-2],"split_indices":[44,80,21,79,0,30,0,0,0,0,0],"split_type":[0,0,0,0,0,0,0,0,0,0,0],"sum_hessian":[6.603887E1,1.8085846E1,4.7953022E1,1.092531E1,7.160537E0,4.672697E1,1.226053E0,9.620827E0,1.3044826E0,3.9330626E0,4.2793907E1],"tree_param":{"num_deleted":"0","num_feature":"107","num_nodes":"11","size_leaf_vector":"0"}},{"base_weights":[-1.6725533E-1,3.081352E-1,-3.6747423E-1,9.3750405E-1,-8.0847785E-2,3.8140732E-1,-4.1963544E-1,1.2025248E0,-0E0,7.2281224E-1,-3.735202E-1,-0E0,-5.028443E-1],"categories":[],"categories_nodes":[],"categories_segments":[],"categories_sizes":[],"default_left":[1,1,1,1,1,0,1,0,0,0,0,0,0],"id":14,"left_children":[1,3,5,7,9,-1,11,-1,-1,-1,-1,-1,-1],"loss_changes":[6.8238883E0,5.7731247E0,2.1946502E0,3.074822E0,2.7805538E0,0E0,1.9591732E0,0E0,0E0,0E0,0E0,0E0,0E0],"parents":[2147483647,0,0,1,1,2,2,3,3,4,4,6,6],"right_children":[2,4,6,8,10,-1,12,-1,-1,-1,-1,-1,-1],"split_conditions":[1.6E3,1.91E2,1.96E2,2.9365E3,3.985E2,3.8140733E-2,1.655E2,1.2025248E-1,-0E0,7.228123E-2,-3.735202E-2,-0E0,-5.0284427E-2],"split_indices":[89,27,80,74,14,0,7,0,0,0,0,0,0],"split_type":[0,0,0,0,0,0,0,0,0,0,0,0,0],"sum_hessian":[6.887986E1,1.8772879E1,5.010698E1,7.614077E0,1.1158802E1,1.6034029E0,4.8503574E1,6.3619432E0,1.2521338E0,1.6744316E0,9.48437E0,7.2795224E0,4.1224052E1],"tree_param":{"num_deleted":"0","num_feature":"107","num_nodes":"13","size_leaf_vector":"0"}},{"base_weights":[5.037789E-1,-8.825067E-2,7.3250854E-1,-4.3997487E-1,3.93567E-1,2.2206363E-1,1.0578176E0,-5.0117135E-1,-0E0,-1.5191752E-1,8.0812144E-1,-4.1011342E-1,4.9876112E-1,-0E0,1.2070272E0],"categories":[],"categories_nodes":[],"categories_segments":[],"categories_sizes":[],"default_left":[1,1,1,1,1,1,1,1,1,0,0,0,0,0,0],"id":15,"left_children":[1,3,5,-1,9,11,13,-1,-1,-1,-1,-1,-1,-1,-1],"loss_changes":[1.1092464E1,3.7857013E0,7.8898354E0,5.418744E-1,2.634985E0,4.5800796E0,4.97633E0,0E0,0E0,0E0,0E0,0E0,0E0,0E0,0E0],"parents":[2147483647,0,0,1,1,2,2,3,3,4,4,5,5,6,6],"right_children":[2,4,6,-1,10,12,14,-1,-1,-1,-1,-1,-1,-1,-1],"split_conditions":[1.3695E3,1.96E2,3.255E2,-4.399749E-2,7.295E2,1.78E2,3.365E2,-5.0117135E-2,-0E0,-1.51917515E-2,8.081215E-2,-4.1011345E-2,4.9876112E-2,-0E0,1.2070272E-1],"split_indices":[46,28,80,90,85,27,1,2147483647,2147483647,0,0,0,0,0,0],"split_type":[0,0,0,0,0,0,0,0,0,0,0,0,0,0,0],"sum_hessian":[7.5679726E1,2.0043242E1,5.5636482E1,1.2835625E1,7.207617E0,2.3507425E1,3.2129055E1,1.182044E1,1.0151839E0,2.344266E0,4.863351E0,5.909539E0,1.7597887E1,4.2687416E0,2.7860313E1],"tree_param":{"num_deleted":"2","num_feature":"107","num_nodes":"15","size_leaf_vector":"0"}},{"base_weights":[-8.6968035E-2,-3.6317438E-1,3.3625007E-1,2.8460905E-1,-4.2373925E-1,8.780082E-1,-1.3041238E-1,-4.8859274E-1,7.010434E-2,-5.2158523E-2,1.1295238E0,3.2279658E-1,-3.7292686E-1],"categories":[],"categories_nodes":[],"categories_segments":[],"categories_sizes":[],"default_left":[1,1,1,0,1,1,1,0,0,0,0,0,0],"id":16,"left_children":[1,3,5,-1,7,9,11,-1,-1,-1,-1,-1,-1],"loss_changes":[7.959942E0,1.9209552E0,7.303114E0,0E0,1.7509995E0,4.1567783E0,1.6615533E0,0E0,0E0,0E0,0E0,0E0,0E0],"parents":[2147483647,0,0,1,1,2,2,4,4,5,5,6,6],"right_children":[2,4,6,-1,8,10,12,-1,-1,-1,-1,-1,-1],"split_conditions":[1.355E2,1.3015E3,8.495E2,2.8460905E-2,2.248E3,1.545E2,1.4765E3,-4.8859276E-2,7.010434E-3,-5.2158525E-3,1.12952374E-1,3.227966E-2,-3.7292685E-2],"split_indices":[53,91,52,0,11,55,17,0,0,0,0,0,0],"split_type":[0,0,0,0,0,0,0,0,0,0,0,0,0],"sum_hessian":[6.5819496E1,4.134263E1,2.4476866E1,1.8068329E0,3.9535797E1,1.1910793E1,1.2566073E1,3.674576E1,2.790033E0,1.8576119E0,1.0053181E1,2.8275206E0,9.738552E0],"tree_param":{"num_deleted":"0","num_feature":"107","num_nodes":"13","size_leaf_vector":"0"}},{"base_weights":[-0E0,4.8438022E-1,-1.22928396E-1,-1.0335748E-2,9.9003625E-1,1.515163E-2,-4.703561E-1,-3.3924085E-1,3.1365266E-1,1.424398E0,-0E0,-2.9113194E-1,2.904086E-1,-5.1966906E-1,-0E0],"categories":[],"categories_nodes":[],"categories_segments":[],"categories_sizes":[],"default_left":[1,1,1,1,1,1,1,0,0,0,0,0,0,1,1],"id":17,"left_children":[1,3,5,7,9,11,-1,-1,-1,-1,-1,-1,-1,-1,-1],"loss_changes":[4.3056364E0,4.691082E0,3.1108723E0,9.278587E-1,4.1670847E0,3.3226013E0,5.970154E-1,0E0,0E0,0E0,0E0,0E0,0E0,0E0,0E0],"parents":[2147483647,0,0,1,1,2,2,3,3,4,4,5,5,6,6],"right_children":[2,4,6,8,10,12,-1,-1,-1,-1,-1,-1,-1,-1,-1],"split_conditions":[8.975E2,1.82E2,2.085E2,9.725E2,1.009E3,9.5E2,-4.7035612E-2,-3.3924084E-2,3.1365268E-2,1.424398E-1,-0E0,-2.9113194E-2,2.9040862E-2,-5.1966906E-2,-0E0],"split_indices":[50,7,58,66,66,50,34,0,0,0,0,0,0,2147483647,2147483647],"split_type":[0,0,0,0,0,0,0,0,0,0,0,0,0,0,0],"sum_hessian":[6.8004555E1,1.3795357E1,5.4209198E1,6.468619E0,7.3267374E0,3.741661E1,1.6792587E1,4.7182355E0,1.7503837E0,5.076524E0,2.2502136E0,1.5963304E1,2.1453306E1,1.578673E1,1.005858E0],"tree_param":{"num_deleted":"2","num_feature":"107","num_nodes":"15","size_leaf_vector":"0"}},{"base_weights":[-2.4686763E-1,7.0467836E-1,-3.648338E-1,1.2412232E0,-8.084459E-2,3.183212E-1,-4.3127507E-1,9.4345844E-1,-6.120017E-2,-4.8978108E-1,8.682084E-2],"categories":[],"categories_nodes":[],"categories_segments":[],"categories_sizes":[],"default_left":[1,1,1,0,0,1,1,0,0,0,0],"id":18,"left_children":[1,3,5,-1,-1,7,9,-1,-1,-1,-1],"loss_changes":[7.703765E0,4.235147E0,3.123869E0,0E0,0E0,2.091354E0,2.2477398E0,0E0,0E0,0E0,0E0],"parents":[2147483647,0,0,1,1,2,2,5,5,6,6],"right_children":[2,4,6,-1,-1,8,10,-1,-1,-1,-1],"split_conditions":[3.2025E3,1.165E2,3.625E2,1.2412232E-1,-8.084459E-3,3.39E2,1.625E3,9.4345845E-2,-6.1200173E-3,-4.897811E-2,8.682084E-3],"split_indices":[5,79,36,0,0,1,17,0,0,0,0],"split_type":[0,0,0,0,0,0,0,0,0,0,0],"sum_hessian":[6.836751E1,6.0572863E0,6.2310223E1,4.0107145E0,2.0465713E0,3.852862E0,5.845736E1,1.889504E0,1.9633579E0,5.4309277E1,4.148083E0],"tree_param":{"num_deleted":"0","num_feature":"107","num_nodes":"11","size_leaf_vector":"0"}},{"base_weights":[-1.4168113E-1,3.7856773E-1,-3.7284762E-1,-0E0,1.1230824E0,-0E0,-4.4923672E-1,5.538685E-1,-2.8488895E-1,1.3385943E0,-0E0,-2.4376288E-1,3.2644716E-1,-0E0,-5.103313E-1],"categories":[],"categories_nodes":[],"categories_segments":[],"categories_sizes":[],"default_left":[1,1,1,1,1,1,1,0,0,0,0,0,0,0,0],"id":19,"left_children":[1,3,5,7,9,11,13,-1,-1,-1,-1,-1,-1,-1,-1],"loss_changes":[8.360265E0,6.734821E0,1.6366706E0,2.049858E0,1.6556807E0,7.7510345E-1,1.3204069E0,0E0,0E0,0E0,0E0,0E0,0E0,0E0,0E0],"parents":[2147483647,0,0,1,1,2,2,3,3,4,4,5,5,6,6],"right_children":[2,4,6,8,10,12,14,-1,-1,-1,-1,-1,-1,-1,-1],"split_conditions":[1.602E3,2.045E2,1.655E2,3.975E2,3.3485E3,2.47E2,1.405E2,5.538685E-2,-2.8488895E-2,1.3385944E-1,-0E0,-2.4376288E-2,3.2644715E-2,-0E0,-5.1033128E-2],"split_indices":[89,58,7,14,5,104,41,0,0,0,0,0,0,0,0],"split_type":[0,0,0,0,0,0,0,0,0,0,0,0,0,0,0],"sum_hessian":[6.738979E1,1.9204905E1,4.8184887E1,1.2569649E1,6.635257E0,7.195032E0,4.0989857E1,2.8445368E0,9.725112E0,5.298649E0,1.3366082E0,3.3436193E0,3.8514128E0,4.381934E0,3.660792E1],"tree_param":{"num_deleted":"0","num_feature":"107","num_nodes":"15","size_leaf_vector":"0"}},{"base_weights":[4.258188E-1,-0E0,7.6536036E-1,-2.3289473E-1,4.9980432E-1,-0E0,9.8919016E-1,-4.9712485E-1,-0E0,7.7359706E-1,-1.0583059E-1,3.7441397E-1,-3.7511668E-1,-0E0,1.0611398E0],"categories":[],"categories_nodes":[],"categories_segments":[],"categories_sizes":[],"default_left":[1,1,1,1,1,1,1,0,0,0,0,0,0,0,0],"id":20,"left_children":[1,3,5,7,9,11,13,-1,-1,-1,-1,-1,-1,-1,-1],"loss_changes":[1.2162108E1,4.068875E0,7.722E0,1.661569E0,2.5146806E0,1.7428174E0,3.5371513E0,0E0,0E0,0E0,0E0,0E0,0E0,0E0,0E0],"parents":[2147483647,0,0,1,1,2,2,3,3,4,4,5,5,6,6],"right_children":[2,4,6,8,10,12,14,-1,-1,-1,-1,-1,-1,-1,-1],"split_conditions":[1.935E2,1.442E3,2.8215E3,3.314E3,2.305E2,1.605E2,1.595E2,-4.9712487E-2,-0E0,7.7359706E-2,-1.0583059E-2,3.74414E-2,-3.751167E-2,-0E0,1.06113985E-1],"split_indices":[28,46,74,5,10,92,7,0,0,0,0,0,0,0,0],"split_type":[0,0,0,0,0,0,0,0,0,0,0,0,0,0,0],"sum_hessian":[7.923586E1,3.4637226E1,4.4598633E1,2.499279E1,9.644438E0,1.0409358E1,3.4189274E1,1.1428188E1,1.3564602E1,7.587942E0,2.0564954E0,5.3312383E0,5.0781193E0,1.4688861E0,3.2720387E1],"tree_param":{"num_deleted":"0","num_feature":"107","num_nodes":"15","size_leaf_vector":"0"}},{"base_weights":[-1.2148561E-1,-4.0784404E-1,2.1048824E-1,-4.7457853E-1,4.8284102E-2,7.2873425E-1,-7.0631236E-2,-5.2478397E-1,-0E0,-4.2598214E-2,6.3600034E-1,9.9412984E-1,-0E0,-4.4789553E-1,2.1644194E-1],"categories":[],"categories_nodes":[],"categories_segments":[],"categories_sizes":[],"default_left":[1,1,1,1,1,1,1,0,0,0,0,0,0,0,0],"id":21,"left_children":[1,3,5,7,9,11,13,-1,-1,-1,-1,-1,-1,-1,-1],"loss_changes":[6.7051687E0,1.6128097E0,5.1279984E0,1.0514903E0,8.2742155E-1,2.9451761E0,2.4211035E0,0E0,0E0,0E0,0E0,0E0,0E0,0E0,0E0],"parents":[2147483647,0,0,1,1,2,2,3,3,4,4,5,5,6,6],"right_children":[2,4,6,8,10,12,14,-1,-1,-1,-1,-1,-1,-1,-1],"split_conditions":[1.595E2,1.333E3,8.485E2,1.0545E3,2.76E2,4.065E2,8.345E2,-5.24784E-2,-0E0,-4.2598215E-3,6.360003E-2,9.9412985E-2,-0E0,-4.4789553E-2,2.1644196E-2],"split_indices":[92,31,52,66,2,71,80,0,0,0,0,0,0,0,0],"split_type":[0,0,0,0,0,0,0,0,0,0,0,0,0,0,0],"sum_hessian":[6.655448E1,3.722671E1,2.9327768E1,3.435262E1,2.8740933E0,1.100497E1,1.83228E1,3.1729973E1,2.6226468E0,1.8188504E0,1.0552428E0,8.430855E0,2.5741146E0,9.180819E0,9.141981E0],"tree_param":{"num_deleted":"0","num_feature":"107","num_nodes":"15","size_leaf_vector":"0"}},{"base_weights":[-1.2583705E-2,-1.5119015E-1,5.372412E-1,1.0678041E-1,-3.8026002E-1,-0E0,8.716606E-1,5.229383E-1,-2.0940377E-1,-4.7969955E-1,-0E0,4.360174E-1,-2.4313538E-1,1.2111534E0,-0E0],"categories":[],"categories_nodes":[],"categories_segments":[],"categories_sizes":[],"default_left":[1,1,1,1,1,1,1,0,0,0,0,0,0,0,0],"id":22,"left_children":[1,3,5,7,9,11,13,-1,-1,-1,-1,-1,-1,-1,-1],"loss_changes":[4.853749E0,3.6406896E0,2.224186E0,3.7394972E0,1.4499602E0,7.171892E-1,1.7268033E0,0E0,0E0,0E0,0E0,0E0,0E0,0E0,0E0],"parents":[2147483647,0,0,1,1,2,2,3,3,4,4,5,5,6,6],"right_children":[2,4,6,8,10,12,14,-1,-1,-1,-1,-1,-1,-1,-1],"split_conditions":[8.955E2,1.615E2,1.1465E3,2.858E3,4.295E2,2.45E1,1.3945E3,5.2293833E-2,-2.0940376E-2,-4.7969956E-2,-0E0,4.360174E-2,-2.4313537E-2,1.2111534E-1,-0E0],"split_indices":[101,55,16,74,36,32,46,0,0,0,0,0,0,0,0],"split_type":[0,0,0,0,0,0,0,0,0,0,0,0,0,0,0],"sum_hessian":[6.668958E1,5.529415E1,1.139543E1,2.4204384E1,3.108977E1,4.759321E0,6.6361084E0,1.1533256E1,1.2671127E1,2.54657E1,5.624068E0,1.4245958E0,3.3347256E0,4.1323867E0,2.5037215E0],"tree_param":{"num_deleted":"0","num_feature":"107","num_nodes":"15","size_leaf_vector":"0"}},{"base_weights":[-2.0715393E-1,-4.2848468E-1,4.4522604E-1,-0E0,-5.148484E-1,1.1135895E0,-1.633804E-1,8.916803E-1,-3.423535E-1,-5.6053734E-1,-0E0,1.4004889E0,-0E0,-3.7271258E-1,1.0053608E-1],"categories":[],"categories_nodes":[],"categories_segments":[],"categories_sizes":[],"default_left":[1,1,1,1,1,1,1,0,0,0,0,0,0,0,0],"id":23,"left_children":[1,3,5,7,9,11,13,-1,-1,-1,-1,-1,-1,-1,-1],"loss_changes":[9.215017E0,2.0978813E0,7.3181047E0,3.0633795E0,1.4608707E0,3.5987835E0,7.54298E-1,0E0,0E0,0E0,0E0,0E0,0E0,0E0,0E0],"parents":[2147483647,0,0,1,1,2,2,3,3,4,4,5,5,6,6],"right_children":[2,4,6,8,10,12,14,-1,-1,-1,-1,-1,-1,-1,-1],"split_conditions":[9.235E2,2.33E2,2.1765E3,1.72E3,1.5385E3,4.845E2,1.467E3,8.9168034E-2,-3.423535E-2,-5.6053735E-2,-0E0,1.4004889E-1,-0E0,-3.7271257E-2,1.0053608E-2],"split_indices":[52,80,102,44,3,106,91,0,0,0,0,0,0,0,0],"split_type":[0,0,0,0,0,0,0,0,0,0,0,0,0,0,0],"sum_hessian":[6.161428E1,4.7406788E1,1.4207494E1,6.9635034E0,4.0443287E1,7.1589704E0,7.0485234E0,1.9692285E0,4.9942746E0,3.8612072E1,1.8312128E0,5.9933662E0,1.1656038E0,5.8139105E0,1.234613E0],"tree_param":{"num_deleted":"0","num_feature":"107","num_nodes":"15","size_leaf_vector":"0"}},{"base_weights":[-1.7051496E-1,2.5480044E-1,-3.5613322E-1,1.0037857E0,-2.671515E-3,-4.2782298E-1,2.1182452E-1,1.1683704E0,-0E0,4.054616E-1,-2.683436E-1,-4.855895E-1,-0E0,-5.4300174E-2,8.609806E-1],"categories":[],"categories_nodes":[],"categories_segments":[],"categories_sizes":[],"default_left":[1,1,1,1,1,1,1,1,1,0,0,0,0,0,0],"id":24,"left_children":[1,3,5,-1,9,11,13,-1,-1,-1,-1,-1,-1,-1,-1],"loss_changes":[5.263917E0,4.5646806E0,2.2113104E0,5.944562E-1,1.4620725E0,1.3422961E0,1.6046332E0,0E0,0E0,0E0,0E0,0E0,0E0,0E0,0E0],"parents":[2147483647,0,0,1,1,2,2,3,3,4,4,5,5,6,6],"right_children":[2,4,6,-1,10,12,14,-1,-1,-1,-1,-1,-1,-1,-1],"split_conditions":[1.602E3,2.6345E3,2.51E2,1.0037857E-1,3.755E2,6.855E2,2.025E2,1.1683704E-1,-0E0,4.054616E-2,-2.683436E-2,-4.855895E-2,-0E0,-5.4300176E-3,8.609806E-2],"split_indices":[89,6,10,52,71,49,98,2147483647,2147483647,0,0,0,0,0,0],"split_type":[0,0,0,0,0,0,0,0,0,0,0,0,0,0,0],"sum_hessian":[6.3244194E1,1.7465227E1,4.577897E1,4.7200136E0,1.2745213E1,4.243064E1,3.3483267E0,3.6574688E0,1.062545E0,3.33369E0,9.411523E0,3.8404697E1,4.025944E0,1.932131E0,1.4161956E0],"tree_param":{"num_deleted":"2","num_feature":"107","num_nodes":"15","size_leaf_vector":"0"}},{"base_weights":[3.4068185E-1,6.0029966E-1,-6.7798115E-2,-1.2991863E-2,7.7334386E-1,-2.6822653E-1,4.0940365E-1,-3.2559833E-1,3.2430357E-1,1.7581333E-1,1.0388267E0,-3.861803E-1,1.520813E-1,-0E0,8.5632324E-1],"categories":[],"categories_nodes":[],"categories_segments":[],"categories_sizes":[],"default_left":[1,1,1,1,1,1,1,0,0,0,0,0,0,0,0],"id":25,"left_children":[1,3,5,7,9,11,13,-1,-1,-1,-1,-1,-1,-1,-1],"loss_changes":[9.762696E0,6.562668E0,3.1320553E0,1.3429278E0,5.559826E0,1.5506841E0,2.1121314E0,0E0,0E0,0E0,0E0,0E0,0E0,0E0,0E0],"parents":[2147483647,0,0,1,1,2,2,3,3,4,4,5,5,6,6],"right_children":[2,4,6,8,10,12,14,-1,-1,-1,-1,-1,-1,-1,-1],"split_conditions":[1.875E2,8.82E2,1.4635E3,9.625E2,2.8565E3,5.305E2,1.0355E3,-3.2559834E-2,3.243036E-2,1.7581334E-2,1.0388267E-1,-3.8618032E-2,1.520813E-2,-0E0,8.5632324E-2],"split_indices":[22,21,3,81,74,0,94,0,0,0,0,0,0,0,0],"split_type":[0,0,0,0,0,0,0,0,0,0,0,0,0,0,0],"sum_hessian":[8.5653564E1,5.35789E1,3.207466E1,1.0722608E1,4.2856293E1,2.437179E1,7.702872E0,7.1216655E0,3.6009426E0,1.4853661E1,2.8002632E1,2.095223E1,3.419558E0,3.833265E0,3.8696067E0],"tree_param":{"num_deleted":"0","num_feature":"107","num_nodes":"15","size_leaf_vector":"0"}},{"base_weights":[-6.728614E-2,-4.0522546E-1,2.5858778E-1,-5.0674134E-1,-0E0,6.8529046E-1,-0E0,-0E0,-5.3935623E-1,-2.2053537E-1,5.546578E-1,-6.555632E-2,9.0948635E-1,-2.3290646E-1,4.402521E-1],"categories":[],"categories_nodes":[],"categories_segments":[],"categories_sizes":[],"default_left":[1,1,1,1,1,1,1,1,1,0,0,0,0,0,0],"id":26,"left_children":[1,3,5,-1,9,11,13,-1,-1,-1,-1,-1,-1,-1,-1],"loss_changes":[7.3384695E0,1.7662373E0,3.9957917E0,6.3847494E-1,1.1363864E0,3.0996342E0,1.9897103E0,0E0,0E0,0E0,0E0,0E0,0E0,0E0,0E0],"parents":[2147483647,0,0,1,1,2,2,3,3,4,4,5,5,6,6],"right_children":[2,4,6,-1,10,12,14,-1,-1,-1,-1,-1,-1,-1,-1],"split_conditions":[1.595E2,1.281E3,8.485E2,-5.0674137E-2,1.7225E3,1.57E2,6.245E2,-0E0,-5.3935625E-2,-2.2053538E-2,5.5465784E-2,-6.5556318E-3,9.0948634E-2,-2.3290647E-2,4.402521E-2],"split_indices":[92,31,52,78,72,55,75,2147483647,2147483647,0,0,0,0,0,0],"split_type":[0,0,0,0,0,0,0,0,0,0,0,0,0,0,0],"sum_hessian":[6.3354202E1,3.248825E1,3.0865953E1,2.7292988E1,5.1952624E0,1.2045767E1,1.8820187E1,1.1235104E0,2.6169477E1,3.1589296E0,2.0363326E0,1.9068409E0,1.01389265E1,1.3656465E1,5.1637216E0],"tree_param":{"num_deleted":"2","num_feature":"107","num_nodes":"15","size_leaf_vector":"0"}},{"base_weights":[4.3973915E-2,7.413722E-1,-6.2016938E-2,1.2171754E0,-1.8165427E-1,1.7077552E-1,-3.755056E-1,-1.8795073E-1,6.0408616E-1,6.0718966E-1,-4.768916E-1],"categories":[],"categories_nodes":[],"categories_segments":[],"categories_sizes":[],"default_left":[1,1,1,0,0,1,1,0,0,0,0],"id":27,"left_children":[1,3,5,-1,-1,7,9,-1,-1,-1,-1],"loss_changes":[5.841581E0,5.847572E0,4.630145E0,0E0,0E0,5.682777E0,2.9101043E0,0E0,0E0,0E0,0E0],"parents":[2147483647,0,0,1,1,2,2,5,5,6,6],"right_children":[2,4,6,-1,-1,8,10,-1,-1,-1,-1],"split_conditions":[2.25E1,1.8195E3,2.005E2,1.21717535E-1,-1.8165428E-2,5.025E2,2.85E1,-1.8795073E-2,6.040862E-2,6.0718965E-2,-4.7689162E-2],"split_indices":[32,70,58,0,0,20,67,0,0,0,0],"split_type":[0,0,0,0,0,0,0,0,0,0,0],"sum_hessian":[6.821533E1,9.453475E0,5.8761852E1,6.742536E0,2.710939E0,3.2151737E1,2.6610115E1,1.6636915E1,1.5514824E1,1.0996314E0,2.5510485E1],"tree_param":{"num_deleted":"0","num_feature":"107","num_nodes":"11","size_leaf_vector":"0"}},{"base_weights":[-2.2579293E-1,4.5588985E-1,-4.0928698E-1,1.0064684E0,-1.5331493E-1,1.2921286E-1,-5.345198E-1,1.1931068E0,-0E0,-2.5887284E-1,-0E0,7.750485E-1,-2.870441E-1,-5.5609393E-1,-0E0],"categories":[],"categories_nodes":[],"categories_segments":[],"categories_sizes":[],"default_left":[1,1,1,1,1,1,1,0,0,1,1,0,0,1,1],"id":28,"left_children":[1,3,5,7,-1,11,-1,-1,-1,-1,-1,-1,-1,-1,-1],"loss_changes":[7.7090387E0,5.083091E0,3.803132E0,1.2032909E0,1.7650728E-1,3.0256703E0,6.1026573E-1,0E0,0E0,0E0,0E0,0E0,0E0,0E0,0E0],"parents":[2147483647,0,0,1,1,2,2,3,3,4,4,5,5,6,6],"right_children":[2,4,6,8,-1,12,-1,-1,-1,-1,-1,-1,-1,-1,-1],"split_conditions":[9.81E2,7.525E2,3.225E2,1.705E2,-1.5331494E-2,1.905E2,-5.345198E-2,1.1931068E-1,-0E0,-2.5887284E-2,-0E0,7.750485E-2,-2.870441E-2,-5.5609394E-2,-0E0],"split_indices":[8,38,88,86,73,98,50,0,0,2147483647,2147483647,0,0,2147483647,2147483647],"split_type":[0,0,0,0,0,0,0,0,0,0,0,0,0,0,0],"sum_hessian":[5.95114E1,1.1151005E1,4.8360394E1,6.3770375E0,4.7739677E0,7.611992E0,4.07484E1,5.094872E0,1.2821655E0,3.6590528E0,1.1149148E0,3.5870254E0,4.0249667E0,3.954534E1,1.2030594E0],"tree_param":{"num_deleted":"4","num_feature":"107","num_nodes":"15","size_leaf_vector":"0"}},{"base_weights":[-1.5603611E-1,-3.659563E-1,2.6108342E-1,-4.255567E-1,3.4497035E-1,6.339717E-1,-1.3040031E-1,-0E0,-5.0382036E-1,9.030865E-1,-1.00209326E-1,-4.1037038E-1,4.6896803E-1],"categories":[],"categories_nodes":[],"categories_segments":[],"categories_sizes":[],"default_left":[1,1,1,1,0,1,1,0,0,0,0,0,0],"id":29,"left_children":[1,3,5,7,-1,9,11,-1,-1,-1,-1,-1,-1],"loss_changes":[5.844535E0,2.1294637E0,3.588793E0,1.7952361E0,0E0,3.2669291E0,1.7372468E0,0E0,0E0,0E0,0E0,0E0,0E0],"parents":[2147483647,0,0,1,1,2,2,3,3,5,5,6,6],"right_children":[2,4,6,8,-1,10,12,-1,-1,-1,-1,-1,-1],"split_conditions":[1.1E3,5.55E2,1.7255E3,1.67E2,3.4497034E-2,4.195E2,1.36E2,-0E0,-5.0382037E-2,9.030865E-2,-1.0020933E-2,-4.1037038E-2,4.6896804E-2],"split_indices":[82,0,99,28,0,71,12,0,0,0,0,0,0],"split_type":[0,0,0,0,0,0,0,0,0,0,0,0,0],"sum_hessian":[6.345866E1,4.3890377E1,1.9568283E1,4.216362E1,1.7267579E0,1.1013193E1,8.55509E0,5.296088E0,3.686753E1,8.887481E0,2.1257126E0,7.1834097E0,1.3716803E0],"tree_param":{"num_deleted":"0","num_feature":"107","num_nodes":"13","size_leaf_vector":"0"}},{"base_weights":[3.797047E-1,-0E0,6.229999E-1,3.6244875E-1,-2.4490547E-1,-7.0728515E-3,7.748624E-1,-0E0,7.573601E-1,-0E0,-5.0176185E-1,-2.41648E-1,4.3951026E-1,8.7088287E-1,-6.476195E-2],"categories":[],"categories_nodes":[],"categories_segments":[],"categories_sizes":[],"default_left":[1,1,1,1,1,1,1,0,0,0,0,0,0,0,0],"id":30,"left_children":[1,3,5,7,9,11,13,-1,-1,-1,-1,-1,-1,-1,-1],"loss_changes":[8.215121E0,2.963955E0,5.815489E0,2.4487607E0,1.5877048E0,9.50305E-1,4.3896885E0,0E0,0E0,0E0,0E0,0E0,0E0,0E0,0E0],"parents":[2147483647,0,0,1,1,2,2,3,3,4,4,5,5,6,6],"right_children":[2,4,6,8,10,12,14,-1,-1,-1,-1,-1,-1,-1,-1],"split_conditions":[1.2635E3,5.825E2,8.755E2,2.68E2,2.4525E3,8.79E2,2.91E2,-0E0,7.573601E-2,-0E0,-5.0176185E-2,-2.4164801E-2,4.3951027E-2,8.708829E-2,-6.476195E-3],"split_indices":[78,25,21,104,56,37,104,0,0,0,0,0,0,0,0],"split_type":[0,0,0,0,0,0,0,0,0,0,0,0,0,0,0],"sum_hessian":[8.38815E1,3.2185165E1,5.1696335E1,1.17968645E1,2.0388304E1,8.9464245E0,4.2749912E1,5.5968747E0,6.19999E0,9.986609E0,1.0401694E1,7.634433E0,1.3119912E0,3.939808E1,3.3518326E0],"tree_param":{"num_deleted":"0","num_feature":"107","num_nodes":"15","size_leaf_vector":"0"}},{"base_weights":[-1.3096069E-1,4.3378544E-1,-2.8725427E-1,1.030644E0,-1.5934262E-2,-3.9940247E-1,1.5995914E-2,-0E0,1.2226194E0,-3.3993164E-1,3.496237E-1,-4.7518018E-1,-0E0,5.6141096E-1,-3.8281688E-1],"categories":[],"categories_nodes":[],"categories_segments":[],"categories_sizes":[],"default_left":[1,1,1,1,1,1,1,0,0,0,0,0,0,0,0],"id":31,"left_children":[1,3,5,7,9,11,13,-1,-1,-1,-1,-1,-1,-1,-1],"loss_changes":[5.874988E0,4.6528997E0,2.2370028E0,1.0785365E0,1.0240148E0,1.4945779E0,3.2686868E0,0E0,0E0,0E0,0E0,0E0,0E0,0E0,0E0],"parents":[2147483647,0,0,1,1,2,2,3,3,4,4,5,5,6,6],"right_children":[2,4,6,8,10,12,14,-1,-1,-1,-1,-1,-1,-1,-1],"split_conditions":[1.2185E3,8.52E2,1.815E2,1.4475E3,1.281E3,4.025E2,1.76E2,-0E0,1.2226194E-1,-3.3993166E-2,3.496237E-2,-4.751802E-2,-0E0,5.6141097E-2,-3.828169E-2],"split_indices":[78,52,86,33,93,1,7,0,0,0,0,0,0,0,0],"split_type":[0,0,0,0,0,0,0,0,0,0,0,0,0,0,0],"sum_hessian":[6.580827E1,1.2492958E1,5.331531E1,5.7687087E0,6.7242494E0,4.109724E1,1.2218073E1,1.2372323E0,4.5314765E0,5.052139E0,1.6721107E0,3.5360348E1,5.7368946E0,6.0474024E0,6.17067E0],"tree_param":{"num_deleted":"0","num_feature":"107","num_nodes":"15","size_leaf_vector":"0"}},{"base_weights":[-0E0,5.6320435E-1,-1.4235744E-1,9.230732E-1,-0E0,1.3994238E-1,-3.3346665E-1,-0E0,1.1495132E0,-2.4735224E-1,6.7987144E-2,-1.6001414E-1,6.4078724E-1,-4.135128E-1,6.124104E-1],"categories":[],"categories_nodes":[],"categories_segments":[],"categories_sizes":[],"default_left":[1,1,1,1,1,1,1,0,0,1,1,0,0,0,0],"id":32,"left_children":[1,3,5,7,-1,11,13,-1,-1,-1,-1,-1,-1,-1,-1],"loss_changes":[5.6099405E0,3.7550325E0,3.1106205E0,2.9210148E0,2.773346E-1,3.5985112E0,2.6388283E0,0E0,0E0,0E0,0E0,0E0,0E0,0E0,0E0],"parents":[2147483647,0,0,1,1,2,2,3,3,4,4,5,5,6,6],"right_children":[2,4,6,8,-1,12,14,-1,-1,-1,-1,-1,-1,-1,-1],"split_conditions":[8.855E2,3.525E2,2.75E1,8.625E2,-0E0,6.265E2,5.74E2,-0E0,1.1495133E-1,-2.4735225E-2,6.7987144E-3,-1.6001415E-2,6.4078726E-2,-4.135128E-2,6.1241042E-2],"split_indices":[50,1,32,21,13,75,20,0,0,2147483647,2147483647,0,0,0,0],"split_type":[0,0,0,0,0,0,0,0,0,0,0,0,0,0,0],"sum_hessian":[6.5491905E1,1.3286614E1,5.2205288E1,8.725481E0,4.561133E0,1.9070354E1,3.3134933E1,1.2436342E0,7.481847E0,3.3671064E0,1.1940265E0,1.1104027E1,7.966328E0,3.2043274E1,1.0916603E0],"tree_param":{"num_deleted":"2","num_feature":"107","num_nodes":"15","size_leaf_vector":"0"}},{"base_weights":[-1.7701952E-1,-4.0769863E-1,3.6040035E-1,5.0707977E-2,-5.000867E-1,8.9579463E-1,-1.9337231E-1,-2.5584686E-1,7.810179E-1,-5.4596615E-1,-0E0,1.1380091E0,-0E0,7.709779E-2,-3.838569E-1],"categories":[],"categories_nodes":[],"categories_segments":[],"categories_sizes":[],"default_left":[1,1,1,1,1,1,1,0,0,0,0,0,0,0,0],"id":33,"left_children":[1,3,5,7,9,11,13,-1,-1,-1,-1,-1,-1,-1,-1],"loss_changes":[7.9464493E0,2.4027114E0,6.215028E0,2.231321E0,1.2260466E0,3.2044191E0,7.875079E-1,0E0,0E0,0E0,0E0,0E0,0E0,0E0,0E0],"parents":[2147483647,0,0,1,1,2,2,3,3,4,4,5,5,6,6],"right_children":[2,4,6,8,10,12,14,-1,-1,-1,-1,-1,-1,-1,-1],"split_conditions":[9.225E2,3.21E2,2.183E3,7.785E2,9.765E2,4.845E2,1.38E2,-2.5584687E-2,7.810179E-2,-5.4596614E-2,-0E0,1.13800906E-1,-0E0,7.709779E-3,-3.838569E-2],"split_indices":[52,88,102,38,21,106,63,0,0,0,0,0,0,0,0],"split_type":[0,0,0,0,0,0,0,0,0,0,0,0,0,0,0],"sum_hessian":[6.1532223E1,4.4523376E1,1.7008846E1,5.728286E0,3.879509E1,9.252036E0,7.7568097E0,3.5278344E0,2.2004516E0,3.6501026E1,2.294064E0,7.8266983E0,1.425338E0,1.2819905E0,6.474819E0],"tree_param":{"num_deleted":"0","num_feature":"107","num_nodes":"15","size_leaf_vector":"0"}},{"base_weights":[-1.3772E-1,7.463181E-1,-2.4733599E-1,-0E0,1.033869E0,1.881646E-1,-3.7316266E-1,9.5058995E-1,-3.5636875E-1,-4.296739E-1,2.3073366E-1],"categories":[],"categories_nodes":[],"categories_segments":[],"categories_sizes":[],"default_left":[1,1,1,0,0,1,1,0,0,0,0],"id":34,"left_children":[1,3,5,-1,-1,7,9,-1,-1,-1,-1],"loss_changes":[5.6800027E0,1.961859E0,3.3672848E0,0E0,0E0,5.754624E0,1.8740067E0,0E0,0E0,0E0,0E0],"parents":[2147483647,0,0,1,1,2,2,5,5,6,6],"right_children":[2,4,6,-1,-1,8,10,-1,-1,-1,-1],"split_conditions":[3.694E3,1.635E2,2.6515E3,-0E0,1.033869E-1,2.775E2,6.945E2,9.5059E-2,-3.5636876E-2,-4.296739E-2,2.3073366E-2],"split_indices":[9,4,6,0,0,2,49,0,0,0,0],"split_type":[0,0,0,0,0,0,0,0,0,0,0],"sum_hessian":[6.085864E1,5.0665293E0,5.579211E1,1.0698652E0,3.9966638E0,1.0613768E1,4.517834E1,4.876584E0,5.7371836E0,4.3090446E1,2.0878978E0],"tree_param":{"num_deleted":"0","num_feature":"107","num_nodes":"11","size_leaf_vector":"0"}},{"base_weights":[2.9698426E-1,-2.7659988E-1,4.3592042E-1,-4.7718316E-1,-0E0,-3.251891E-1,5.5456895E-1,3.4515288E-1,-1.0559905E-1,-0E0,-4.0946424E-1,6.9248855E-1,-0E0],"categories":[],"categories_nodes":[],"categories_segments":[],"categories_sizes":[],"default_left":[1,1,1,0,1,1,1,1,1,1,1,0,0],"id":35,"left_children":[1,3,5,-1,-1,-1,11,-1,-1,-1,-1,-1,-1],"loss_changes":[6.855131E0,1.2615535E0,6.569538E0,0E0,4.4843417E-1,3.703801E-1,4.4190826E0,0E0,0E0,0E0,0E0,0E0,0E0],"parents":[2147483647,0,0,1,1,2,2,4,4,5,5,6,6],"right_children":[2,4,6,-1,-1,-1,12,-1,-1,-1,-1,-1,-1],"split_conditions":[8.875E2,1.38E2,2.7515E3,-4.7718316E-2,-0E0,-3.2518912E-2,6.185E2,3.4515288E-2,-1.0559905E-2,-0E0,-4.0946424E-2,6.9248855E-2,-0E0],"split_indices":[50,79,74,0,4,42,25,2147483647,2147483647,2147483647,2147483647,0,0],"split_type":[0,0,0,0,0,0,0,0,0,0,0,0,0],"sum_hessian":[8.150853E1,1.4296881E1,6.721165E1,9.680015E0,4.6168656E0,7.6930475E0,5.9518597E1,2.4696307E0,2.1472352E0,1.0010234E0,6.692024E0,4.702803E1,1.2490569E1],"tree_param":{"num_deleted":"4","num_feature":"107","num_nodes":"13","size_leaf_vector":"0"}},{"base_weights":[-1.0438252E-1,3.4345388E-1,-2.4833646E-1,-2.6410326E-1,6.647878E-1,-3.608929E-1,2.1987285E-1,9.523128E-1,-7.3820055E-2,-5.0612974E-1,-0E0,-9.460675E-2,7.2933024E-1],"categories":[],"categories_nodes":[],"categories_segments":[],"categories_sizes":[],"default_left":[1,1,1,0,1,1,1,0,0,0,0,0,0],"id":36,"left_children":[1,3,5,-1,7,9,11,-1,-1,-1,-1,-1,-1],"loss_changes":[4.188156E0,3.4206967E0,2.9369333E0,0E0,3.2615862E0,1.8523283E0,2.1280005E0,0E0,0E0,0E0,0E0,0E0,0E0],"parents":[2147483647,0,0,1,1,2,2,4,4,5,5,6,6],"right_children":[2,4,6,-1,8,10,12,-1,-1,-1,-1,-1,-1],"split_conditions":[1.2185E3,3.832E3,6.525E2,-2.6410326E-2,6.62E2,2.025E2,7.745E2,9.523129E-2,-7.3820055E-3,-5.0612975E-2,-0E0,-9.4606755E-3,7.2933026E-2],"split_indices":[78,9,75,0,49,26,69,0,0,0,0,0,0],"split_type":[0,0,0,0,0,0,0,0,0,0,0,0,0],"sum_hessian":[6.4117485E1,1.3569778E1,5.0547703E1,3.6792917E0,9.890487E0,4.2657856E1,7.8898473E0,7.885418E0,2.005069E0,2.842799E1,1.4229867E1,4.1682696E0,3.7215776E0],"tree_param":{"num_deleted":"0","num_feature":"107","num_nodes":"13","size_leaf_vector":"0"}},{"base_weights":[-1.8087136E-2,-1.3513094E-1,4.9480048E-1,-4.7947252E-1,3.4568273E-2,8.295789E-1,-0E0,-0E0,-5.2413297E-1,7.4226063E-1,-9.227655E-2,1.0453933E0,-0E0,-1.8648285E-1,1.3835347E-1],"categories":[],"categories_nodes":[],"categories_segments":[],"categories_sizes":[],"default_left":[1,1,1,1,1,1,1,1,1,0,0,0,0,1,1],"id":37,"left_children":[1,3,5,-1,9,11,-1,-1,-1,-1,-1,-1,-1,-1,-1],"loss_changes":[3.6854408E0,3.753108E0,2.1693535E0,6.2592745E-1,4.014855E0,1.2618499E0,1.7284103E-1,0E0,0E0,0E0,0E0,0E0,0E0,0E0,0E0],"parents":[2147483647,0,0,1,1,2,2,3,3,4,4,5,5,6,6],"right_children":[2,4,6,-1,10,12,-1,-1,-1,-1,-1,-1,-1,-1,-1],"split_conditions":[4.35E1,1.785E2,1.8685E3,-4.7947254E-2,1.3515E3,2.2545E3,-0E0,-0E0,-5.2413296E-2,7.422607E-2,-9.227655E-3,1.04539335E-1,-0E0,-1.8648285E-2,1.3835347E-2],"split_indices":[42,7,96,85,91,102,96,2147483647,2147483647,0,0,0,0,2147483647,2147483647],"split_type":[0,0,0,0,0,0,0,0,0,0,0,0,0,0,0],"sum_hessian":[6.5270645E1,5.5330246E1,9.940395E0,1.9608807E1,3.572144E1,6.044254E0,3.8961415E0,1.0839947E0,1.852481E1,5.890288E0,2.9831154E1,4.590637E0,1.4536165E0,2.8364027E0,1.0597389E0],"tree_param":{"num_deleted":"4","num_feature":"107","num_nodes":"15","size_leaf_vector":"0"}},{"base_weights":[-2.3705617E-1,3.1345236E-1,-4.1270122E-1,7.617925E-1,-2.9865143E-1,-4.990496E-1,-0E0,-0E0,9.67181E-1,1.2628634E-1,-5.4556763E-1,-2.9672477E-1,4.8376295E-1],"categories":[],"categories_nodes":[],"categories_segments":[],"categories_sizes":[],"default_left":[1,1,1,1,0,1,1,0,0,0,0,0,0],"id":38,"left_children":[1,3,5,7,-1,9,11,-1,-1,-1,-1,-1,-1],"loss_changes":[5.9621463E0,4.4047656E0,1.8367224E0,1.0378695E0,0E0,1.6329813E0,1.4141712E0,0E0,0E0,0E0,0E0,0E0,0E0],"parents":[2147483647,0,0,1,1,2,2,3,3,5,5,6,6],"right_children":[2,4,6,8,-1,10,12,-1,-1,-1,-1,-1,-1],"split_conditions":[3.775E2,1.7875E3,1.2835E3,9.015E2,-2.9865144E-2,2.1245E3,6.91E2,-0E0,9.67181E-2,1.2628634E-2,-5.4556765E-2,-2.9672477E-2,4.8376296E-2],"split_indices":[36,15,93,50,0,30,61,0,0,0,0,0,0],"split_type":[0,0,0,0,0,0,0,0,0,0,0,0,0],"sum_hessian":[5.8295605E1,1.2533888E1,4.576172E1,8.036589E0,4.497299E0,3.835461E1,7.4071054E0,2.3209689E0,5.7156196E0,1.0484623E0,3.730615E1,4.393453E0,3.0136523E0],"tree_param":{"num_deleted":"0","num_feature":"107","num_nodes":"13","size_leaf_vector":"0"}},{"base_weights":[-8.658819E-2,2.1513516E-1,-4.4145775E-1,6.752301E-1,-1.391407E-1,1.552454E-3,-5.008357E-1,-0E0,9.87119E-1,-3.1217936E-1,4.0209416E-1,-0E0,-5.327607E-1],"categories":[],"categories_nodes":[],"categories_segments":[],"categories_sizes":[],"default_left":[1,1,1,1,1,0,1,0,0,0,0,1,1],"id":39,"left_children":[1,3,5,7,9,-1,-1,-1,-1,-1,-1,-1,-1],"loss_changes":[7.0851026E0,6.0565095E0,1.3123422E0,3.489831E0,1.7597603E0,0E0,6.689162E-1,0E0,0E0,0E0,0E0,0E0,0E0],"parents":[2147483647,0,0,1,1,2,2,3,3,4,4,6,6],"right_children":[2,4,6,8,10,-1,-1,-1,-1,-1,-1,-1,-1],"split_conditions":[4.985E2,1.7255E3,8.825E2,3.985E2,1.375E2,1.552454E-4,-5.0083574E-2,-0E0,9.87119E-2,-3.1217936E-2,4.0209416E-2,-0E0,-5.327607E-2],"split_indices":[20,99,82,59,12,0,38,0,0,0,0,2147483647,2147483647],"split_type":[0,0,0,0,0,0,0,0,0,0,0,0,0],"sum_hessian":[6.217039E1,3.2291107E1,2.9879282E1,1.4881435E1,1.7409674E1,1.6560848E0,2.8223196E1,4.8688126E0,1.0012623E1,1.4912744E1,2.4969296E0,1.0406653E0,2.7182531E1],"tree_param":{"num_deleted":"2","num_feature":"107","num_nodes":"13","size_leaf_vector":"0"}},{"base_weights":[2.6642257E-1,-1.0365892E-1,5.2127737E-1,-3.926915E-1,1.1783253E-1,7.226637E-1,-0E0,-0E0,-5.328327E-1,-4.2540887E-1,4.920314E-1,-4.063592E-2,8.171447E-1,-2.5257444E-1,2.9418185E-1],"categories":[],"categories_nodes":[],"categories_segments":[],"categories_sizes":[],"default_left":[1,1,1,1,1,1,1,0,0,0,0,0,0,0,0],"id":40,"left_children":[1,3,5,7,9,11,13,-1,-1,-1,-1,-1,-1,-1,-1],"loss_changes":[8.783552E0,2.572848E0,5.5057707E0,1.2841723E0,4.082078E0,3.5945702E0,1.2974112E0,0E0,0E0,0E0,0E0,0E0,0E0,0E0,0E0],"parents":[2147483647,0,0,1,1,2,2,3,3,4,4,5,5,6,6],"right_children":[2,4,6,8,10,12,14,-1,-1,-1,-1,-1,-1,-1,-1],"split_conditions":[3.26E2,1.268E3,1.975E2,3.505E2,1.805E2,9.125E2,9.905E2,-0E0,-5.328327E-2,-4.254089E-2,4.920314E-2,-4.0635923E-3,8.171447E-2,-2.5257444E-2,2.9418185E-2],"split_indices":[80,78,27,83,27,94,84,0,0,0,0,0,0,0,0],"split_type":[0,0,0,0,0,0,0,0,0,0,0,0,0,0,0],"sum_hessian":[8.712721E1,3.4173058E1,5.2954155E1,1.6449451E1,1.7723608E1,3.761564E1,1.5338517E1,3.4485927E0,1.3000859E1,6.0831685E0,1.1640439E1,3.040182E0,3.4575455E1,7.9285035E0,7.410013E0],"tree_param":{"num_deleted":"0","num_feature":"107","num_nodes":"15","size_leaf_vector":"0"}},{"base_weights":[-1.2626198E-1,-4.3780223E-1,1.0168735E-1,1.3928187E-1,-5.006576E-1,-1.6552782E-1,3.817172E-1,-5.315819E-1,-0E0,-3.982879E-1,2.335592E-1,-8.076917E-2,5.6248784E-1],"categories":[],"categories_nodes":[],"categories_segments":[],"categories_sizes":[],"default_left":[1,1,1,0,1,1,1,1,1,0,0,0,0],"id":41,"left_children":[1,3,5,-1,-1,9,11,-1,-1,-1,-1,-1,-1],"loss_changes":[4.902243E0,1.4810185E0,2.9526913E0,0E0,6.065073E-1,1.8509822E0,2.1636593E0,0E0,0E0,0E0,0E0,0E0,0E0],"parents":[2147483647,0,0,1,1,2,2,4,4,5,5,6,6],"right_children":[2,4,6,-1,-1,10,12,-1,-1,-1,-1,-1,-1],"split_conditions":[1.655E2,1.1125E3,1.735E2,1.3928187E-2,-5.0065763E-2,9.785E2,3.26E2,-5.315819E-2,-0E0,-3.982879E-2,2.3355922E-2,-8.076916E-3,5.6248784E-2],"split_indices":[55,93,86,0,100,50,88,2147483647,2147483647,0,0,0,0],"split_type":[0,0,0,0,0,0,0,0,0,0,0,0,0],"sum_hessian":[6.267084E1,2.794479E1,3.472605E1,1.062686E0,2.6882105E1,1.615151E1,1.8574541E1,2.5878761E1,1.0033435E0,1.1785537E1,4.365973E0,3.820764E0,1.4753777E1],"tree_param":{"num_deleted":"2","num_feature":"107","num_nodes":"13","size_leaf_vector":"0"}},{"base_weights":[-1.9494435E-2,-3.218881E-1,2.2284009E-1,-4.209327E-1,2.957064E-1,2.1437593E-2,7.716911E-1,-5.008329E-1,-0E0,6.3130075E-1,-0E0,3.234749E-1,-3.3072814E-1,1.0771818E0,-0E0],"categories":[],"categories_nodes":[],"categories_segments":[],"categories_sizes":[],"default_left":[1,1,1,1,1,1,1,0,0,0,0,0,0,0,0],"id":42,"left_children":[1,3,5,7,9,11,13,-1,-1,-1,-1,-1,-1,-1,-1],"loss_changes":[5.2515354E0,2.2737484E0,3.3072617E0,1.207129E0,7.591466E-1,3.2489798E0,3.0763288E0,0E0,0E0,0E0,0E0,0E0,0E0,0E0,0E0],"parents":[2147483647,0,0,1,1,2,2,3,3,4,4,5,5,6,6],"right_children":[2,4,6,8,10,12,14,-1,-1,-1,-1,-1,-1,-1,-1],"split_conditions":[3.917E3,4.45E1,8.955E2,2.03E2,6.1E2,1.645E2,1.4455E3,-5.008329E-2,-0E0,6.313007E-2,-0E0,3.2347493E-2,-3.3072814E-2,1.07718185E-1,-0E0],"split_indices":[9,42,101,7,49,55,91,0,0,0,0,0,0,0,0],"split_type":[0,0,0,0,0,0,0,0,0,0,0,0,0,0,0],"sum_hessian":[6.833309E1,3.208924E1,3.624385E1,2.9324104E1,2.7651367E0,2.8607347E1,7.636504E0,2.523287E1,4.0912347E0,1.73091E0,1.0342268E0,1.6972128E1,1.163522E1,6.083755E0,1.5527489E0],"tree_param":{"num_deleted":"0","num_feature":"107","num_nodes":"15","size_leaf_vector":"0"}},{"base_weights":[-2.0543006E-1,4.018188E-1,-4.0789682E-1,-7.723529E-2,8.772802E-1,-1.10327015E-2,-5.34087E-1,-3.1155327E-1,1.3045563E-1,9.641597E-1,-0E0,3.2794905E-1,-3.1249753E-1],"categories":[],"categories_nodes":[],"categories_segments":[],"categories_sizes":[],"default_left":[1,1,1,1,1,1,0,1,1,1,1,0,0],"id":43,"left_children":[1,3,5,-1,-1,11,-1,-1,-1,-1,-1,-1,-1],"loss_changes":[7.392601E0,4.047009E0,1.7420473E0,5.538412E-1,3.6582613E-1,1.5156109E0,0E0,0E0,0E0,0E0,0E0,0E0,0E0],"parents":[2147483647,0,0,1,1,2,2,3,3,4,4,5,5],"right_children":[2,4,6,-1,-1,12,-1,-1,-1,-1,-1,-1,-1],"split_conditions":[3.295E2,9.155E2,2.1785E3,-7.723529E-3,8.7728016E-2,1.721E3,-5.34087E-2,-3.1155327E-2,1.3045563E-2,9.6415974E-2,-0E0,3.2794904E-2,-3.1249752E-2],"split_indices":[1,52,102,77,66,44,0,2147483647,2147483647,2147483647,2147483647,0,0],"split_type":[0,0,0,0,0,0,0,0,0,0,0,0,0],"sum_hessian":[5.7745483E1,1.2957868E1,4.4787613E1,5.8240976E0,7.13377E0,1.2979493E1,3.180812E1,4.764044E0,1.0600538E0,6.127489E0,1.0062809E0,4.5068183E0,8.472675E0],"tree_param":{"num_deleted":"4","num_feature":"107","num_nodes":"13","size_leaf_vector":"0"}},{"base_weights":[-1.9426396E-1,-3.5341263E-1,3.3439404E-1,-0E0,-4.4986704E-1,6.7753357E-1,-6.162108E-3,4.1830075E-1,-2.471865E-1,-4.9316868E-1,-0E0,1.0119957E0,-0E0,9.822346E-2,-2.6165214E-1],"categories":[],"categories_nodes":[],"categories_segments":[],"categories_sizes":[],"default_left":[1,1,1,1,1,1,1,0,0,0,0,0,0,1,1],"id":44,"left_children":[1,3,5,7,9,11,-1,-1,-1,-1,-1,-1,-1,-1,-1],"loss_changes":[5.055879E0,2.0447292E0,2.1464553E0,1.1876352E0,1.0833478E0,2.1536107E0,3.4503046E-1,0E0,0E0,0E0,0E0,0E0,0E0,0E0,0E0],"parents":[2147483647,0,0,1,1,2,2,3,3,4,4,5,5,6,6],"right_children":[2,4,6,8,10,12,-1,-1,-1,-1,-1,-1,-1,-1,-1],"split_conditions":[1.5915E3,2.6515E3,4.295E2,5.02E2,2.3345E3,1.1825E3,-6.162108E-4,4.1830074E-2,-2.471865E-2,-4.931687E-2,-0E0,1.0119957E-1,-0E0,9.822346E-3,-2.6165215E-2],"split_indices":[33,6,39,20,102,13,6,0,0,0,0,0,0,2147483647,2147483647],"split_type":[0,0,0,0,0,0,0,0,0,0,0,0,0,0,0],"sum_hessian":[5.7461628E1,4.587451E1,1.1587116E1,7.8421764E0,3.8032337E1,6.7414293E0,4.845687E0,4.148364E0,3.6938124E0,3.5933224E1,2.099113E0,4.5728264E0,2.1686034E0,1.098411E0,3.747276E0],"tree_param":{"num_deleted":"2","num_feature":"107","num_nodes":"15","size_leaf_vector":"0"}},{"base_weights":[2.981319E-1,4.590798E-1,-2.1986803E-1,3.7723675E-2,6.8319315E-1,-4.477517E-1,6.351323E-2,-3.3804026E-1,3.5701978E-1,-0E0,8.0134207E-1,-5.037821E-1,-0E0,5.299344E-1,-2.2443607E-1],"categories":[],"categories_nodes":[],"categories_segments":[],"categories_sizes":[],"default_left":[1,1,1,1,1,1,1,0,0,0,0,1,1,0,0],"id":45,"left_children":[1,3,5,7,9,-1,13,-1,-1,-1,-1,-1,-1,-1,-1],"loss_changes":[7.4798455E0,5.5928345E0,1.6722131E0,3.2492032E0,4.0074043E0,4.1855812E-1,1.4469461E0,0E0,0E0,0E0,0E0,0E0,0E0,0E0,0E0],"parents":[2147483647,0,0,1,1,2,2,3,3,4,4,5,5,6,6],"right_children":[2,4,6,8,10,-1,14,-1,-1,-1,-1,-1,-1,-1,-1],"split_conditions":[1.099E3,3.195E2,4.045E2,1.195E2,8.78E2,-4.477517E-2,1.633E3,-3.3804026E-2,3.570198E-2,-0E0,8.0134206E-2,-5.037821E-2,-0E0,5.2993443E-2,-2.2443607E-2],"split_indices":[82,80,71,79,21,36,33,0,0,0,0,2147483647,2147483647,0,0],"split_type":[0,0,0,0,0,0,0,0,0,0,0,0,0,0,0],"sum_hessian":[8.4637665E1,6.6133545E1,1.850412E1,2.4917133E1,4.121641E1,1.1890802E1,6.6133175E0,9.98072E0,1.4936413E1,5.2903533E0,3.592606E1,1.0832032E1,1.0587701E0,3.529188E0,3.0841298E0],"tree_param":{"num_deleted":"2","num_feature":"107","num_nodes":"15","size_leaf_vector":"0"}},{"base_weights":[-1.3006958E-1,3.6605823E-1,-3.0143523E-1,7.247141E-1,-5.6032225E-2,-3.5500458E-1,5.227736E-1,9.094805E-1,-0E0,-3.0952564E-1,1.5622635E-1,-4.0577853E-1,1.1125123E-1],"categories":[],"categories_nodes":[],"categories_segments":[],"categories_sizes":[],"default_left":[1,1,1,1,1,1,0,0,0,1,1,0,0],"id":46,"left_children":[1,3,5,7,-1,11,-1,-1,-1,-1,-1,-1,-1],"loss_changes":[5.308443E0,2.9566238E0,2.1395679E0,1.8884282E0,5.496145E-1,1.4489546E0,0E0,0E0,0E0,0E0,0E0,0E0,0E0],"parents":[2147483647,0,0,1,1,2,2,3,3,4,4,5,5],"right_children":[2,4,6,8,-1,12,-1,-1,-1,-1,-1,-1,-1],"split_conditions":[1.2185E3,8.555E2,7.305E2,6.625E2,-5.6032226E-3,1.071E3,5.2277364E-2,9.094805E-2,-0E0,-3.0952564E-2,1.5622635E-2,-4.0577855E-2,1.1125123E-2],"split_indices":[78,52,49,49,21,66,0,0,0,2147483647,2147483647,0,0],"split_type":[0,0,0,0,0,0,0,0,0,0,0,0,0],"sum_hessian":[6.0900368E1,1.3845138E1,4.705523E1,8.378236E0,5.466902E0,4.5857304E1,1.1979257E0,7.237849E0,1.1403865E0,4.429674E0,1.0372273E0,4.3405067E1,2.4522371E0],"tree_param":{"num_deleted":"2","num_feature":"107","num_nodes":"13","size_leaf_vector":"0"}},{"base_weights":[-1.7439306E-2,-3.1777662E-1,1.4793622E-1,1.3859907E-1,-4.7815248E-1,-7.901585E-2,5.3454673E-1,-6.2615514E-2,5.218834E-1,-0E0,-5.188137E-1,-2.557938E-1,2.4729168E-1,7.61954E-1,-1.9089414E-1],"categories":[],"categories_nodes":[],"categories_segments":[],"categories_sizes":[],"default_left":[1,1,1,1,1,1,1,0,0,1,1,0,0,0,0],"id":47,"left_children":[1,3,5,7,-1,11,13,-1,-1,-1,-1,-1,-1,-1,-1],"loss_changes":[3.4719925E0,2.2895846E0,4.0776486E0,9.4283783E-1,5.6729937E-1,1.5109626E0,3.4963045E0,0E0,0E0,0E0,0E0,0E0,0E0,0E0,0E0],"parents":[2147483647,0,0,1,1,2,2,3,3,4,4,5,5,6,6],"right_children":[2,4,6,8,-1,12,14,-1,-1,-1,-1,-1,-1,-1,-1],"split_conditions":[1.835E2,3.85E1,3.905E2,1.865E2,-4.781525E-2,2.6125E3,1.0045E3,-6.2615513E-3,5.2188344E-2,-0E0,-5.1881373E-2,-2.5579382E-2,2.4729168E-2,7.6195404E-2,-1.9089414E-2],"split_indices":[7,35,83,55,32,56,66,0,0,2147483647,2147483647,0,0,0,0],"split_type":[0,0,0,0,0,0,0,0,0,0,0,0,0,0,0],"sum_hessian":[6.4537415E1,2.4737364E1,3.980005E1,4.846445E0,1.9890919E1,2.3949818E1,1.5850232E1,2.015804E0,2.830641E0,1.0386622E0,1.8852257E1,1.7662048E1,6.2877707E0,1.3078572E1,2.7716596E0],"tree_param":{"num_deleted":"2","num_feature":"107","num_nodes":"15","size_leaf_vector":"0"}},{"base_weights":[-1.4771701E-1,4.7890487E-1,-3.546988E-1,8.074312E-1,-2.025032E-1,-0E0,-5.014833E-1,9.104827E-1,-0E0,6.958444E-1,-3.2901663E-1,-0E0,-5.28328E-1],"categories":[],"categories_nodes":[],"categories_segments":[],"categories_sizes":[],"default_left":[1,1,1,1,0,1,1,0,0,0,0,1,1],"id":48,"left_children":[1,3,5,7,-1,9,-1,-1,-1,-1,-1,-1,-1],"loss_changes":[7.435848E0,3.7622867E0,2.4373736E0,7.48755E-1,0E0,3.4264364E0,5.691366E-1,0E0,0E0,0E0,0E0,0E0,0E0],"parents":[2147483647,0,0,1,1,2,2,3,3,5,5,6,6],"right_children":[2,4,6,8,-1,10,-1,-1,-1,-1,-1,-1,-1],"split_conditions":[1.686E3,3.23E2,8.065E2,1.94E2,-2.025032E-2,1.495E2,-5.0148334E-2,9.104827E-2,-0E0,6.9584444E-2,-3.2901663E-2,-0E0,-5.28328E-2],"split_indices":[44,80,37,7,0,92,85,0,0,0,0,2147483647,2147483647],"split_type":[0,0,0,0,0,0,0,0,0,0,0,0,0],"sum_hessian":[5.597938E1,1.23737335E1,4.3605648E1,9.214003E0,3.159731E0,1.2598771E1,3.1006878E1,7.935965E0,1.2780379E0,3.9105022E0,8.68827E0,1.1309829E0,2.9875895E1],"tree_param":{"num_deleted":"2","num_feature":"107","num_nodes":"13","size_leaf_vector":"0"}},{"base_weights":[-5.7886437E-2,3.145478E-1,-2.793582E-1,6.679338E-1,-5.8207815E-3,-4.053618E-1,4.6073467E-2,-0E0,8.334674E-1,-3.5856733E-1,2.616951E-1,-0E0,-5.16728E-1,-2.9832175E-1,5.5201143E-1],"categories":[],"categories_nodes":[],"categories_segments":[],"categories_sizes":[],"default_left":[1,1,1,1,1,1,1,0,0,0,0,0,0,0,0],"id":49,"left_children":[1,3,5,7,9,11,13,-1,-1,-1,-1,-1,-1,-1,-1],"loss_changes":[5.07592E0,3.0997088E0,2.0347211E0,1.99617E0,1.208168E0,1.438734E0,2.1538293E0,0E0,0E0,0E0,0E0,0E0,0E0,0E0,0E0],"parents":[2147483647,0,0,1,1,2,2,3,3,4,4,5,5,6,6],"right_children":[2,4,6,8,10,12,14,-1,-1,-1,-1,-1,-1,-1,-1],"split_conditions":[1.6015E3,1.726E3,1.12E3,5.505E2,6.935E2,5.955E2,4.15E1,-0E0,8.334675E-2,-3.5856735E-2,2.6169509E-2,-0E0,-5.1672798E-2,-2.9832175E-2,5.5201143E-2],"split_indices":[89,99,76,75,85,75,19,0,0,0,0,0,0,0,0],"split_type":[0,0,0,0,0,0,0,0,0,0,0,0,0,0,0],"sum_hessian":[5.9899784E1,2.0496569E1,3.9403214E1,1.0714422E1,9.7821455E0,3.0443178E1,8.960036E0,1.3175257E0,9.396896E0,5.6844134E0,4.0977325E0,6.7044997E0,2.373868E1,4.3992624E0,4.560774E0],"tree_param":{"num_deleted":"0","num_feature":"107","num_nodes":"15","size_leaf_vector":"0"}},{"base_weights":[2.696986E-1,-8.368988E-3,4.9061224E-1,-1.7481275E-1,4.5800957E-1,-2.3703499E-1,5.938047E-1,-4.2922822E-1,3.1018483E-2,-6.6569075E-2,7.205975E-1,-0E0,-3.4212223E-1,-0E0,7.031263E-1],"categories":[],"categories_nodes":[],"categories_segments":[],"categories_sizes":[],"default_left":[1,1,1,1,1,1,1,0,0,0,0,1,1,0,0],"id":50,"left_children":[1,3,5,7,9,-1,13,-1,-1,-1,-1,-1,-1,-1,-1],"loss_changes":[6.0242004E0,2.8158486E0,4.4215393E0,2.033123E0,1.931423E0,2.4782845E-1,2.997385E0,0E0,0E0,0E0,0E0,0E0,0E0,0E0,0E0],"parents":[2147483647,0,0,1,1,2,2,3,3,4,4,5,5,6,6],"right_children":[2,4,6,8,10,-1,14,-1,-1,-1,-1,-1,-1,-1,-1],"split_conditions":[1.915E2,1.8385E3,1.22E3,1.245E2,2.074E3,-2.3703499E-2,2.6515E3,-4.292282E-2,3.1018483E-3,-6.6569075E-3,7.205975E-2,-0E0,-3.4212224E-2,-0E0,7.0312634E-2],"split_indices":[28,70,78,79,11,57,6,0,0,0,0,2147483647,2147483647,0,0],"split_type":[0,0,0,0,0,0,0,0,0,0,0,0,0,0,0],"sum_hessian":[8.915055E1,3.789144E1,5.1259106E1,2.9966265E1,7.9251757E0,5.001823E0,4.6257282E1,1.5088857E1,1.4877409E1,1.6223683E0,6.3028073E0,1.0034773E0,3.9983454E0,7.4898334E0,3.8767452E1],"tree_param":{"num_deleted":"2","num_feature":"107","num_nodes":"15","size_leaf_vector":"0"}},{"base_weights":[-6.082283E-2,-4.2820814E-1,1.466227E-1,-5.053289E-1,-0E0,-1.8111102E-1,4.1076273E-1,2.8328365E-1,-3.8999653E-1,7.05011E-1,-0E0],"categories":[],"categories_nodes":[],"categories_segments":[],"categories_sizes":[],"default_left":[1,1,1,0,0,1,1,0,0,0,0],"id":51,"left_children":[1,3,5,-1,-1,7,9,-1,-1,-1,-1],"loss_changes":[4.710303E0,1.2385559E0,3.3874168E0,0E0,0E0,1.6625724E0,3.2857454E0,0E0,0E0,0E0,0E0],"parents":[2147483647,0,0,1,1,2,2,5,5,6,6],"right_children":[2,4,6,-1,-1,8,10,-1,-1,-1,-1],"split_conditions":[1.2095E3,2.248E3,4.235E2,-5.053289E-2,-0E0,2.232E3,1.579E3,2.8328365E-2,-3.8999654E-2,7.0501104E-2,-0E0],"split_indices":[31,11,90,0,0,30,33,0,0,0,0],"split_type":[0,0,0,0,0,0,0,0,0,0,0],"sum_hessian":[5.6286343E1,2.1668266E1,3.4618076E1,2.0127493E1,1.5407724E0,1.3900006E1,2.0718071E1,2.7167168E0,1.118329E1,1.2983063E1,7.7350087E0],"tree_param":{"num_deleted":"0","num_feature":"107","num_nodes":"11","size_leaf_vector":"0"}},{"base_weights":[-0E0,5.941691E-1,-8.689503E-2,8.635078E-1,-0E0,-2.652556E-1,2.5472283E-1,-0E0,1.0656469E0,6.105941E-3,-4.0602314E-1,5.70366E-1,-1.4053367E-1],"categories":[],"categories_nodes":[],"categories_segments":[],"categories_sizes":[],"default_left":[1,1,1,1,0,1,1,0,0,0,0,0,0],"id":52,"left_children":[1,3,5,7,-1,9,11,-1,-1,-1,-1,-1,-1],"loss_changes":[3.3199782E0,2.1043437E0,3.5023837E0,1.0841312E0,0E0,1.9049528E0,2.7387223E0,0E0,0E0,0E0,0E0,0E0,0E0],"parents":[2147483647,0,0,1,1,2,2,3,3,5,5,6,6],"right_children":[2,4,6,8,-1,10,12,-1,-1,-1,-1,-1,-1],"split_conditions":[9.01E2,2.802E3,2.3115E3,8.765E2,-0E0,1.3505E3,9.795E2,-0E0,1.0656469E-1,6.105941E-4,-4.0602315E-2,5.7036605E-2,-1.4053367E-2],"split_indices":[48,6,64,48,0,91,66,0,0,0,0,0,0],"split_type":[0,0,0,0,0,0,0,0,0,0,0,0,0],"sum_hessian":[6.2401302E1,7.2020664E0,5.5199238E1,5.7055645E0,1.4965014E0,3.8335068E1,1.686417E1,1.3479664E0,4.3575983E0,1.0994118E1,2.734095E1,1.0536737E1,6.3274326E0],"tree_param":{"num_deleted":"0","num_feature":"107","num_nodes":"13","size_leaf_vector":"0"}},{"base_weights":[-1.3340434E-1,1.3507116E-1,-5.08802E-1,4.9779722E-1,-3.8176847E-1,-0E0,8.058638E-1,-0E0,-4.4577855E-1],"categories":[],"categories_nodes":[],"categories_segments":[],"categories_sizes":[],"default_left":[1,1,0,1,1,0,0,1,1],"id":53,"left_children":[1,3,-1,5,-1,-1,-1,-1,-1],"loss_changes":[6.2187734E0,6.427472E0,0E0,3.2801275E0,4.815427E-1,0E0,0E0,0E0,0E0],"parents":[2147483647,0,0,1,1,3,3,4,4],"right_children":[2,4,-1,6,-1,-1,-1,-1,-1],"split_conditions":[4.005E2,1.1655E3,-5.08802E-2,4.375E2,-3.8176846E-2,-0E0,8.058638E-2,-0E0,-4.4577856E-2],"split_indices":[80,13,0,14,36,0,0,2147483647,2147483647],"split_type":[0,0,0,0,0,0,0,0,0],"sum_hessian":[5.6313232E1,3.165248E1,2.4660753E1,1.9757816E1,1.1894663E1,7.786236E0,1.1971581E1,1.0140224E0,1.088064E1],"tree_param":{"num_deleted":"2","num_feature":"107","num_nodes":"9","size_leaf_vector":"0"}},{"base_weights":[-9.141175E-2,-3.2483205E-1,3.293425E-1,2.3843953E-1,-4.2793694E-1,5.8179325E-1,-9.2396185E-2,6.720239E-1,-2.085672E-2,4.2306315E-2,-4.794314E-1,7.780267E-1,-7.158254E-2,-3.1962714E-1,1.0152744E-1],"categories":[],"categories_nodes":[],"categories_segments":[],"categories_sizes":[],"default_left":[1,1,1,1,1,1,1,0,0,0,0,0,0,1,1],"id":54,"left_children":[1,3,5,7,9,11,-1,-1,-1,-1,-1,-1,-1,-1,-1],"loss_changes":[5.8562636E0,2.5979123E0,2.6588933E0,1.259485E0,1.315268E0,2.5637064E0,5.511117E-1,0E0,0E0,0E0,0E0,0E0,0E0,0E0,0E0],"parents":[2147483647,0,0,1,1,2,2,3,3,4,4,5,5,6,6],"right_children":[2,4,6,8,10,12,-1,-1,-1,-1,-1,-1,-1,-1,-1],"split_conditions":[1.1E3,5.43E2,4.45E2,3.67E2,2E1,4.19E2,-9.239619E-3,6.720239E-2,-2.085672E-3,4.2306315E-3,-4.794314E-2,7.780267E-2,-7.1582543E-3,-3.1962715E-2,1.0152744E-2],"split_indices":[82,49,39,71,32,71,8,0,0,0,0,0,0,2147483647,2147483647],"split_type":[0,0,0,0,0,0,0,0,0,0,0,0,0,0,0],"sum_hessian":[5.7585087E1,3.871305E1,1.8872036E1,4.2861223E0,3.442693E1,1.3051247E1,5.820788E0,2.4515736E0,1.8345487E0,1.4988066E0,3.2928123E1,1.1067109E1,1.9841383E0,4.756175E0,1.0646131E0],"tree_param":{"num_deleted":"2","num_feature":"107","num_nodes":"15","size_leaf_vector":"0"}},{"base_weights":[2.0484808E-1,-3.6326382E-1,3.1880862E-1,-4.9014923E-1,-0E0,-1.6735229E-1,4.3677506E-1,1.2899446E-1,-3.328641E-1,-0E0,5.496687E-1],"categories":[],"categories_nodes":[],"categories_segments":[],"categories_sizes":[],"default_left":[1,1,1,0,0,1,1,0,0,0,0],"id":55,"left_children":[1,3,5,-1,-1,7,9,-1,-1,-1,-1],"loss_changes":[5.4552E0,1.0208548E0,4.429482E0,0E0,0E0,8.836087E-1,3.4514923E0,0E0,0E0,0E0,0E0],"parents":[2147483647,0,0,1,1,2,2,5,5,6,6],"right_children":[2,4,6,-1,-1,8,10,-1,-1,-1,-1],"split_conditions":[1.2185E3,5.3E1,3.37E2,-4.9014922E-2,-0E0,3.1555E3,2.649E3,1.2899446E-2,-3.328641E-2,-0E0,5.4966874E-2],"split_indices":[78,45,1,0,0,5,6,0,0,0,0],"split_type":[0,0,0,0,0,0,0,0,0,0,0],"sum_hessian":[8.215801E1,1.1895316E1,7.0262695E1,1.0332242E1,1.5630751E0,1.1982993E1,5.8279705E1,2.2081313E0,9.774862E0,1.0426074E1,4.785363E1],"tree_param":{"num_deleted":"0","num_feature":"107","num_nodes":"11","size_leaf_vector":"0"}},{"base_weights":[-1.5991896E-2,2.6381025E-1,-3.2222816E-1,-1.07221946E-1,6.280432E-1,4.7013108E-2,-4.4756234E-1,1.6935405E-1,-4.0789953E-1,1.0009935E0,-0E0,5.144061E-1,-1.7255338E-1,-0E0,-5.1475966E-1],"categories":[],"categories_nodes":[],"categories_segments":[],"categories_sizes":[],"default_left":[1,1,1,1,1,1,1,0,0,0,0,0,0,0,0],"id":56,"left_children":[1,3,5,7,9,11,13,-1,-1,-1,-1,-1,-1,-1,-1],"loss_changes":[5.3590417E0,4.7303886E0,1.8663313E0,1.5282377E0,3.3789701E0,1.1278716E0,1.0440297E0,0E0,0E0,0E0,0E0,0E0,0E0,0E0,0E0],"parents":[2147483647,0,0,1,1,2,2,3,3,4,4,5,5,6,6],"right_children":[2,4,6,8,10,12,14,-1,-1,-1,-1,-1,-1,-1,-1],"split_conditions":[7.255E2,9.945E2,1.3455E3,8.555E2,4.14E2,4.058E3,2.58E2,1.6935406E-2,-4.0789954E-2,1.0009935E-1,-0E0,5.1440608E-2,-1.7255338E-2,-0E0,-5.147597E-2],"split_indices":[85,80,46,52,59,95,2,0,0,0,0,0,0,0,0],"split_type":[0,0,0,0,0,0,0,0,0,0,0,0,0,0,0],"sum_hessian":[5.9869263E1,2.9650898E1,3.0218363E1,1.3677848E1,1.5973051E1,5.794293E0,2.442407E1,5.6196203E0,8.058228E0,9.0538025E0,6.919248E0,2.8784711E0,2.9158218E0,2.2644553E0,2.2159615E1],"tree_param":{"num_deleted":"0","num_feature":"107","num_nodes":"15","size_leaf_vector":"0"}},{"base_weights":[3.9656386E-2,1.9155546E-1,-3.7741828E-1,-7.415574E-2,4.7722015E-1,-4.8312405E-1,3.13298E-2,-2.1432811E-1,4.4497985E-1,7.561148E-1,-0E0],"categories":[],"categories_nodes":[],"categories_segments":[],"categories_sizes":[],"default_left":[1,1,1,1,1,0,0,0,0,0,0],"id":57,"left_children":[1,3,5,7,9,-1,-1,-1,-1,-1,-1],"loss_changes":[3.9188554E0,4.1636906E0,1.1397381E0,1.6460145E0,3.7601562E0,0E0,0E0,0E0,0E0,0E0,0E0],"parents":[2147483647,0,0,1,1,2,2,3,3,4,4],"right_children":[2,4,6,8,10,-1,-1,-1,-1,-1,-1],"split_conditions":[2.125E2,1.1435E3,3.08E2,4.35E1,1.437E3,-4.8312407E-2,3.13298E-3,-2.1432811E-2,4.4497985E-2,7.561148E-2,-0E0],"split_indices":[58,16,104,42,46,0,0,0,0,0,0],"split_type":[0,0,0,0,0,0,0,0,0,0,0],"sum_hessian":[6.2649796E1,4.8078075E1,1.4571721E1,2.3478933E1,2.4599142E1,1.337688E1,1.1948419E0,2.0466244E1,3.0126898E0,1.5774392E1,8.82475E0],"tree_param":{"num_deleted":"0","num_feature":"107","num_nodes":"11","size_leaf_vector":"0"}},{"base_weights":[-2.0684388E-1,3.197614E-1,-3.9518973E-1,6.488457E-1,-1.1014866E-1,-4.9563482E-1,-0E0,-0E0,7.796075E-1,-1.9941671E-1,-0E0,-5.231518E-1,-0E0,5.06868E-1,-1.8949024E-1],"categories":[],"categories_nodes":[],"categories_segments":[],"categories_sizes":[],"default_left":[1,1,1,1,1,1,1,0,0,1,1,1,1,0,0],"id":58,"left_children":[1,3,5,7,-1,-1,13,-1,-1,-1,-1,-1,-1,-1,-1],"loss_changes":[5.501193E0,2.4818447E0,1.8305321E0,8.1243205E-1,1.024136E-1,6.6944027E-1,1.042696E0,0E0,0E0,0E0,0E0,0E0,0E0,0E0,0E0],"parents":[2147483647,0,0,1,1,2,2,3,3,4,4,5,5,6,6],"right_children":[2,4,6,8,-1,-1,14,-1,-1,-1,-1,-1,-1,-1,-1],"split_conditions":[1.686E3,3.23E2,5.23E2,1.414E3,-1.1014867E-2,-4.9563482E-2,8.08E2,-0E0,7.796075E-2,-1.994167E-2,-0E0,-5.2315183E-2,-0E0,5.0686803E-2,-1.8949024E-2],"split_indices":[44,80,40,65,65,49,37,0,0,2147483647,2147483647,2147483647,2147483647,0,0],"split_type":[0,0,0,0,0,0,0,0,0,0,0,0,0,0,0],"sum_hessian":[5.2430016E1,1.2229591E1,4.0200424E1,7.956171E0,4.2734203E0,3.264492E1,7.555503E0,1.4157321E0,6.540439E0,3.184235E0,1.0891856E0,3.1644659E1,1.0002626E0,2.165446E0,5.3900566E0],"tree_param":{"num_deleted":"4","num_feature":"107","num_nodes":"15","size_leaf_vector":"0"}},{"base_weights":[-6.967084E-2,-2.549797E-1,4.455384E-1,1.7943896E-1,-4.0016854E-1,-1.8951003E-2,6.7890096E-1,4.9818003E-1,-1.8297733E-1,-4.5226288E-1,1.7977332E-1,-0E0,-1.05066724E-1,8.605819E-1,-0E0],"categories":[],"categories_nodes":[],"categories_segments":[],"categories_sizes":[],"default_left":[1,1,1,1,1,1,1,0,0,0,0,1,1,0,0],"id":59,"left_children":[1,3,5,7,9,-1,13,-1,-1,-1,-1,-1,-1,-1,-1],"loss_changes":[5.42363E0,3.0952952E0,2.2095459E0,1.5726572E0,1.4214926E0,3.4648765E-2,2.0439425E0,0E0,0E0,0E0,0E0,0E0,0E0,0E0,0E0],"parents":[2147483647,0,0,1,1,2,2,3,3,4,4,5,5,6,6],"right_children":[2,4,6,8,10,-1,14,-1,-1,-1,-1,-1,-1,-1,-1],"split_conditions":[1.5915E3,2.6515E3,1.68E2,9.63E2,6.31E2,-1.8951002E-3,7.415E2,4.9818005E-2,-1.8297734E-2,-4.5226287E-2,1.7977333E-2,-0E0,-1.0506673E-2,8.605819E-2,-0E0],"split_indices":[33,6,86,81,54,43,87,0,0,0,0,2147483647,2147483647,0,0],"split_type":[0,0,0,0,0,0,0,0,0,0,0,0,0,0,0],"sum_hessian":[5.6614143E1,4.3436935E1,1.3177208E1,9.096343E0,3.4340595E1,3.2807503E0,9.896458E0,6.108573E0,2.9877706E0,3.329434E1,1.0462543E0,1.002727E0,2.2780232E0,8.541155E0,1.3553026E0],"tree_param":{"num_deleted":"2","num_feature":"107","num_nodes":"15","size_leaf_vector":"0"}},{"base_weights":[2.101184E-1,3.946784E-1,-4.6944477E-2,-6.0055807E-2,5.3199375E-1,1.7268485E-1,-3.3059964E-1,-3.5490462E-1,3.2372615E-1,6.04411E-1,-1.8732052E-1,4.360832E-1,-3.8758594E-1,-5.0106925E-1,-0E0],"categories":[],"categories_nodes":[],"categories_segments":[],"categories_sizes":[],"default_left":[1,1,1,1,1,1,1,0,0,0,0,0,0,0,0],"id":60,"left_children":[1,3,5,7,9,11,13,-1,-1,-1,-1,-1,-1,-1,-1],"loss_changes":[4.4242554E0,3.7607603E0,2.3565166E0,1.4255124E0,2.710394E0,2.8803225E0,1.3648854E0,0E0,0E0,0E0,0E0,0E0,0E0,0E0,0E0],"parents":[2147483647,0,0,1,1,2,2,3,3,4,4,5,5,6,6],"right_children":[2,4,6,8,10,12,14,-1,-1,-1,-1,-1,-1,-1,-1],"split_conditions":[1.615E2,3.915E2,5.925E2,2.085E2,4.16E3,2.045E2,1.7885E3,-3.5490464E-2,3.2372616E-2,6.0441103E-2,-1.8732052E-2,4.360832E-2,-3.8758595E-2,-5.0106924E-2,-0E0],"split_indices":[4,105,25,7,9,28,44,0,0,0,0,0,0,0,0],"split_type":[0,0,0,0,0,0,0,0,0,0,0,0,0,0,0],"sum_hessian":[8.4533134E1,5.1158386E1,3.337475E1,1.0306722E1,4.0851665E1,1.704382E1,1.6330929E1,7.3448057E0,2.9619157E0,3.852327E1,2.3283932E0,1.2958287E1,4.085531E0,1.1980778E1,4.35015E0],"tree_param":{"num_deleted":"0","num_feature":"107","num_nodes":"15","size_leaf_vector":"0"}},{"base_weights":[-7.74908E-2,1.400944E-1,-4.191401E-1,-3.8089782E-1,3.191013E-1,-0E0,-5.066029E-1,-2.2407407E-2,6.1226463E-1,-6.310426E-2,2.895398E-1],"categories":[],"categories_nodes":[],"categories_segments":[],"categories_sizes":[],"default_left":[1,1,1,0,1,1,0,0,0,1,1],"id":61,"left_children":[1,3,5,-1,7,-1,-1,-1,-1,-1,-1],"loss_changes":[4.794898E0,3.379002E0,1.1956563E0,0E0,3.453148E0,2.1641539E-1,0E0,0E0,0E0,0E0,0E0],"parents":[2147483647,0,0,1,1,2,2,4,4,5,5],"right_children":[2,4,6,-1,8,-1,-1,-1,-1,-1,-1],"split_conditions":[2.3005E3,1.835E2,3.928E3,-3.8089782E-2,8.345E2,-0E0,-5.066029E-2,-2.2407407E-3,6.1226465E-2,-6.3104257E-3,2.8953983E-2],"split_indices":[30,26,95,0,80,54,0,0,0,2147483647,2147483647],"split_type":[0,0,0,0,0,0,0,0,0,0,0],"sum_hessian":[5.8957798E1,3.4590935E1,2.4366861E1,7.12876E0,2.7462177E1,3.3440886E0,2.1022772E1,1.1536129E1,1.5926047E1,1.9003614E0,1.4437271E0],"tree_param":{"num_deleted":"2","num_feature":"107","num_nodes":"11","size_leaf_vector":"0"}},{"base_weights":[-1.3549197E-2,4.120376E-1,-1.5241995E-1,7.5376856E-1,-1.4087103E-1,-4.1350114E-1,-0E0,-0E0,8.792406E-1,-2.359026E-1,-0E0,-0E0,-5.0349027E-1,2.811354E-1,-3.0839267E-1],"categories":[],"categories_nodes":[],"categories_segments":[],"categories_sizes":[],"default_left":[1,1,1,1,1,1,1,0,0,1,1,0,0,0,0],"id":62,"left_children":[1,3,5,7,-1,11,13,-1,-1,-1,-1,-1,-1,-1,-1],"loss_changes":[3.6963987E0,3.4975133E0,2.2779508E0,9.763937E-1,1.35186E-1,1.2420797E0,2.9134655E0,0E0,0E0,0E0,0E0,0E0,0E0,0E0,0E0],"parents":[2147483647,0,0,1,1,2,2,3,3,4,4,5,5,6,6],"right_children":[2,4,6,8,-1,12,14,-1,-1,-1,-1,-1,-1,-1,-1],"split_conditions":[8.855E2,1.765E2,4.985E2,3.57E2,-1.4087103E-2,1.1895E3,3.005E2,-0E0,8.7924056E-2,-2.3590261E-2,-0E0,-0E0,-5.0349027E-2,2.8113542E-2,-3.0839268E-2],"split_indices":[50,86,20,34,83,78,77,0,0,2147483647,2147483647,0,0,0,0],"split_type":[0,0,0,0,0,0,0,0,0,0,0,0,0,0,0],"sum_hessian":[6.487328E1,1.3704901E1,5.116838E1,9.36321E0,4.341691E0,1.9410883E1,3.1757496E1,1.4837027E0,7.879507E0,3.334049E0,1.007642E0,1.7444035E0,1.7666481E1,1.7487646E1,1.4269852E1],"tree_param":{"num_deleted":"2","num_feature":"107","num_nodes":"15","size_leaf_vector":"0"}},{"base_weights":[-2.0951678E-1,-4.2943308E-1,2.3334928E-1,-0E0,-5.1698923E-1,6.5352863E-1,-1.6113727E-1,5.5039495E-1,-2.3059437E-1,8.4758526E-1,-0E0,3.602863E-2,-3.4913433E-1],"categories":[],"categories_nodes":[],"categories_segments":[],"categories_sizes":[],"default_left":[1,1,1,1,0,1,1,0,0,0,0,1,1],"id":63,"left_children":[1,3,5,7,-1,9,-1,-1,-1,-1,-1,-1,-1],"loss_changes":[5.4548798E0,1.6667328E0,3.3680995E0,1.0928041E0,0E0,1.850534E0,6.2945175E-1,0E0,0E0,0E0,0E0,0E0,0E0],"parents":[2147483647,0,0,1,1,2,2,3,3,5,5,6,6],"right_children":[2,4,6,8,-1,10,-1,-1,-1,-1,-1,-1,-1],"split_conditions":[9.235E2,2.33E2,2.1765E3,1.72E3,-5.1698923E-2,4.845E2,-1.6113726E-2,5.5039495E-2,-2.3059437E-2,8.475853E-2,-0E0,3.602863E-3,-3.491343E-2],"split_indices":[52,80,102,44,0,106,63,0,0,0,0,2147483647,2147483647],"split_type":[0,0,0,0,0,0,0,0,0,0,0,0,0],"sum_hessian":[5.1966465E1,3.625265E1,1.5713816E1,5.3136153E0,3.0939035E1,8.518641E0,7.195174E0,1.8183427E0,3.4952726E0,7.234878E0,1.2837636E0,1.3101987E0,5.884976E0],"tree_param":{"num_deleted":"2","num_feature":"107","num_nodes":"13","size_leaf_vector":"0"}},{"base_weights":[-5.163564E-2,-2.6529542E-1,2.9475814E-1,1.6702047E-1,-3.7836832E-1,-0E0,5.756443E-1,6.745781E-1,-1.5656808E-1,2.7088922E-1,-4.5941377E-1,-3.2360315E-1,1.9466445E-1,-0E0,8.6324316E-1],"categories":[],"categories_nodes":[],"categories_segments":[],"categories_sizes":[],"default_left":[1,1,1,1,1,1,1,0,0,0,0,0,0,0,0],"id":64,"left_children":[1,3,5,7,9,11,13,-1,-1,-1,-1,-1,-1,-1,-1],"loss_changes":[4.38058E0,2.157174E0,2.26358E0,1.7478309E0,2.0319424E0,7.8975827E-1,1.5584764E0,0E0,0E0,0E0,0E0,0E0,0E0,0E0,0E0],"parents":[2147483647,0,0,1,1,2,2,3,3,4,4,5,5,6,6],"right_children":[2,4,6,8,10,12,14,-1,-1,-1,-1,-1,-1,-1,-1],"split_conditions":[1.101E3,5.43E2,1.205E2,3.615E2,1.96E2,1.95E2,4.09E2,6.745781E-2,-1.5656808E-2,2.7088923E-2,-4.594138E-2,-3.2360315E-2,1.9466445E-2,-0E0,8.632432E-2],"split_indices":[82,49,12,71,80,68,59,0,0,0,0,0,0,0,0],"split_type":[0,0,0,0,0,0,0,0,0,0,0,0,0,0,0],"sum_hessian":[5.75302E1,3.7512844E1,2.0017357E1,5.8448906E0,3.1667953E1,8.675677E0,1.1341681E1,3.0564423E0,2.7884483E0,1.8851086E0,2.9782845E1,4.7645035E0,3.9111736E0,4.7622657E0,6.5794144E0],"tree_param":{"num_deleted":"0","num_feature":"107","num_nodes":"15","size_leaf_vector":"0"}},{"base_weights":[2.1990065E-1,3.8364494E-1,-8.521173E-2,-7.131953E-2,5.049425E-1,-2.4030687E-1,3.4545544E-1,4.5836687E-1,-3.216691E-1,5.872721E-1,-1.8486428E-1,2.4806845E-1,-3.9230037E-1,7.201682E-1,-7.424983E-2],"categories":[],"categories_nodes":[],"categories_segments":[],"categories_sizes":[],"default_left":[1,1,1,1,1,1,1,0,0,0,0,0,0,0,0],"id":65,"left_children":[1,3,5,7,9,11,13,-1,-1,-1,-1,-1,-1,-1,-1],"loss_changes":[4.7822356E0,3.7969398E0,1.9683607E0,1.5797336E0,3.3199139E0,2.0384223E0,1.7363347E0,0E0,0E0,0E0,0E0,0E0,0E0,0E0,0E0],"parents":[2147483647,0,0,1,1,2,2,3,3,4,4,5,5,6,6],"right_children":[2,4,6,8,10,12,14,-1,-1,-1,-1,-1,-1,-1,-1],"split_conditions":[1.885E2,8.815E2,2.075E2,1.375E2,9.7E2,3.199E3,4.4E2,4.5836687E-2,-3.216691E-2,5.8727212E-2,-1.8486429E-2,2.4806846E-2,-3.9230037E-2,7.201682E-2,-7.4249827E-3],"split_indices":[22,21,68,92,21,103,14,0,0,0,0,0,0,0,0],"split_type":[0,0,0,0,0,0,0,0,0,0,0,0,0,0,0],"sum_hessian":[8.809279E1,5.9292465E1,2.880032E1,1.0831893E1,4.846057E1,2.3206875E1,5.593445E0,1.9277859E0,8.904107E0,4.472133E1,3.7392428E0,3.7965918E0,1.9410284E1,3.8356826E0,1.7577623E0],"tree_param":{"num_deleted":"0","num_feature":"107","num_nodes":"15","size_leaf_vector":"0"}},{"base_weights":[-5.36299E-2,-3.1483296E-1,1.9722892E-1,-0E0,-4.044099E-1,5.4073E-1,-8.34055E-3,-1.4918448E-1,4.0362412E-1,-0E0,-4.6372747E-1,-0E0,7.109971E-1,2.5693518E-1,-3.3555892E-1],"categories":[],"categories_nodes":[],"categories_segments":[],"categories_sizes":[],"default_left":[1,1,1,1,1,1,1,1,1,0,0,0,0,0,0],"id":66,"left_children":[1,3,5,-1,9,11,13,-1,-1,-1,-1,-1,-1,-1,-1],"loss_changes":[4.0447903E0,1.1965363E0,2.5671005E0,6.1941034E-1,7.6944685E-1,1.8590713E0,1.6535385E0,0E0,0E0,0E0,0E0,0E0,0E0,0E0,0E0],"parents":[2147483647,0,0,1,1,2,2,3,3,4,4,5,5,6,6],"right_children":[2,4,6,-1,10,12,14,-1,-1,-1,-1,-1,-1,-1,-1],"split_conditions":[1.59E2,2.0505E3,8.485E2,-0E0,1.3305E3,1.57E2,1.117E3,-1.4918448E-2,4.0362414E-2,-0E0,-4.637275E-2,-0E0,7.109971E-2,2.5693519E-2,-3.355589E-2],"split_indices":[92,11,52,2,91,55,16,2147483647,2147483647,0,0,0,0,0,0],"split_type":[0,0,0,0,0,0,0,0,0,0,0,0,0,0,0],"sum_hessian":[5.7986446E1,3.0235483E1,2.7750963E1,4.988711E0,2.5246773E1,1.1600678E1,1.6150286E1,2.6908195E0,2.2978911E0,2.7071364E0,2.2539637E1,1.6349318E0,9.965747E0,7.3502054E0,8.80008E0],"tree_param":{"num_deleted":"2","num_feature":"107","num_nodes":"15","size_leaf_vector":"0"}},{"base_weights":[-0E0,2.1392526E-1,-2.6088098E-1,-3.113899E-2,5.008429E-1,6.983611E-2,-4.3043697E-1,2.2219074E-1,-2.9043683E-1,6.817165E-1,-4.549996E-3,-2.4087813E-1,5.0881726E-1,-5.1022583E-1,-0E0],"categories":[],"categories_nodes":[],"categories_segments":[],"categories_sizes":[],"default_left":[1,1,1,1,1,1,1,0,0,0,0,0,0,0,0],"id":67,"left_children":[1,3,5,7,9,11,13,-1,-1,-1,-1,-1,-1,-1,-1],"loss_changes":[3.5652087E0,2.9175272E0,2.0238116E0,1.2966412E0,2.3140988E0,1.5815983E0,1.1702063E0,0E0,0E0,0E0,0E0,0E0,0E0,0E0,0E0],"parents":[2147483647,0,0,1,1,2,2,3,3,4,4,5,5,6,6],"right_children":[2,4,6,8,10,12,14,-1,-1,-1,-1,-1,-1,-1,-1],"split_conditions":[2.025E2,5.025E2,3.985E2,9.715E2,7.35E1,8.385E2,5.345E2,2.2219075E-2,-2.9043684E-2,6.817165E-2,-4.549996E-4,-2.4087815E-2,5.0881725E-2,-5.1022585E-2,-0E0],"split_indices":[58,20,90,84,60,101,40,0,0,0,0,0,0,0,0],"split_type":[0,0,0,0,0,0,0,0,0,0,0,0,0,0,0],"sum_hessian":[6.1715664E1,3.35913E1,2.8124363E1,1.6718082E1,1.687322E1,7.732524E0,2.0391838E1,6.5780106E0,1.0140071E1,1.3626314E1,3.2469068E0,3.4581182E0,4.2744055E0,1.8719555E1,1.6722826E0],"tree_param":{"num_deleted":"0","num_feature":"107","num_nodes":"15","size_leaf_vector":"0"}},{"base_weights":[-1.6012703E-1,-3.778163E-1,2.9743776E-1,-0E0,-5.0745946E-1,6.782213E-1,-1.8987092E-1,5.701139E-1,-2.1339798E-1,8.157867E-1,-0E0,-0E0,-2.954957E-1],"categories":[],"categories_nodes":[],"categories_segments":[],"categories_sizes":[],"default_left":[1,1,1,1,0,1,1,0,0,0,0,1,1],"id":68,"left_children":[1,3,5,7,-1,9,-1,-1,-1,-1,-1,-1,-1],"loss_changes":[5.399132E0,2.083105E0,3.5729346E0,1.4624814E0,0E0,1.0894203E0,2.5148106E-1,0E0,0E0,0E0,0E0,0E0,0E0],"parents":[2147483647,0,0,1,1,2,2,3,3,5,5,6,6],"right_children":[2,4,6,8,-1,10,-1,-1,-1,-1,-1,-1,-1],"split_conditions":[9.235E2,2.48E2,2.183E3,1.72E3,-5.0745945E-2,3.445E2,-1.8987093E-2,5.7011392E-2,-2.1339798E-2,8.157867E-2,-0E0,-0E0,-2.9549569E-2],"split_indices":[52,80,102,44,0,1,63,0,0,0,0,2147483647,2147483647],"split_type":[0,0,0,0,0,0,0,0,0,0,0,0,0],"sum_hessian":[5.126921E1,3.6340004E1,1.492921E1,8.552528E0,2.7787476E1,9.312629E0,5.61658E0,2.513288E0,6.0392404E0,7.7648315E0,1.5477977E0,1.0047145E0,4.6118655E0],"tree_param":{"num_deleted":"2","num_feature":"107","num_nodes":"13","size_leaf_vector":"0"}},{"base_weights":[-1.0553495E-1,1.2050704E-1,-3.490473E-1,4.2075574E-1,-2.4715135E-1,-4.976805E-1,-0E0,-0E0,7.2137797E-1,-0E0,-3.9374462E-1,3.913236E-1,-2.504125E-1],"categories":[],"categories_nodes":[],"categories_segments":[],"categories_sizes":[],"default_left":[1,1,1,1,1,0,1,0,0,0,0,0,0],"id":69,"left_children":[1,3,5,7,9,-1,11,-1,-1,-1,-1,-1,-1],"loss_changes":[3.2001495E0,3.1714103E0,1.7048013E0,2.0108216E0,7.170033E-1,0E0,9.873059E-1,0E0,0E0,0E0,0E0,0E0,0E0],"parents":[2147483647,0,0,1,1,2,2,3,3,4,4,6,6],"right_children":[2,4,6,8,10,-1,12,-1,-1,-1,-1,-1,-1],"split_conditions":[1.7235E3,4.985E2,1.8075E3,4.09E2,1.748E3,-4.976805E-2,1.83E2,-0E0,7.2137795E-2,-0E0,-3.9374463E-2,3.913236E-2,-2.504125E-2],"split_indices":[99,20,99,59,96,0,68,0,0,0,0,0,0],"split_type":[0,0,0,0,0,0,0,0,0,0,0,0,0],"sum_hessian":[5.2221897E1,2.5214722E1,2.7007175E1,1.5297497E1,9.917225E0,1.9659344E1,7.3478312E0,6.888992E0,8.4085045E0,1.9910456E0,7.9261794E0,3.4359944E0,3.9118366E0],"tree_param":{"num_deleted":"0","num_feature":"107","num_nodes":"13","size_leaf_vector":"0"}},{"base_weights":[1.444418E-1,-4.7816476E-1,2.5729918E-1,-0E0,4.4197306E-1,4.4870973E-1,-1.426125E-1,-1.16581365E-1,5.2495E-1],"categories":[],"categories_nodes":[],"categories_segments":[],"categories_sizes":[],"default_left":[1,0,1,1,1,0,0,0,0],"id":70,"left_children":[1,-1,3,5,7,-1,-1,-1,-1],"loss_changes":[5.3883905E0,0E0,3.4432888E0,1.7377763E0,2.3563294E0,0E0,0E0,0E0,0E0],"parents":[2147483647,0,0,2,2,3,3,4,4],"right_children":[2,-1,4,6,8,-1,-1,-1,-1],"split_conditions":[1.2185E3,-4.7816478E-2,1.915E2,2.421E3,1.05E2,4.4870973E-2,-1.426125E-2,-1.1658137E-2,5.2495003E-2],"split_indices":[78,0,28,56,79,0,0,0,0],"split_type":[0,0,0,0,0,0,0,0,0],"sum_hessian":[7.707823E1,9.971311E0,6.710692E1,2.7397617E1,3.97093E1,5.297595E0,2.2100023E1,3.524931E0,3.6184372E1],"tree_param":{"num_deleted":"0","num_feature":"107","num_nodes":"9","size_leaf_vector":"0"}},{"base_weights":[-4.4391774E-2,-2.61919E-1,2.119413E-1,-4.160489E-1,-0E0,5.9568745E-1,-1.4641302E-2,-4.930874E-1,8.008527E-2,2.9593053E-1,-2.9146487E-1,8.822411E-1,-0E0,-2.728865E-1,2.7472672E-1],"categories":[],"categories_nodes":[],"categories_segments":[],"categories_sizes":[],"default_left":[1,1,1,1,1,1,1,0,0,0,0,0,0,0,0],"id":71,"left_children":[1,3,5,7,9,11,13,-1,-1,-1,-1,-1,-1,-1,-1],"loss_changes":[3.3128524E0,1.6737335E0,2.7502923E0,1.3321519E0,1.095235E0,2.5903363E0,1.1911112E0,0E0,0E0,0E0,0E0,0E0,0E0,0E0,0E0],"parents":[2147483647,0,0,1,1,2,2,3,3,4,4,5,5,6,6],"right_children":[2,4,6,8,10,12,14,-1,-1,-1,-1,-1,-1,-1,-1],"split_conditions":[1.355E2,1.625E2,8.195E2,4.325E2,1.286E3,1.4315E3,5.015E2,-4.9308743E-2,8.008528E-3,2.9593054E-2,-2.9146487E-2,8.8224106E-2,-0E0,-2.7288651E-2,2.7472673E-2],"split_indices":[53,92,101,1,31,3,0,0,0,0,0,0,0,0,0],"split_type":[0,0,0,0,0,0,0,0,0,0,0,0,0,0,0],"sum_hessian":[5.652146E1,3.2673626E1,2.3847836E1,2.2014862E1,1.0658765E1,9.88713E0,1.3960706E1,2.0805899E1,1.2089634E0,6.567528E0,4.091237E0,7.291347E0,2.5957825E0,9.233274E0,4.7274313E0],"tree_param":{"num_deleted":"0","num_feature":"107","num_nodes":"15","size_leaf_vector":"0"}},{"base_weights":[-0E0,2.2968072E-1,-1.9912158E-1,-2.884754E-1,4.258217E-1,-3.2992306E-1,3.341226E-1,-0E0,-3.7527388E-1,7.3019195E-1,3.120866E-2,-0E0,-4.6651033E-1,5.684014E-1,-0E0],"categories":[],"categories_nodes":[],"categories_segments":[],"categories_sizes":[],"default_left":[1,1,1,1,1,1,1,1,1,0,0,0,0,0,0],"id":72,"left_children":[1,3,5,-1,9,11,13,-1,-1,-1,-1,-1,-1,-1,-1],"loss_changes":[2.9822378E0,3.5418687E0,2.355698E0,3.1925458E-1,2.2458124E0,1.4475796E0,7.853301E-1,0E0,0E0,0E0,0E0,0E0,0E0,0E0,0E0],"parents":[2147483647,0,0,1,1,2,2,3,3,4,4,5,5,6,6],"right_children":[2,4,6,-1,10,12,14,-1,-1,-1,-1,-1,-1,-1,-1],"split_conditions":[3.555E2,9.835E2,9.025E2,-2.884754E-2,2.115E2,1.785E2,3.44E2,-0E0,-3.752739E-2,7.30192E-2,3.1208661E-3,-0E0,-4.665103E-2,5.684014E-2,-0E0],"split_indices":[1,8,101,14,97,27,24,2147483647,2147483647,0,0,0,0,0,0],"split_type":[0,0,0,0,0,0,0,0,0,0,0,0,0,0,0],"sum_hessian":[6.2543606E1,3.1289974E1,3.1253633E1,7.062764E0,2.422721E1,2.6909504E1,4.3441296E0,1.0314592E0,6.031305E0,1.1766797E1,1.2460413E1,7.2989774E0,1.9610527E1,3.2773829E0,1.0667467E0],"tree_param":{"num_deleted":"2","num_feature":"107","num_nodes":"15","size_leaf_vector":"0"}},{"base_weights":[-1.2162905E-1,1.313573E-1,-4.5047647E-1,4.264418E-1,-3.8094118E-1,-4.8882192E-1,-0E0,6.5588737E-1,-1.0381071E-1],"categories":[],"categories_nodes":[],"categories_segments":[],"categories_sizes":[],"default_left":[1,1,1,1,0,1,1,0,0],"id":73,"left_children":[1,3,-1,7,-1,-1,-1,-1,-1],"loss_changes":[4.3330126E0,4.126699E0,5.6794405E-1,2.8294282E0,0E0,0E0,0E0,0E0,0E0],"parents":[2147483647,0,0,1,1,2,2,3,3],"right_children":[2,4,-1,8,-1,-1,-1,-1,-1],"split_conditions":[9.715E2,4.04E2,-4.504765E-2,4.845E2,-3.809412E-2,-4.8882194E-2,-0E0,6.5588735E-2,-1.0381072E-2],"split_indices":[66,80,103,106,0,2147483647,2147483647,0,0],"split_type":[0,0,0,0,0,0,0,0,0],"sum_hessian":[4.6536175E1,2.4922567E1,2.161361E1,1.715871E1,7.7638574E0,2.058179E1,1.0318178E0,1.3127338E1,4.0313716E0],"tree_param":{"num_deleted":"2","num_feature":"107","num_nodes":"9","size_leaf_vector":"0"}},{"base_weights":[-9.06608E-2,1.2391987E-1,-3.9107937E-1,-2.9985645E-1,3.48733E-1,-0E0,-4.5778117E-1,-3.8221687E-1,-0E0,5.87506E-1,-0E0,-0E0,-4.9755302E-1],"categories":[],"categories_nodes":[],"categories_segments":[],"categories_sizes":[],"default_left":[1,1,1,1,1,0,1,1,1,0,0,1,1],"id":74,"left_children":[1,3,5,-1,9,-1,-1,-1,-1,-1,-1,-1,-1],"loss_changes":[3.7343462E0,2.9881074E0,1.0447333E0,3.752275E-1,2.2734568E0,0E0,6.1420155E-1,0E0,0E0,0E0,0E0,0E0,0E0],"parents":[2147483647,0,0,1,1,2,2,3,3,4,4,6,6],"right_children":[2,4,6,-1,10,-1,-1,-1,-1,-1,-1,-1,-1],"split_conditions":[2.7255E3,1.785E2,1.3585E3,-2.9985646E-2,8.315E2,-0E0,-4.5778118E-2,-3.8221687E-2,-0E0,5.87506E-2,-0E0,-0E0,-4.97553E-2],"split_indices":[6,22,65,98,80,0,90,2147483647,2147483647,0,0,2147483647,2147483647],"split_type":[0,0,0,0,0,0,0,0,0,0,0,0,0],"sum_hessian":[5.2033062E1,2.875382E1,2.327924E1,8.309098E0,2.0444723E1,1.5745579E0,2.1704681E1,7.2979465E0,1.011152E0,1.3142439E1,7.302284E0,1.0036877E0,2.0700994E1],"tree_param":{"num_deleted":"4","num_feature":"107","num_nodes":"13","size_leaf_vector":"0"}},{"base_weights":[2.133019E-1,-4.7596637E-3,3.6015671E-1,-3.393992E-1,2.0171216E-1,1.7568482E-2,5.8200294E-1,7.023972E-2,-4.5456892E-1,-2.9967424E-1,4.8051375E-1,-1.4009793E-1,3.526437E-1,6.482964E-1,-1.0053274E-2],"categories":[],"categories_nodes":[],"categories_segments":[],"categories_sizes":[],"default_left":[1,1,1,1,1,1,1,0,0,0,0,0,0,0,0],"id":75,"left_children":[1,3,5,7,9,11,13,-1,-1,-1,-1,-1,-1,-1,-1],"loss_changes":[3.0462108E0,2.4199216E0,3.4131951E0,1.0978104E0,2.9240146E0,1.5091422E0,1.8350077E0,0E0,0E0,0E0,0E0,0E0,0E0,0E0,0E0],"parents":[2147483647,0,0,1,1,2,2,3,3,4,4,5,5,6,6],"right_children":[2,4,6,8,10,12,14,-1,-1,-1,-1,-1,-1,-1,-1],"split_conditions":[3.26E2,1.268E3,9.075E2,4.625E2,3.15E1,9.49E2,9.755E2,7.0239725E-3,-4.5456894E-2,-2.9967425E-2,4.8051376E-2,-1.4009793E-2,3.526437E-2,6.482964E-2,-1.0053274E-3],"split_indices":[80,78,21,54,42,81,21,0,0,0,0,0,0,0,0],"split_type":[0,0,0,0,0,0,0,0,0,0,0,0,0,0,0],"sum_hessian":[8.2972984E1,3.10402E1,5.1932785E1,1.3446399E1,1.75938E1,2.2607597E1,2.9325186E1,1.1309801E0,1.2315419E1,4.9786806E0,1.2615119E1,1.3739904E1,8.867693E0,2.7805769E1,1.5194178E0],"tree_param":{"num_deleted":"0","num_feature":"107","num_nodes":"15","size_leaf_vector":"0"}},{"base_weights":[-7.70933E-2,-4.7313318E-1,5.262863E-2,3.3862877E-1,-1.1988746E-1,-6.613445E-2,5.5528843E-1,-4.5079517E-1,9.926065E-2],"categories":[],"categories_nodes":[],"categories_segments":[],"categories_sizes":[],"default_left":[1,0,1,1,1,0,0,0,0],"id":76,"left_children":[1,-1,3,5,7,-1,-1,-1,-1],"loss_changes":[3.4356384E0,0E0,2.3731043E0,2.1536298E0,2.2295165E0,0E0,0E0,0E0,0E0],"parents":[2147483647,0,0,2,2,3,3,4,4],"right_children":[2,-1,4,6,8,-1,-1,-1,-1],"split_conditions":[1.835E2,-4.7313318E-2,8.495E2,7.65E2,2.867E3,-6.6134455E-3,5.5528846E-2,-4.5079518E-2,9.926065E-3],"split_indices":[26,0,52,43,74,0,0,0,0],"split_type":[0,0,0,0,0,0,0,0,0],"sum_hessian":[5.720399E1,1.5362853E1,4.184114E1,1.7561335E1,2.4279804E1,4.755792E0,1.2805543E1,1.1070197E1,1.3209608E1],"tree_param":{"num_deleted":"0","num_feature":"107","num_nodes":"9","size_leaf_vector":"0"}},{"base_weights":[2.1430056E-3,2.686405E-1,-2.1185088E-1,-1.8287675E-2,5.2128154E-1,8.803625E-2,-3.8996658E-1,-3.2132432E-1,4.6115392E-1,7.019681E-1,-6.990083E-4,-2.3461685E-1,4.3010017E-1,-0E0,-4.6062124E-1],"categories":[],"categories_nodes":[],"categories_segments":[],"categories_sizes":[],"default_left":[1,1,1,1,1,1,1,0,0,0,0,0,0,0,0],"id":77,"left_children":[1,3,5,7,9,11,13,-1,-1,-1,-1,-1,-1,-1,-1],"loss_changes":[3.4386027E0,2.5776033E0,1.9821957E0,1.8174157E0,2.3085327E0,1.4228034E0,9.941287E-1,0E0,0E0,0E0,0E0,0E0,0E0,0E0,0E0],"parents":[2147483647,0,0,1,1,2,2,3,3,4,4,5,5,6,6],"right_children":[2,4,6,8,10,12,14,-1,-1,-1,-1,-1,-1,-1,-1],"split_conditions":[3.555E2,1.855E2,4.76E2,1.04E3,9.215E2,8.275E2,9.45E1,-3.2132432E-2,4.6115395E-2,7.019681E-2,-6.990083E-5,-2.3461685E-2,4.301002E-2,-0E0,-4.6062123E-2],"split_indices":[1,7,0,94,52,37,12,0,0,0,0,0,0,0,0],"split_type":[0,0,0,0,0,0,0,0,0,0,0,0,0,0,0],"sum_hessian":[5.7302116E1,2.7487812E1,2.9814306E1,1.145155E1,1.6036263E1,9.205961E0,2.0608345E1,8.496678E0,2.9548705E0,1.3079636E1,2.9566271E0,3.394639E0,5.8113227E0,1.435107E0,1.9173237E1],"tree_param":{"num_deleted":"0","num_feature":"107","num_nodes":"15","size_leaf_vector":"0"}},{"base_weights":[-1.7686245E-1,-3.7376624E-1,2.1516946E-1,-0E0,-4.679119E-1,4.9478498E-1,-2.4380302E-1,-1.930065E-1,5.477249E-1,-0E0,-4.993798E-1,6.837941E-1,-0E0],"categories":[],"categories_nodes":[],"categories_segments":[],"categories_sizes":[],"default_left":[1,1,1,1,1,1,0,0,0,1,1,0,0],"id":78,"left_children":[1,3,5,7,-1,11,-1,-1,-1,-1,-1,-1,-1],"loss_changes":[3.8302941E0,1.5375285E0,2.231363E0,1.0172951E0,6.0108995E-1,1.3654451E0,0E0,0E0,0E0,0E0,0E0,0E0,0E0],"parents":[2147483647,0,0,1,1,2,2,3,3,4,4,5,5],"right_children":[2,4,6,8,-1,12,-1,-1,-1,-1,-1,-1,-1],"split_conditions":[9.225E2,3.21E2,1.164E3,7.83E2,-4.6791192E-2,1.915E2,-2.4380302E-2,-1.930065E-2,5.4772492E-2,-0E0,-4.9937982E-2,6.837941E-2,-0E0],"split_indices":[52,88,13,38,33,28,0,0,0,2147483647,2147483647,0,0],"split_type":[0,0,0,0,0,0,0,0,0,0,0,0,0],"sum_hessian":[4.552357E1,3.2032288E1,1.3491282E1,4.9326453E0,2.7099644E1,9.689184E0,3.8020988E0,3.0438132E0,1.8888319E0,1.0194288E0,2.6080214E1,7.5169086E0,2.1722755E0],"tree_param":{"num_deleted":"2","num_feature":"107","num_nodes":"13","size_leaf_vector":"0"}},{"base_weights":[-4.9993854E-2,1.5478536E-1,-3.4381905E-1,4.8754036E-1,-1.251934E-1,-4.5196056E-1,2.7444783E-1,-0E0,7.541679E-1,-3.213959E-1,4.0475377E-1,-0E0,-4.9230286E-1],"categories":[],"categories_nodes":[],"categories_segments":[],"categories_sizes":[],"default_left":[1,1,1,1,1,1,0,0,0,0,0,1,1],"id":79,"left_children":[1,3,5,7,9,-1,-1,-1,-1,-1,-1,-1,-1],"loss_changes":[3.4905775E0,3.2647016E0,1.9388623E0,2.0513961E0,1.6818738E0,6.102042E-1,0E0,0E0,0E0,0E0,0E0,0E0,0E0],"parents":[2147483647,0,0,1,1,2,2,3,3,4,4,5,5],"right_children":[2,4,6,8,10,-1,-1,-1,-1,-1,-1,-1,-1],"split_conditions":[4.985E2,1.7255E3,7.63E2,1.7245E3,1.375E2,-4.5196056E-2,2.7444784E-2,-0E0,7.5416796E-2,-3.2139592E-2,4.047538E-2,-0E0,-4.923029E-2],"split_indices":[20,99,61,44,12,38,0,0,0,0,0,2147483647,2147483647],"split_type":[0,0,0,0,0,0,0,0,0,0,0,0,0],"sum_hessian":[5.2986435E1,2.9497913E1,2.3488522E1,1.4771876E1,1.4726036E1,2.159733E1,1.8911918E0,5.5738873E0,9.1979885E0,1.2411453E1,2.314583E0,1.0340453E0,2.0563284E1],"tree_param":{"num_deleted":"2","num_feature":"107","num_nodes":"13","size_leaf_vector":"0"}},{"base_weights":[1.515112E-1,-2.1500497E-1,2.6771557E-1,-4.1985032E-1,-0E0,-2.1520303E-1,3.5747975E-1,-0E0,-4.8199958E-1,-2.5926754E-1,3.0383086E-1,2.2132109E-1,-4.3959028E-1,-0E0,4.7003362E-1],"categories":[],"categories_nodes":[],"categories_segments":[],"categories_sizes":[],"default_left":[1,1,1,1,1,1,1,1,1,0,0,0,0,0,0],"id":80,"left_children":[1,3,5,-1,9,11,13,-1,-1,-1,-1,-1,-1,-1,-1],"loss_changes":[3.8911788E0,1.154242E0,3.250146E0,4.2485E-1,8.2521784E-1,1.2791482E0,2.5091453E0,0E0,0E0,0E0,0E0,0E0,0E0,0E0,0E0],"parents":[2147483647,0,0,1,1,2,2,3,3,4,4,5,5,6,6],"right_children":[2,4,6,-1,10,12,14,-1,-1,-1,-1,-1,-1,-1,-1],"split_conditions":[9.725E2,1.5405E3,2.7665E3,-4.198503E-2,4.335E2,2.75E1,2.725E2,-0E0,-4.819996E-2,-2.5926754E-2,3.0383086E-2,2.213211E-2,-4.395903E-2,-0E0,4.7003362E-2],"split_indices":[84,17,74,101,39,42,80,2147483647,2147483647,0,0,0,0,0,0],"split_type":[0,0,0,0,0,0,0,0,0,0,0,0,0,0,0],"sum_hessian":[8.777292E1,1.8853134E1,6.8919785E1,1.0754384E1,8.098751E0,8.837509E0,6.008227E1,1.0071073E0,9.747276E0,3.2652454E0,4.8335056E0,1.4920162E0,7.345493E0,1.439381E1,4.568846E1],"tree_param":{"num_deleted":"2","num_feature":"107","num_nodes":"15","size_leaf_vector":"0"}},{"base_weights":[-3.8804203E-2,-3.53974E-1,1.2564008E-1,-4.749203E-1,-0E0,-1.05602935E-1,3.6822647E-1,3.7236738E-1,-1.04679465E-2,-3.2836032E-1,3.6549166E-1,6.1140674E-1,-0E0],"categories":[],"categories_nodes":[],"categories_segments":[],"categories_sizes":[],"default_left":[1,1,1,0,1,1,1,1,1,0,0,0,0],"id":81,"left_children":[1,3,5,-1,-1,9,11,-1,-1,-1,-1,-1,-1],"loss_changes":[3.025918E0,1.3076038E0,2.1841083E0,0E0,3.4649473E-1,1.7460101E0,1.9104888E0,0E0,0E0,0E0,0E0,0E0,0E0],"parents":[2147483647,0,0,1,1,2,2,4,4,5,5,6,6],"right_children":[2,4,6,-1,-1,10,12,-1,-1,-1,-1,-1,-1],"split_conditions":[1.655E2,6.555E2,1E3,-4.749203E-2,-0E0,1.0325E3,7.27E2,3.723674E-2,-1.0467947E-3,-3.283603E-2,3.6549166E-2,6.1140675E-2,-0E0],"split_indices":[55,75,80,0,16,84,85,2147483647,2147483647,0,0,0,0],"split_type":[0,0,0,0,0,0,0,0,0,0,0,0,0],"sum_hessian":[5.212027E1,1.9560207E1,3.2560062E1,1.6219067E1,3.3411396E0,1.4848406E1,1.7711657E1,1.4966779E0,1.8444617E0,1.1728349E1,3.120057E0,1.0897804E1,6.813853E0],"tree_param":{"num_deleted":"2","num_feature":"107","num_nodes":"13","size_leaf_vector":"0"}},{"base_weights":[5.719262E-2,1.8335375E-1,-2.8334564E-1,-3.3972576E-1,2.9248857E-1,-3.977411E-1,7.941113E-2,4.6282133E-1,-0E0,-0E0,-4.4880792E-1],"categories":[],"categories_nodes":[],"categories_segments":[],"categories_sizes":[],"default_left":[1,1,1,0,1,1,0,0,0,1,1],"id":82,"left_children":[1,3,5,-1,7,-1,-1,-1,-1,-1,-1],"loss_changes":[2.4773307E0,2.6575677E0,9.36697E-1,0E0,2.3052914E0,3.5627055E-1,0E0,0E0,0E0,0E0,0E0],"parents":[2147483647,0,0,1,1,2,2,4,4,5,5],"right_children":[2,4,6,-1,8,-1,-1,-1,-1,-1,-1],"split_conditions":[2.095E2,3.7935E3,4.85E1,-3.3972576E-2,4.95E1,-3.9774112E-2,7.941113E-3,4.6282135E-2,-0E0,-0E0,-4.4880792E-2],"split_indices":[58,9,67,0,35,51,0,0,0,2147483647,2147483647],"split_type":[0,0,0,0,0,0,0,0,0,0,0],"sum_hessian":[5.7780537E1,4.464044E1,1.3140094E1,5.7594953E0,3.8880947E1,1.2012253E1,1.1278408E0,2.568998E1,1.3190969E1,1.0239668E0,1.0988286E1],"tree_param":{"num_deleted":"2","num_feature":"107","num_nodes":"11","size_leaf_vector":"0"}},{"base_weights":[-1.2768058E-1,6.114257E-2,-4.7064313E-1,3.1872606E-1,-3.358733E-1,-9.196516E-2,5.190914E-1,-0E0,-4.0652108E-1],"categories":[],"categories_nodes":[],"categories_segments":[],"categories_sizes":[],"default_left":[1,1,0,1,1,0,0,1,1],"id":83,"left_children":[1,3,-1,5,-1,-1,-1,-1,-1],"loss_changes":[3.6076841E0,3.215947E0,0E0,2.16839E0,4.108714E-1,0E0,0E0,0E0,0E0],"parents":[2147483647,0,0,1,1,3,3,4,4],"right_children":[2,4,-1,6,-1,-1,-1,-1,-1],"split_conditions":[4.005E2,1.1655E3,-4.7064316E-2,9.245E2,-3.3587333E-2,-9.196516E-3,5.1909145E-2,-0E0,-4.0652107E-2],"split_indices":[80,13,0,48,26,0,0,2147483647,2147483647],"split_type":[0,0,0,0,0,0,0,0,0],"sum_hessian":[4.794137E1,2.9568138E1,1.8373228E1,1.9580389E1,9.98775E0,4.9612947E0,1.4619095E1,1.0009701E0,8.986779E0],"tree_param":{"num_deleted":"2","num_feature":"107","num_nodes":"9","size_leaf_vector":"0"}},{"base_weights":[-1.08184576E-1,-2.9329258E-1,1.9131592E-1,-3.6619508E-1,2.9516423E-1,-1.4757477E-1,3.9446378E-1,9.198759E-2,-4.2079967E-1,-0E0,-2.2903611E-1,6.30817E-1,-0E0],"categories":[],"categories_nodes":[],"categories_segments":[],"categories_sizes":[],"default_left":[1,1,1,1,0,1,1,0,0,1,1,0,0],"id":84,"left_children":[1,3,5,7,-1,-1,11,-1,-1,-1,-1,-1,-1],"loss_changes":[2.8858905E0,1.5891094E0,1.4985915E0,1.1481662E0,0E0,1.1249338E-1,1.3348219E0,0E0,0E0,0E0,0E0,0E0,0E0],"parents":[2147483647,0,0,1,1,2,2,3,3,5,5,6,6],"right_children":[2,4,6,8,-1,-1,12,-1,-1,-1,-1,-1,-1],"split_conditions":[1.1E3,3.064E3,1.7225E3,1.89E2,2.9516423E-2,-1.4757477E-2,1.81E2,9.198759E-3,-4.2079967E-2,-0E0,-2.2903612E-2,6.3081704E-2,-0E0],"split_indices":[82,74,44,80,0,23,55,0,0,2147483647,2147483647,0,0],"split_type":[0,0,0,0,0,0,0,0,0,0,0,0,0],"sum_hessian":[4.8202843E1,3.1866926E1,1.6335915E1,3.0202297E1,1.6646285E0,4.380093E0,1.1955822E1,1.1930887E0,2.9009209E1,1.0020238E0,3.3780694E0,7.4204974E0,4.5353246E0],"tree_param":{"num_deleted":"2",